SVM-light Version V6.01
1 # kernel type
3 # kernel parameter -d 
1 # kernel parameter -g 
1 # kernel parameter -s 
1 # kernel parameter -r 
empty# kernel parameter -u 
51 # highest feature index 
316 # number of training documents 
122 # number of support vectors plus 1 
1.3289556 # threshold b, each following line is a SV (starting with alpha*y)
-1.8867725203377914e-005 1:0.2010331 2:0.11488 3:0.91952997 4:0.2219 5:0.4571 6:0.53200001 7:0.229 8:0.78799999 9:0.6286 10:1.143 11:0.6286 12:1.048 13:0.40000001 14:1.1109999 15:0.6857 16:0.81599998 17:0.28600001 18:1.429 19:0.6286 20:1.397 21:1.0286 22:1.558 23:1.3142999 24:1.776 25:0.229 26:1.345 27:0.57139999 28:1.329 29:0.2286 30:0.44 31:0.40000001 32:1.026 33:0.51429999 34:1.05 35:0.4571 36:0.653 37:0.34290001 38:0.56199998 39:0.57139999 40:0.866 41:0.229 42:0.67199999 43:0.21709999 44:0.41710001 45:0.25139999 46:0.1086 47:0.51429999 48:0.48570001 49:0.30860001 50:0.1829 51:0.1257 #
-1.8867725203377914e-005 1:0.57725281 2:0.11144 3:0.55532002 4:0.57179999 5:0.67570001 6:0.78600001 7:0.212 8:0.73199999 9:0.67570001 10:1.229 11:0.59850001 12:0.99699998 13:0.46329999 14:1.2869999 15:0.71429998 16:0.85000002 17:0.154 18:0.77200001 19:0.84939998 20:1.888 21:0.55980003 22:0.84799999 23:0.69499999 24:0.93900001 25:0.212 26:1.249 27:0.50190002 28:1.1670001 29:0.46329999 30:0.89099997 31:0.28960001 32:0.74299997 33:0.54049999 34:1.103 35:0.8301 36:1.186 37:0.57920003 38:0.949 39:0.5212 40:0.79000002 41:0.34799999 42:1.022 43:0.3012 44:0.51740003 45:0.2066 46:0.1081 47:0.52700001 48:0.47299999 49:0.2529 50:0.12549999 51:0.1274 #
1.8867725203377914e-005 1:0.2189059 2:0.11521 3:0.4858 4:0.19059999 5:0.52630001 6:0.61199999 7:0.052999999 8:0.18099999 9:0.7895 10:1.4349999 11:0.89469999 12:1.4910001 13:0.7895 14:2.1930001 15:0.63160002 16:0.75199997 17:0.15790001 18:0.78899997 19:0.579 20:1.2869999 21:0.89469999 22:1.3559999 23:0.7895 24:1.067 25:0.26320001 26:1.548 27:0.421 28:0.97899997 29:0.31580001 30:0.60699999 31:0.47400001 32:1.215 33:0.421 34:0.85900003 35:0.7895 36:1.128 37:0.368 38:0.60399997 39:0.42109999 40:0.63800001 41:0.31600001 42:0.92900002 43:0.2368 44:0.4316 45:0.17900001 46:0.13680001 47:0.479 48:0.52109998 49:0.31580001 50:0.14740001 51:0.1684 #
-1.0164395367051604e-020 1:0.49433309 2:0.11364 3:0.72043002 4:0.58319998 5:0.5977 6:0.69499999 7:0.138 8:0.47600001 9:0.4598 10:0.83600003 11:0.7816 12:1.303 13:0.4138 14:1.149 15:0.68970001 16:0.82099998 17:0.322 18:1.609 19:0.50569999 20:1.124 21:0.48280001 22:0.73100001 23:1.0805 24:1.46 25:0.50599998 26:2.9749999 27:0.2299 28:0.53500003 29:0.5517 30:1.061 31:0.2529 32:0.648 33:0.71259999 34:1.454 35:0.6207 36:0.88700002 37:0.48280001 38:0.79100001 39:0.7586 40:1.149 41:0.23 42:0.676 43:0.2529 44:0.45289999 45:0.23450001 46:0.1149 47:0.56550002 48:0.43450001 49:0.27590001 50:0.1517 51:0.1241 #
-1.8867725203377914e-005 1:0.36758709 2:0.1138 3:0.44172001 4:0.30579999 5:0.58819997 6:0.68400002 7:0 8:0 9:1.0836 10:1.97 11:0.92879999 12:1.548 13:0.3096 14:0.86000001 15:0.37149999 16:0.442 17:0.155 18:0.77399999 19:0.49540001 20:1.101 21:1.1765 22:1.783 23:0.65020001 24:0.87900001 25:0.403 26:2.368 27:0.52630001 28:1.224 29:0.46439999 30:0.89300001 31:0.37149999 32:0.95300001 33:0.1238 34:0.25299999 35:0.9598 36:1.3710001 37:0.46439999 38:0.76099998 39:0.4025 40:0.61000001 41:0.46399999 42:1.3660001 43:0.2384 44:0.48609999 45:0.1548 46:0.099100001 47:0.42109999 48:0.579 49:0.3468 50:0.1455 51:0.20119999 #
1.8867725203377914e-005 1:0.16960751 2:0.11232 3:0.414 4:0.038400002 5:0.46360001 6:0.53899997 7:0.133 8:0.45699999 9:0.59600002 10:1.084 11:1.457 12:2.428 13:0.59600002 14:1.656 15:0.92720002 16:1.104 17:0.1987 18:0.99299997 19:0.331 20:0.736 21:0.5298 22:0.80299997 23:1.0596 24:1.432 25:0.1987 26:1.169 27:0.39700001 28:0.92400002 29:0.33109999 30:0.63700002 31:0.59600002 32:1.528 33:0.39700001 34:0.81099999 35:0.59600002 36:0.85100001 37:0.39700001 38:0.65100002 39:0.59600002 40:0.903 41:0.199 42:0.58399999 43:0.25170001 44:0.44369999 45:0.1987 46:0.099299997 47:0.48339999 48:0.51660001 49:0.3179 50:0.1126 51:0.2053 #
-1.8867725203377914e-005 1:0.52909309 2:0.11378 3:0.83581001 4:0.64719999 5:0.55909997 6:0.64999998 7:0.17200001 8:0.59299999 9:0.53759998 10:0.97799999 11:0.62370002 12:1.039 13:0.55909997 14:1.553 15:0.58060002 16:0.69099998 17:0.17200001 18:0.86000001 19:0.47310001 20:1.051 21:0.75269997 22:1.14 23:1.0753 24:1.4529999 25:0.28 26:1.645 27:0.58060002 28:1.35 29:0.32260001 30:0.62 31:0.36559999 32:0.93699998 33:0.4946 34:1.0089999 35:0.92470002 36:1.321 37:0.4946 38:0.81099999 39:0.53759998 40:0.815 41:0.32300001 42:0.949 43:0.27309999 44:0.47099999 45:0.2086 46:0.1226 47:0.5054 48:0.4946 49:0.2581 50:0.1419 51:0.1161 #
1.8867725203377914e-005 1:0.14139649 2:0.10961 3:0.8836 4:0.038400002 5:1.0853 6:1.262 7:0.465 8:1.604 9:0.46509999 10:0.84600002 11:0.69770002 12:1.163 13:0.077500001 14:0.215 15:0.69770002 16:0.83099997 17:0.077500001 18:0.38800001 19:0.38800001 20:0.861 21:0.77520001 22:1.175 23:1.7829 24:2.4089999 25:0.155 26:0.912 27:0.078000002 28:0.18000001 29:0.62019998 30:1.193 31:0.54299998 32:1.391 33:0.77499998 34:1.582 35:0.54259998 36:0.77499998 37:0.078000002 38:0.127 39:0.46509999 40:0.70499998 41:0.233 42:0.68400002 43:0.2868 44:0.44960001 45:0.26359999 46:0.038800001 47:0.59689999 48:0.40310001 49:0.2791 50:0.1628 51:0.1163 #
1.8867725203377914e-005 1:0.31077039 2:0.11553 3:0.48629999 4:0.2418 5:0.5948 6:0.69199997 7:0.074000001 8:0.25600001 9:0.74349999 10:1.352 11:1.0409 12:1.735 13:0.5948 14:1.652 15:0.70630002 16:0.84100002 17:0.223 18:1.115 19:0.33500001 20:0.74299997 21:0.81779999 22:1.239 23:1.2639 24:1.7079999 25:0.40889999 26:2.405 27:0.44600001 28:1.0369999 29:0.223 30:0.42899999 31:0.40900001 32:1.049 33:0.51999998 34:1.062 35:0.70630002 36:1.0089999 37:0.223 38:0.366 39:0.223 40:0.338 41:0.37200001 42:1.0930001 43:0.2305 44:0.39410001 45:0.1822 46:0.12639999 47:0.48699999 48:0.51300001 49:0.3346 50:0.1561 51:0.17839999 #
1.8867725203377914e-005 1:0.47404811 2:0.11423 3:0.80589998 4:0.51490003 5:0.72289997 6:0.84100002 7:0.26499999 8:0.91399997 9:0.53009999 10:0.96399999 11:0.6024 12:1.0039999 13:0.55419999 14:1.539 15:0.53009999 16:0.63099998 17:0.31330001 18:1.566 19:0.43399999 20:0.96399999 21:0.5783 22:0.87599999 23:1.1806999 24:1.596 25:0.241 26:1.4170001 27:0.31299999 28:0.72799999 29:0.50599998 30:0.97299999 31:0.31299999 32:0.80299997 33:0.62699997 34:1.279 35:0.62650001 36:0.89499998 37:0.31299999 38:0.514 39:0.79519999 40:1.205 41:0.43399999 42:1.276 43:0.2458 44:0.46020001 45:0.241 46:0.14219999 47:0.5783 48:0.4217 49:0.2651 50:0.15180001 51:0.1133 #
1.6353607535869781e-005 1:0.2196749 2:0.11441 3:0.4271 4:0.2418 5:0.8854 6:1.03 7:0.25999999 8:0.898 9:1.0417 10:1.8940001 11:0.8854 12:1.476 13:0.6771 14:1.881 15:0.6771 16:0.80599999 17:0 18:0 19:0.57300001 20:1.273 21:0.8854 22:1.342 23:0.5729 24:0.77399999 25:0.15629999 26:0.91900003 27:0.78100002 28:1.817 29:0.15629999 30:0.30000001 31:0.31299999 32:0.801 33:0.36500001 34:0.74400002 35:0.20829999 36:0.29800001 37:0.25999999 38:0.42699999 39:0.6771 40:1.026 41:0.52100003 42:1.5319999 43:0.22920001 44:0.4948 45:0.1823 46:0.1302 47:0.52600002 48:0.47400001 49:0.3177 50:0.125 51:0.1927 #
-1.8867725203377914e-005 1:0.1040332 2:0.10951 3:0.82185 4:0.0128 5:0.63160002 6:0.73400003 7:0.211 8:0.72600001 9:0.42109999 10:0.76599997 11:0.73680001 12:1.228 13:0.42109999 14:1.17 15:0.84210002 16:1.003 17:0.105 18:0.52600002 19:0.42109999 20:0.93599999 21:1.0526 22:1.595 23:1.4737 24:1.9910001 25:0.63200003 26:3.7149999 27:0.31580001 28:0.73400003 29:0.31580001 30:0.60699999 31:0.31580001 32:0.81 33:0.2105 34:0.43000001 35:0.73680001 36:1.053 37:0.31580001 38:0.51800001 39:0.73680001 40:1.1160001 41:0.105 42:0.31 43:0.2737 44:0.4526 45:0.26320001 46:0.063199997 47:0.579 48:0.42109999 49:0.25260001 50:0.13680001 51:0.1158 #
1.8867725203377914e-005 1:0.34060431 2:0.1143 3:0.4488 4:0.31720001 5:0.60399997 6:0.70200002 7:0.50300002 8:1.7359999 9:0.77179998 10:1.403 11:1.0738 12:1.79 13:0.53689998 14:1.4910001 15:0.4698 16:0.55900002 17:0.43619999 18:2.181 19:0.47 20:1.044 21:0.67110002 22:1.017 23:0.93959999 24:1.27 25:0.16779999 26:0.98699999 27:0.43599999 28:1.015 29:0.53689998 30:1.033 31:0.30199999 32:0.77399999 33:0.26899999 34:0.54799998 35:0.2685 36:0.384 37:0.60399997 38:0.99000001 39:0.57050002 40:0.86400002 41:0.235 42:0.69099998 43:0.245 44:0.4765 45:0.198 46:0.13420001 47:0.51679999 48:0.48320001 49:0.3222 50:0.1376 51:0.1846 #
1.8867725203377914e-005 1:0.2008756 2:0.11413 3:0.4425 4:0.33570001 5:0.68180001 6:0.79299998 7:0.114 8:0.39199999 9:1.0795 10:1.9630001 11:0.625 12:1.0420001 13:0.73860002 14:2.052 15:0.3409 16:0.40599999 17:0.1705 18:0.852 19:0.68199998 20:1.515 21:0.85229999 22:1.291 23:0.625 24:0.84500003 25:0.1705 26:1.003 27:0.51099998 28:1.189 29:0.1705 30:0.32800001 31:0.114 32:0.29100001 33:0.227 34:0.46399999 35:0.73860002 36:1.0549999 37:0.796 38:1.304 39:0.85229999 40:1.291 41:0.227 42:0.66799998 43:0.26710001 44:0.5284 45:0.2159 46:0.14210001 47:0.48859999 48:0.51139998 49:0.29550001 50:0.125 51:0.1705 #
1.0863940369723775e-005 1:0.1039987 2:0.10947 3:0.44980001 4:0.025599999 5:0.84210002 6:0.97899997 7:0.105 8:0.36300001 9:0.84210002 10:1.531 11:0.84210002 12:1.404 13:0.63160002 14:1.7539999 15:0.84210002 16:1.003 17:0.1053 18:0.52600002 19:0.421 20:0.93599999 21:1.0526 22:1.595 23:1.0526 24:1.4220001 25:0.42109999 26:2.477 27:0.105 28:0.245 29:0.1053 30:0.20200001 31:0.31600001 32:0.81 33:0.105 34:0.215 35:0.73680001 36:1.053 37:0.63200003 38:1.035 39:0.63160002 40:0.95700002 41:0.211 42:0.61900002 43:0.31580001 44:0.4842 45:0.2105 46:0.094700001 47:0.52630001 48:0.47369999 49:0.2947 50:0.12630001 51:0.1684 #
1.8867725203377914e-005 1:0.2162513 2:0.11263 3:0.43689999 4:0.2418 5:1.1979001 6:1.393 7:0.156 8:0.53899997 9:0.8854 10:1.61 11:0.6771 12:1.128 13:0.6771 14:1.881 15:0.5729 16:0.68199998 17:0 18:0 19:0.57300001 20:1.273 21:0.72920001 22:1.105 23:0.6771 24:0.91500002 25:0.1042 26:0.61299998 27:0.93800002 28:2.1800001 29:0.15629999 30:0.30000001 31:0.31299999 32:0.801 33:0.36500001 34:0.74400002 35:0.3646 36:0.52100003 37:0.25999999 38:0.42699999 39:0.72920001 40:1.105 41:0.52100003 42:1.5319999 43:0.2552 44:0.52600002 45:0.1979 46:0.1302 47:0.54689997 48:0.4531 49:0.2656 50:0.1094 51:0.15629999 #
-1.8867725203377914e-005 1:0.198286 2:0.11396 3:0.49364999 4:0.1522 5:0.5747 6:0.66799998 7:0.115 8:0.396 9:0.977 10:1.776 11:0.68970001 12:1.149 13:0.4598 14:1.277 15:0.68970001 16:0.82099998 17:0 18:0 19:0.51719999 20:1.149 21:0.6322 22:0.958 23:1.2644 24:1.709 25:0.23 26:1.352 27:0.3448 28:0.80199999 29:0.28740001 30:0.55299997 31:0.4598 32:1.179 33:0.86210001 34:1.7589999 35:0.51719999 36:0.73900002 37:0.4598 38:0.75400001 39:0.6322 40:0.958 41:0.17200001 42:0.50700003 43:0.23559999 44:0.4598 45:0.2414 46:0.074699998 47:0.50580001 48:0.49430001 49:0.3161 50:0.1494 51:0.16670001 #
-1.8867725203377914e-005 1:0.19616459 2:0.11274 3:0.54127002 4:0.1522 5:0.68970001 6:0.80199999 7:0.115 8:0.396 9:0.91949999 10:1.6720001 11:0.6322 12:1.054 13:0.4023 14:1.117 15:0.7471 16:0.889 17:0 18:0 19:0.68970001 20:1.533 21:0.7471 22:1.132 23:1.2069 24:1.631 25:0.17200001 26:1.0140001 27:0.4023 28:0.93599999 29:0.2299 30:0.442 31:0.51719999 32:1.326 33:0.7471 34:1.525 35:0.51719999 36:0.73900002 37:0.28740001 38:0.47099999 39:0.68970001 40:1.045 41:0.17200001 42:0.50700003 43:0.23559999 44:0.4598 45:0.2586 46:0.068999998 47:0.523 48:0.477 49:0.3046 50:0.1494 51:0.1552 #
-1.8867725203377914e-005 1:0.1987894 2:0.11425 3:0.68281001 4:0.2219 5:0.5747 6:0.66799998 7:0.057999998 8:0.198 9:0.8046 10:1.4630001 11:0.7471 12:1.245 13:0.4023 14:1.117 15:0.68970001 16:0.82099998 17:0 18:0 19:0.5747 20:1.277 21:0.91949999 22:1.393 23:1.4368 24:1.942 25:0.23 26:1.352 27:0.3448 28:0.80199999 29:0.28740001 30:0.55299997 31:0.4598 32:1.179 33:0.6322 34:1.29 35:0.51719999 36:0.73900002 37:0.3448 38:0.565 39:0.5747 40:0.87099999 41:0.23 42:0.676 43:0.2184 44:0.41949999 45:0.2586 46:0.080499999 47:0.523 48:0.477 49:0.31029999 50:0.1552 51:0.1552 #
5.7438961760767631e-006 1:0.1329163 2:0.11264 3:0.68809998 4:0.0128 5:0.4237 6:0.493 7:0 8:0 9:0.59320003 10:1.079 11:0.84750003 12:1.4119999 13:0.4237 14:1.177 15:1.1016999 16:1.312 17:1.4407001 18:7.2030001 19:0.509 20:1.13 21:0.67799997 22:1.027 23:0.76270002 24:1.031 25:0.25420001 26:1.4960001 27:0.42399999 28:0.98500001 29:0.33899999 30:0.65200001 31:0.509 32:1.304 33:0.33899999 34:0.69199997 35:0.76270002 36:1.09 37:0.085000001 38:0.139 39:0.4237 40:0.64200002 41:0.085000001 42:0.249 43:0.23729999 44:0.41530001 45:0.16949999 46:0.19490001 47:0.43220001 48:0.56779999 49:0.38980001 50:0.2458 51:0.1441 #
1.8867725203377914e-005 1:0.1367334 2:0.11208 3:0.62300003 4:0.038400002 5:0.40979999 6:0.477 7:0.082000002 8:0.28299999 9:0.40979999 10:0.745 11:0.9016 12:1.503 13:0.40979999 14:1.138 15:0.9016 16:1.073 17:0.49180001 18:2.4590001 19:0.65600002 20:1.457 21:0.73769999 22:1.118 23:0.73769999 24:0.99699998 25:0.40979999 26:2.411 27:0.49200001 28:1.1440001 29:0.40979999 30:0.78799999 31:0.81999999 32:2.102 33:0.24600001 34:0.50199997 35:0.8197 36:1.171 37:0.41 38:0.67199999 39:0.40979999 40:0.62099999 41:0.24600001 42:0.72299999 43:0.26230001 44:0.43439999 45:0.1803 46:0.1148 47:0.46720001 48:0.53280002 49:0.27869999 50:0.14749999 51:0.1312 #
1.8867725203377914e-005 1:0.59521711 2:0.11167 3:0.62589997 4:0.47080001 5:0.75050002 6:0.87300003 7:0.15000001 8:0.51800001 9:0.61909997 10:1.126 11:0.76920003 12:1.2819999 13:0.33770001 14:0.93800002 15:0.7317 16:0.87099999 17:0.2251 18:1.126 19:0.61900002 20:1.376 21:0.7317 22:1.109 23:0.71289998 24:0.963 25:0.39399999 26:2.3180001 27:0.35699999 28:0.829 29:0.50660002 30:0.97399998 31:0.375 32:0.96200001 33:0.50700003 34:1.034 35:0.69419998 36:0.99199998 37:0.46900001 38:0.76899999 39:0.61909997 40:0.93800002 41:0.35699999 42:1.048 43:0.27959999 44:0.48969999 45:0.19509999 46:0.099399999 47:0.52530003 48:0.4747 49:0.2852 50:0.1463 51:0.1388 #
1.8867725203377914e-005 1:0.1174041 2:0.11181 3:0.72530001 4:0.038400002 5:0.76190001 6:0.88599998 7:0.191 8:0.65700001 9:0.66670001 10:1.212 11:0.57139999 12:0.95200002 13:0.66670001 14:1.852 15:0.57139999 16:0.68000001 17:0.095200002 18:0.47600001 19:0.38100001 20:0.847 21:0.95240003 22:1.443 23:1.0476 24:1.416 25:0.47620001 26:2.8010001 27:0.47600001 28:1.107 29:0.28569999 30:0.54900002 31:0.38100001 32:0.977 33:0.28600001 34:0.583 35:0.85710001 36:1.224 37:0.76200002 38:1.249 39:0.28569999 40:0.433 41:0.28600001 42:0.83999997 43:0.3143 44:0.48570001 45:0.1714 46:0.1048 47:0.49520001 48:0.50480002 49:0.25709999 50:0.13330001 51:0.1238 #
-1.3632277673816365e-005 1:0.026549499 2:0.11062 3:0.77023 4:0.0128 5:0.83329999 6:0.96899998 7:0 8:0 9:0.83329999 10:1.515 11:0.41670001 12:0.69400001 13:0.41670001 14:1.1569999 15:1.25 16:1.488 17:0.833 18:4.1669998 19:0 20:0 21:1.25 22:1.8940001 23:1.25 24:1.689 25:0 26:0 27:0.83329999 28:1.938 29:0 30:0 31:0.41670001 32:1.068 33:0 34:0 35:0 36:0 37:0.41670001 38:0.68300003 39:0.83329999 40:1.263 41:0.417 42:1.225 43:0.25 44:0.5 45:0.20829999 46:0.16670001 47:0.5 48:0.5 49:0.33329999 50:0.20829999 51:0.125 #
1.8867725203377914e-005 1:0.8188982 2:0.11469 3:0.53460002 4:1.192 5:0.54619998 6:0.63499999 7:0.154 8:0.53100002 9:0.65829998 10:1.197 11:0.77029997 12:1.284 13:0.61619997 14:1.712 15:0.71429998 16:0.85000002 17:0.1261 18:0.63 19:0.44800001 20:0.99599999 21:0.51819998 22:0.78500003 23:1.0224 24:1.382 25:0.22409999 26:1.318 27:0.39199999 28:0.912 29:0.35010001 30:0.67299998 31:0.36399999 32:0.93400002 33:0.72799999 34:1.4859999 35:0.68629998 36:0.98000002 37:0.50400001 38:0.82700002 39:0.64429998 40:0.97600001 41:0.308 42:0.90600002 43:0.26050001 44:0.465 45:0.2115 46:0.1275 47:0.52520001 48:0.47479999 49:0.28009999 50:0.1373 51:0.1429 #
1.8867725203377914e-005 1:0.86863053 2:0.1146 3:0.51310003 4:1.2176 5:0.51450002 6:0.59799999 7:0.17200001 8:0.59100002 9:0.71240002 10:1.295 11:0.69919997 12:1.165 13:0.51450002 14:1.429 15:0.63319999 16:0.75400001 17:0.1715 18:0.85799998 19:0.59399998 20:1.319 21:0.55409998 22:0.83999997 23:0.8707 24:1.177 25:0.2243 26:1.319 27:0.60699999 28:1.411 29:0.50129998 30:0.96399999 31:0.449 32:1.15 33:0.59399998 34:1.212 35:0.59369999 36:0.84799999 37:0.47499999 38:0.77899998 39:0.59369999 40:0.89899999 41:0.317 42:0.93099999 43:0.2388 44:0.48019999 45:0.2058 46:0.1214 47:0.51450002 48:0.48550001 49:0.27309999 50:0.1319 51:0.14120001 #
-1.7832082589817697e-005 1:3.6355343 2:0.11549 3:0.9594 4:3.6414001 5:0.40979999 6:0.47600001 7:0.118 8:0.405 9:0.59399998 10:1.08 11:0.6099 12:1.017 13:0.5909 14:1.641 15:0.24779999 16:0.29499999 17:0.245 18:1.223 19:0.73699999 20:1.638 21:1.0705 22:1.622 23:0.90850002 24:1.228 25:0.149 26:0.87800002 27:0.50830001 28:1.182 29:0.53369999 30:1.026 31:0.53369999 32:1.368 33:0.36849999 34:0.75199997 35:1.0483 36:1.498 37:0.57810003 38:0.94800001 39:0.34940001 40:0.52899998 41:0.25400001 42:0.74699998 43:0.2402 44:0.43869999 45:0.19949999 46:0.1236 47:0.44440001 48:0.55559999 49:0.2888 50:0.1684 51:0.1204 #
-1.8867725203377914e-005 1:0.32651171 2:0.11377 3:0.44233 4:0.3186 5:0.5923 6:0.68900001 7:0 8:0 9:0.94080001 10:1.71 11:0.94080001 12:1.568 13:0.2439 14:0.67799997 15:0.3484 16:0.41499999 17:0.20900001 18:1.045 19:0.4878 20:1.084 21:1.0453 22:1.584 23:0.662 24:0.89499998 25:0.41800001 26:2.46 27:0.5575 28:1.296 29:0.5575 30:1.072 31:0.38330001 32:0.98299998 33:0.1045 34:0.213 35:1.0453 36:1.493 37:0.38330001 38:0.62800002 39:0.45300001 40:0.68599999 41:0.55800003 42:1.64 43:0.2369 44:0.4878 45:0.1603 46:0.108 47:0.43900001 48:0.56099999 49:0.324 50:0.13590001 51:0.1882 #
-1.8867725203377914e-005 1:0.25794369 2:0.11363 3:0.68027002 4:0.038400002 5:0.44049999 6:0.51200002 7:0.088 8:0.30399999 9:0.52859998 10:0.96100003 11:1.0132 12:1.689 13:0.1762 14:0.48899999 15:0.48460001 16:0.57700002 17:0.132 18:0.66100001 19:0.66079998 20:1.4680001 21:0.83700001 22:1.268 23:1.1454 24:1.548 25:0.48500001 26:2.8499999 27:0.57270002 28:1.332 29:0.1762 30:0.33899999 31:0.57270002 32:1.4680001 33:0.66079998 34:1.349 35:1.0573 36:1.51 37:0.44049999 38:0.722 39:0.39649999 40:0.60100001 41:0.132 42:0.389 43:0.2511 44:0.41850001 45:0.2203 46:0.044100001 47:0.41850001 48:0.58149999 49:0.31720001 50:0.163 51:0.1542 #
1.8867725203377914e-005 1:0.2276393 2:0.10944 3:0.54390001 4:0.051199999 5:0.91350001 6:1.062 7:0.096000001 8:0.33199999 9:0.52880001 10:0.96200001 11:1.0096 12:1.683 13:0.43270001 14:1.202 15:0.76920003 16:0.91600001 17:0.1442 18:0.72100002 19:0.23999999 20:0.53399998 21:1.0096 22:1.53 23:0.81730002 24:1.104 25:0.2404 26:1.414 27:0.38499999 28:0.89399999 29:0.81730002 30:1.572 31:0.38499999 32:0.986 33:0.33700001 34:0.68699998 35:0.38460001 36:0.54900002 37:0.433 38:0.70899999 39:0.86540002 40:1.311 41:0.192 42:0.56599998 43:0.25960001 44:0.51920003 45:0.19230001 46:0.076899998 47:0.53850001 48:0.46149999 49:0.30289999 50:0.149 51:0.1539 #
1.8867725203377914e-005 1:0.61166412 2:0.11285 3:0.55839998 4:0.54619998 5:0.70109999 6:0.815 7:0.16599999 8:0.57300001 9:0.70109999 10:1.275 11:0.8118 12:1.353 13:0.4059 14:1.128 15:0.71960002 16:0.85699999 17:0.36899999 18:1.845 19:0.68300003 20:1.517 21:0.60890001 22:0.92299998 23:0.92250001 24:1.247 25:0.23989999 26:1.411 27:0.38800001 28:0.90100002 29:0.3506 30:0.67400002 31:0.36899999 32:0.94599998 33:0.53500003 34:1.092 35:0.53509998 36:0.764 37:0.40599999 38:0.66500002 39:0.68269998 40:1.034 41:0.29499999 42:0.86799997 43:0.25279999 44:0.46489999 45:0.2288 46:0.1181 47:0.52770001 48:0.47229999 49:0.3026 50:0.1513 51:0.1513 #
1.8867725203377914e-005 1:0.2167632 2:0.10948 3:0.52039999 4:0.2418 5:0.80809999 6:0.94 7:0.25299999 8:0.87099999 9:0.75760001 10:1.377 11:0.2525 12:0.421 13:0.60610002 14:1.684 15:1.2625999 16:1.503 17:0.101 18:0.505 19:0.354 20:0.78600001 21:0.303 22:0.45899999 23:0.6566 24:0.88700002 25:0.35350001 26:2.0799999 27:0.303 28:0.70499998 29:0.55559999 30:1.068 31:0.65700001 32:1.684 33:0.55599999 34:1.1339999 35:0.50510001 36:0.722 37:0.60600001 38:0.99400002 39:0.50510001 40:0.76499999 41:0.505 42:1.485 43:0.3434 44:0.55559999 45:0.1515 46:0.1313 47:0.59600002 48:0.40400001 49:0.197 50:0.096000001 51:0.101 #
1.8867725203377914e-005 1:0.19507679 2:0.11211 3:0.41370001 4:0.025599999 5:0.4023 6:0.46799999 7:0 8:0 9:1.2644 10:2.299 11:0.8046 12:1.341 13:0.7471 14:2.075 15:0.8046 16:0.958 17:0 18:0 19:0.86199999 20:1.916 21:0.6322 22:0.958 23:0.8046 24:1.087 25:0.2299 26:1.352 27:0.46000001 28:1.069 29:0.1724 30:0.33199999 31:0.287 32:0.73699999 33:0.57499999 34:1.173 35:0.91949999 36:1.314 37:0.345 38:0.565 39:0.5747 40:0.87099999 41:0.115 42:0.338 43:0.2471 44:0.49430001 45:0.22409999 46:0.086199999 47:0.47130001 48:0.52869999 49:0.3276 50:0.1207 51:0.2069 #
-1.8867725203377914e-005 1:0.2263837 2:0.10729 3:0.32552001 4:0.2034 5:2.1327 6:2.48 7:0.046999998 8:0.163 9:0.047400001 10:0.086000003 11:2.0853 12:3.4760001 13:0.66350001 14:1.8430001 15:0.047400001 16:0.056000002 17:0 18:0 19:0.52130002 20:1.159 21:0.237 22:0.359 23:0.37909999 24:0.51200002 25:0.094999999 26:0.55800003 27:0.094800003 28:0.22 29:1.2322 30:2.3699999 31:0.047400001 32:0.122 33:0 34:0 35:0.47389999 36:0.67699999 37:0.28439999 38:0.46599999 39:1.1848 40:1.795 41:0.33199999 42:0.97600001 43:0.29859999 44:0.55449998 45:0.2085 46:0.109 47:0.67299998 48:0.32699999 49:0.237 50:0.023700001 51:0.2133 #
-6.3454720747848512e-006 1:0.1636024 2:0.097379997 3:0.48901001 4:0.2418 5:0.53570002 6:0.62300003 7:0.059999999 8:0.205 9:0.35710001 10:0.64899999 11:0.5952 12:0.99199998 13:0.35710001 14:0.99199998 15:3.869 16:4.6059999 17:0 18:0 19:0.23810001 20:0.52899998 21:0.119 22:0.18000001 23:0.23810001 24:0.322 25:0.17900001 26:1.05 27:0.5952 28:1.3839999 29:0 30:0 31:0.2976 32:0.76300001 33:0.71429998 34:1.4579999 35:0.41670001 36:0.59500003 37:0.35710001 38:0.58499998 39:0.35710001 40:0.54100001 41:0.59500003 42:1.751 43:0.52380002 44:0.6548 45:0.083300002 46:0.1071 47:0.6548 48:0.3452 49:0.1786 50:0.083300002 51:0.095200002 #
-1.8867725203377914e-005 1:0.1609028 2:0.11576 3:0.65244001 4:0.1209 5:0.86330003 6:1.0039999 7:0.21600001 8:0.74400002 9:0.71939999 10:1.308 11:0.86330003 12:1.439 13:0.64749998 14:1.799 15:0.35969999 16:0.428 17:0.14399999 18:0.71899998 19:0.5036 20:1.119 21:0.79140002 22:1.199 23:0.64749998 24:0.875 25:0.28799999 26:1.693 27:0.43169999 28:1.0039999 29:0.43169999 30:0.82999998 31:0.35969999 32:0.92199999 33:0.71939999 34:1.4680001 35:0.5036 36:0.71899998 37:0.43169999 38:0.708 39:0.64749998 40:0.98100001 41:0.36000001 42:1.058 43:0.2374 44:0.46039999 45:0.17990001 46:0.1223 47:0.5036 48:0.4964 49:0.32370001 50:0.1655 51:0.1583 #
1.8867725203377914e-005 1:2.7830224 2:0.11524 3:0.48390001 4:2.8462999 5:0.99379998 6:1.156 7:0.07 8:0.243 9:0.79089999 10:1.438 11:1.0642 12:1.774 13:0.3064 14:0.85100001 15:0.33950001 16:0.40400001 17:0.27739999 18:1.387 19:0.472 20:1.049 21:0.74949998 22:1.136 23:1.0807 24:1.46 25:0.1698 26:0.99900001 27:0.46799999 28:1.0880001 29:0.1159 30:0.223 31:0.77899998 32:1.9960001 33:0.588 34:1.2 35:0.55070001 36:0.787 37:0.398 38:0.65200001 39:0.4224 40:0.63999999 41:0.20299999 42:0.597 43:0.2352 44:0.4149 45:0.19750001 46:0.094800003 47:0.43349999 48:0.56650001 49:0.347 50:0.16150001 51:0.1855 #
-1.8867725203377914e-005 1:0.2027926 2:0.11393 3:0.50771999 4:0.1963 5:0.6742 6:0.78399998 7:0.28099999 8:0.96899998 9:0.8427 10:1.5319999 11:0.6742 12:1.124 13:0.73030001 14:2.029 15:0.50559998 16:0.602 17:0.169 18:0.84299999 19:0.61799997 20:1.373 21:0.78649998 22:1.192 23:1.0112 24:1.367 25:0.22499999 26:1.322 27:0.2809 28:0.653 29:0.2809 30:0.54000002 31:0.3371 32:0.86400002 33:0.44940001 34:0.917 35:0.3933 36:0.56199998 37:0.89889997 38:1.474 39:0.5618 40:0.85100001 41:0.112 42:0.33000001 43:0.2753 44:0.47189999 45:0.2191 46:0.118 47:0.5169 48:0.48320001 49:0.29210001 50:0.14049999 51:0.1517 #
-1.8867725203377914e-005 1:0.80765033 2:0.11521 3:0.63823998 4:0.97149998 5:0.41370001 6:0.48100001 7:0.185 8:0.639 9:0.58490002 10:1.063 11:0.54210001 12:0.903 13:0.67049998 14:1.862 15:0.58490002 16:0.69599998 17:0.271 18:1.355 19:0.79890001 20:1.775 21:0.4993 22:0.75599998 23:1.0842 24:1.465 25:0.228 26:1.3430001 27:0.65619999 28:1.526 29:0.31380001 30:0.60399997 31:0.44220001 32:1.1339999 33:0.47080001 34:0.96100003 35:0.71329999 36:1.0190001 37:0.55629998 38:0.912 39:0.44220001 40:0.67000002 41:0.38499999 42:1.133 43:0.2454 44:0.44510001 45:0.2325 46:0.14839999 47:0.52640003 48:0.4736 49:0.2368 50:0.1241 51:0.1127 #
-1.8867725203377914e-005 1:0.54073697 2:0.1136 3:0.58016002 4:0.7098 5:0.79830003 6:0.92799997 7:0.189 8:0.65200001 9:0.42019999 10:0.764 11:1.0084 12:1.681 13:0.52520001 14:1.459 15:0.67229998 16:0.80000001 17:0.273 18:1.3660001 19:0.63029999 20:1.401 21:0.63029999 22:0.95499998 23:0.96640003 24:1.306 25:0.252 26:1.483 27:0.46219999 28:1.075 29:0.48320001 30:0.92900002 31:0.29409999 32:0.75400001 33:0.54619998 34:1.115 35:0.54619998 36:0.77999997 37:0.37819999 38:0.62 39:0.48320001 40:0.73199999 41:0.23100001 42:0.68000001 43:0.25839999 44:0.44330001 45:0.208 46:0.124 47:0.54409999 48:0.45590001 49:0.28780001 50:0.145 51:0.1429 #
1.8867725203377914e-005 1:0.21747459 2:0.11507 3:0.4443 4:0.2034 5:0.5291 6:0.61500001 7:0.052999999 8:0.182 9:0.8466 10:1.539 11:0.89950001 12:1.499 13:0.79369998 14:2.2049999 15:0.63489997 16:0.75599998 17:0 18:0 19:0.47600001 20:1.058 21:0.89950001 22:1.363 23:0.79369998 24:1.073 25:0.21160001 26:1.245 27:0.42300001 28:0.98400003 29:0.37040001 30:0.71200001 31:0.52899998 32:1.357 33:0.37 34:0.75599998 35:0.47620001 36:0.68000001 37:0.58200002 38:0.954 39:0.63489997 40:0.96200001 41:0.37 42:1.089 43:0.22750001 44:0.45500001 45:0.19050001 46:0.127 47:0.49739999 48:0.50269997 49:0.30160001 50:0.127 51:0.17460001 #
1.8867725203377914e-005 1:0.2143335 2:0.10935 3:0.4689 4:0.038400002 5:1.1734999 6:1.364 7:0.102 8:0.352 9:0.45919999 10:0.83499998 11:1.1734999 12:1.956 13:0.51020002 14:1.4170001 15:0.66329998 16:0.79000002 17:0.1531 18:0.76499999 19:0.35699999 20:0.79400003 21:0.86729997 22:1.314 23:0.71429998 24:0.96499997 25:0.30610001 26:1.801 27:0.35699999 28:0.83099997 29:1.0204 30:1.962 31:0.35699999 32:0.91600001 33:0.30599999 34:0.625 35:0.25510001 36:0.36399999 37:0.50999999 38:0.83600003 39:0.56120002 40:0.85000002 41:0.153 42:0.44999999 43:0.27039999 44:0.51020002 45:0.16329999 46:0.081600003 47:0.55610001 48:0.44389999 49:0.29589999 50:0.1327 51:0.16329999 #
1.8867725203377914e-005 1:0.22999009 2:0.11557 3:0.47909999 4:0.2475 5:0.5528 6:0.64300001 7:0.101 8:0.347 9:0.70349997 10:1.279 11:1.005 12:1.675 13:0.65329999 14:1.8150001 15:0.45230001 16:0.53799999 17:0.1005 18:0.50300002 19:0.60299999 20:1.34 21:1.1558 22:1.751 23:0.90450001 24:1.222 25:0.20100001 26:1.182 27:0.50300002 28:1.169 29:0.35179999 30:0.676 31:0.50300002 32:1.288 33:0.20100001 34:0.41 35:0.5528 36:0.79000002 37:0.653 38:1.071 39:0.35179999 40:0.53299999 41:0.30199999 42:0.88700002 43:0.23119999 44:0.42210001 45:0.1859 46:0.1206 47:0.4623 48:0.5377 49:0.31659999 50:0.14569999 51:0.1709 #
1.65421635119143e-005 1:2.853626 2:0.11521 3:0.4993 4:2.8008001 5:0.96890002 6:1.127 7:0.057 8:0.19499999 9:0.7428 10:1.351 11:1.1143 12:1.857 13:0.34720001 14:0.96399999 15:0.38350001 16:0.45699999 17:0.28259999 18:1.413 19:0.38800001 20:0.861 21:0.79939997 22:1.211 23:1.0941 24:1.478 25:0.20190001 26:1.187 27:0.41600001 28:0.96700001 29:0.1211 30:0.233 31:0.77100003 32:1.977 33:0.602 34:1.228 35:0.61360002 36:0.87699997 37:0.33899999 38:0.55599999 39:0.43200001 40:0.65499997 41:0.16599999 42:0.48699999 43:0.2362 44:0.40740001 45:0.19140001 46:0.095700003 47:0.43200001 48:0.56800002 49:0.35409999 50:0.1684 51:0.1857 #
-1.8867725203377914e-005 1:0.38818151 2:0.11284 3:0.58674002 4:0.27880001 5:0.95929998 6:1.115 7:0.086999997 8:0.301 9:0.75580001 10:1.374 11:1.1628 12:1.938 13:0.26159999 14:0.727 15:0.31979999 16:0.38100001 17:0.145 18:0.727 19:0.3488 20:0.77499998 21:1.1919 22:1.806 23:0.52329999 24:0.70700002 25:0.204 26:1.197 27:0.49419999 28:1.149 29:0.3779 30:0.727 31:0.43599999 32:1.118 33:0.58139998 34:1.187 35:1.0174 36:1.4529999 37:0.2326 38:0.38100001 39:0.66860002 40:1.013 41:0.116 42:0.34200001 43:0.26159999 44:0.49129999 45:0.1541 46:0.064000003 47:0.39829999 48:0.60170001 49:0.38370001 50:0.1919 51:0.1919 #
-1.8867725203377914e-005 1:0.25555241 2:0.1116 3:0.73005003 4:0.0128 5:0.69870001 6:0.81199998 7:0.175 8:0.602 9:0.43669999 10:0.79400003 11:1.179 12:1.965 13:0.26199999 14:0.72799999 15:0.56770003 16:0.676 17:0.086999997 18:0.43700001 19:0.48030001 20:1.067 21:1.0044 22:1.522 23:1.2227 24:1.652 25:0.21799999 26:1.284 27:0.43669999 28:1.016 29:0.3057 30:0.588 31:0.43669999 32:1.12 33:0.61140001 34:1.248 35:0.74239999 36:1.061 37:0.52399999 38:0.85900003 39:0.56770003 40:0.86000001 41:0.044 42:0.12800001 43:0.27070001 44:0.4454 45:0.2271 46:0.039299998 47:0.4542 48:0.54589999 49:0.3319 50:0.17030001 51:0.16159999 #
-1.8867725203377914e-005 1:0.1973457 2:0.11342 3:0.49434999 4:0.1522 5:0.5747 6:0.66799998 7:0.115 8:0.396 9:0.91949999 10:1.6720001 11:0.7471 12:1.245 13:0.51719999 14:1.437 15:0.8046 16:0.958 17:0 18:0 19:0.5747 20:1.277 21:0.68970001 22:1.045 23:1.2069 24:1.631 25:0.23 26:1.352 27:0.2299 28:0.53500003 29:0.2299 30:0.442 31:0.4598 32:1.179 33:0.8046 34:1.642 35:0.5747 36:0.82099998 37:0.3448 38:0.565 39:0.68970001 40:1.045 41:0.17200001 42:0.50700003 43:0.2414 44:0.4483 45:0.2471 46:0.080499999 47:0.523 48:0.477 49:0.3161 50:0.1494 51:0.16670001 #
1.8867725203377914e-005 1:0.1968727 2:0.11513 3:0.62440002 4:0.1209 5:0.46779999 6:0.54400003 7:0.234 8:0.80699998 9:0.76020002 10:1.382 11:0.2924 12:0.48699999 13:0.99419999 14:2.7620001 15:0.5848 16:0.69599998 17:0.1754 18:0.87699997 19:0.64300001 20:1.429 21:0.117 22:0.177 23:0.87720001 24:1.1849999 25:0.40939999 26:2.408 27:0.70200002 28:1.632 29:0.117 30:0.22499999 31:0.40900001 32:1.05 33:0.81900001 34:1.671 35:0.9357 36:1.337 37:0.58499998 38:0.95899999 39:0.52630001 40:0.79699999 41:0.292 42:0.86000001 43:0.2807 44:0.4912 45:0.20469999 46:0.1521 47:0.5205 48:0.4795 49:0.2164 50:0.1111 51:0.1053 #
1.8867725203377914e-005 1:0.28315631 2:0.10566 3:0.48179999 4:0.26030001 5:0.63429999 6:0.73799998 7:0.112 8:0.38600001 9:0.55970001 10:1.018 11:0.55970001 12:0.93300003 13:0.52240002 14:1.451 15:1.903 16:2.2650001 17:0.14929999 18:0.74599999 19:0.56 20:1.244 21:0.33579999 22:0.509 23:0.82090002 24:1.109 25:0.37310001 26:2.1949999 27:0.52200001 28:1.215 29:0.26120001 30:0.50199997 31:0.336 32:0.861 33:0.48500001 34:0.99000001 35:0.63429999 36:0.90600002 37:0.44800001 38:0.73400003 39:0.4104 40:0.62199998 41:0.26100001 42:0.76800001 43:0.37310001 44:0.5485 45:0.17910001 46:0.1045 47:0.597 48:0.403 49:0.20900001 50:0.097000003 51:0.1119 #
1.8867725203377914e-005 1:0.60572791 2:0.11343 3:0.55720001 4:0.59740001 5:0.61799997 6:0.71899998 7:0.206 8:0.70999998 9:0.61799997 10:1.124 11:0.78649998 12:1.311 13:0.4307 14:1.196 15:0.6742 16:0.80299997 17:0.1873 18:0.93599999 19:0.61799997 20:1.373 21:0.63669997 22:0.96499997 23:0.91759998 24:1.24 25:0.2809 26:1.652 27:0.50599998 28:1.176 29:0.29960001 30:0.57599998 31:0.39300001 32:1.008 33:0.56199998 34:1.147 35:0.65539998 36:0.93599999 37:0.48699999 38:0.79799998 39:0.63669997 40:0.96499997 41:0.375 42:1.102 43:0.264 44:0.47 45:0.2172 46:0.1105 47:0.5169 48:0.48320001 49:0.27900001 50:0.13860001 51:0.14049999 #
1.8867725203377914e-005 1:0.935606 2:0.11551 3:0.57020003 4:1.3513 5:0.62959999 6:0.73199999 7:0.185 8:0.639 9:0.65429997 10:1.1900001 11:0.91360003 12:1.523 13:0.49380001 14:1.372 15:0.59259999 16:0.70499998 17:0.23459999 18:1.173 19:0.704 20:1.564 21:0.76539999 22:1.16 23:0.67900002 24:0.91799998 25:0.28400001 26:1.67 27:0.50599998 28:1.177 29:0.3457 30:0.66500002 31:0.30899999 32:0.79100001 33:0.56800002 34:1.159 35:0.59259999 36:0.847 37:0.55599999 38:0.91100001 39:0.40740001 40:0.61699998 41:0.37 42:1.089 43:0.25560001 44:0.44690001 45:0.17900001 46:0.1309 47:0.4901 48:0.50989997 49:0.3136 50:0.1568 51:0.1568 #
-1.8867725203377914e-005 1:0.4338924 2:0.11418 3:0.61847001 4:0.41249999 5:0.42109999 6:0.49000001 7:0.28999999 8:0.99800003 9:0.57889998 10:1.053 11:0.65789998 12:1.096 13:0.73680001 14:2.0469999 15:0.55260003 16:0.65799999 17:0.26300001 18:1.316 19:0.39469999 20:0.87699997 21:0.73680001 22:1.1160001 23:0.92110002 24:1.245 25:0.31600001 26:1.858 27:0.60530001 28:1.408 29:0.52630001 30:1.012 31:0.47369999 32:1.215 33:0.31580001 34:0.64399999 35:0.7895 36:1.128 37:0.52630001 38:0.86299998 39:0.5 40:0.75800002 41:0.26300001 42:0.77399999 43:0.2579 44:0.479 45:0.1816 46:0.13950001 47:0.50529999 48:0.49470001 49:0.25529999 50:0.13160001 51:0.1237 #
-6.4524019768025025e-007 1:1.5475762 2:0.11015 3:0.98891002 4:0.50209999 5:0.51249999 6:0.59600002 7:0.035999998 8:0.123 9:0.25619999 10:0.46599999 11:0.2633 12:0.43900001 13:0.13519999 14:0.37599999 15:0.5765 16:0.68599999 17:0.228 18:1.1390001 19:0.39860001 20:0.88599998 21:0.37009999 22:0.56099999 23:0.85409999 24:1.154 25:0.47 26:2.763 27:0.60500002 28:1.4069999 29:0.7331 30:1.41 31:2.0142 32:5.165 33:0.27759999 34:0.56599998 35:1.2811 36:1.83 37:0.3915 38:0.64200002 39:0.4413 40:0.66900003 41:0.121 42:0.35600001 43:0.27970001 44:0.4833 45:0.16940001 46:0.052000001 47:0.43130001 48:0.56870002 49:0.13950001 50:0.087499999 51:0.052000001 #
-1.8867725203377914e-005 1:0.34275669 2:0.11619 3:0.85457999 4:0.77950001 5:0.50849998 6:0.59100002 7:0.20299999 8:0.70099998 9:0.7119 10:1.294 11:0.33899999 12:0.565 13:0.88139999 14:2.448 15:0.67799997 16:0.80699998 17:0.20299999 18:1.017 19:0.50849998 20:1.13 21:0.61019999 22:0.92400002 23:0.61019999 24:0.82499999 25:0.17 26:0.99699998 27:0.44069999 28:1.025 29:0.50849998 30:0.97799999 31:0.44069999 32:1.13 33:0.57630002 34:1.176 35:0.77969998 36:1.114 37:0.57630002 38:0.94499999 39:0.47459999 40:0.71899998 41:0.40700001 42:1.196 43:0.2746 44:0.48809999 45:0.1593 46:0.1864 47:0.53219998 48:0.46779999 49:0.2441 50:0.139 51:0.1051 #
1.8867725203377914e-005 1:0.68253481 2:0.11189 3:0.51770002 4:0.4253 5:0.65570003 6:0.76200002 7:0.131 8:0.45199999 9:0.72130001 10:1.311 11:0.93440002 12:1.557 13:0.44260001 14:1.23 15:0.67210001 16:0.80000001 17:0.2295 18:1.148 19:0.47499999 20:1.056 21:0.8197 22:1.242 23:0.80330002 24:1.086 25:0.32789999 26:1.929 27:0.23 28:0.53399998 29:0.49180001 30:0.94599998 31:0.32800001 32:0.84100002 33:0.50800002 34:1.0369999 35:0.73769999 36:1.054 37:0.47499999 38:0.77899998 39:0.75410002 40:1.143 41:0.18000001 42:0.52999997 43:0.26719999 44:0.4869 45:0.2033 46:0.093400002 47:0.50160003 48:0.4984 49:0.3213 50:0.1557 51:0.1656 #
1.8867725203377914e-005 1:0.57168901 2:0.11254 3:0.50209999 4:0.52060002 5:0.62989998 6:0.73199999 7:0.138 8:0.47499999 9:0.82679999 10:1.503 11:0.8071 12:1.345 13:0.41339999 14:1.148 15:0.74800003 16:0.89099997 17:0.2362 18:1.181 19:0.66900003 20:1.487 21:0.72829998 22:1.104 23:0.94489998 24:1.277 25:0.27559999 26:1.6210001 27:0.29499999 28:0.68699998 29:0.315 30:0.60600001 31:0.29499999 32:0.75700003 33:0.53200001 34:1.085 35:0.66930002 36:0.95599997 37:0.45300001 38:0.74199998 39:0.62989998 40:0.954 41:0.27599999 42:0.81099999 43:0.2638 44:0.47049999 45:0.2244 46:0.1043 47:0.5158 48:0.48429999 49:0.31299999 50:0.1496 51:0.16339999 #
1.8867725203377914e-005 1:0.30172521 2:0.11429 3:0.49990001 4:0.33570001 5:0.64389998 6:0.74900001 7:0.72000003 8:2.4820001 9:0.71969998 10:1.309 11:1.2879 12:2.1459999 13:0.26519999 14:0.73699999 15:0.45449999 16:0.54100001 17:0.303 18:1.515 19:0.417 20:0.926 21:1.2121 22:1.837 23:0.98479998 24:1.331 25:0.2273 26:1.337 27:0.37900001 28:0.88099998 29:0.45449999 30:0.87400001 31:0.189 32:0.486 33:0.303 34:0.61799997 35:0.45449999 36:0.64899999 37:0.227 38:0.373 39:0.41670001 40:0.63099998 41:0.152 42:0.44600001 43:0.25 44:0.447 45:0.18179999 46:0.090899996 47:0.49239999 48:0.50760001 49:0.38260001 50:0.18179999 51:0.2008 #
-1.8867725203377914e-005 1:0.36396611 2:0.11374 3:0.4973 4:0.31150001 5:0.46880001 6:0.54500002 7:0.125 8:0.43099999 9:0.625 10:1.136 11:0.96880001 12:1.615 13:0.46880001 14:1.302 15:0.6875 16:0.81800002 17:0.28099999 18:1.406 19:0.4375 20:0.972 21:0.90630001 22:1.373 23:0.96880001 24:1.309 25:0.46900001 26:2.757 27:0.625 28:1.4529999 29:0.46880001 30:0.90100002 31:0.21879999 32:0.56099999 33:0.25 34:0.50999999 35:0.5 36:0.71399999 37:0.3125 38:0.51200002 39:0.78130001 40:1.184 41:0.34400001 42:1.011 43:0.2094 44:0.4594 45:0.21879999 46:0.1188 47:0.53130001 48:0.46880001 49:0.30309999 50:0.14380001 51:0.1594 #
-1.8867725203377914e-005 1:0.45940799 2:0.11543 3:0.63793999 4:0.4822 5:0.5528 6:0.64300001 7:0.25099999 8:0.866 9:0.80400002 10:1.462 11:0.80400002 12:1.34 13:0.30149999 14:0.838 15:0.40200001 16:0.479 17:0.477 18:2.3870001 19:0.65329999 20:1.452 21:0.82910001 22:1.256 23:1.2563 24:1.698 25:0.27599999 26:1.626 27:0.35179999 28:0.81800002 29:0.35179999 30:0.676 31:0.2764 32:0.70899999 33:0.5025 34:1.026 35:0.65329999 36:0.93300003 37:0.2261 38:0.37099999 39:0.60299999 40:0.91399997 41:0.27599999 42:0.81300002 43:0.2085 44:0.41960001 45:0.25130001 46:0.1206 47:0.50749999 48:0.49250001 49:0.34169999 50:0.18089999 51:0.1608 #
-1.8867725203377914e-005 1:0.5847944 2:0.114 3:0.67453998 4:0.56470001 5:0.68229997 6:0.79299998 7:0.097999997 8:0.336 9:0.68229997 10:1.24 11:0.62379998 12:1.04 13:0.60430002 14:1.679 15:0.5848 16:0.69599998 17:0.214 18:1.072 19:0.5848 20:1.3 21:0.60430002 22:0.91600001 23:1.0331 24:1.396 25:0.44800001 26:2.6370001 27:0.31189999 28:0.72500002 29:0.54579997 30:1.05 31:0.33140001 32:0.85000002 33:0.62379998 34:1.273 35:0.62379998 36:0.89099997 37:0.4483 38:0.73500001 39:0.56529999 40:0.85699999 41:0.25299999 42:0.745 43:0.2437 44:0.4542 45:0.2183 46:0.1209 47:0.55360001 48:0.44639999 49:0.27489999 50:0.1443 51:0.13060001 #
1.8867725203377914e-005 1:0.60064971 2:0.1129 3:0.65210003 4:0.47080001 5:0.63910002 6:0.74299997 7:0.15000001 8:0.51899999 9:0.63910002 10:1.1619999 11:0.7895 12:1.316 13:0.39469999 14:1.096 15:0.71429998 16:0.85000002 17:0.2256 18:1.128 19:0.602 20:1.337 21:0.7331 22:1.1109999 23:0.77069998 24:1.041 25:0.3195 26:1.88 27:0.31999999 28:0.74299997 29:0.33829999 30:0.65100002 31:0.52600002 32:1.35 33:0.583 34:1.189 35:0.8459 36:1.2079999 37:0.37599999 38:0.616 39:0.60149997 40:0.91100001 41:0.35699999 42:1.05 43:0.2726 44:0.46239999 45:0.1974 46:0.1053 47:0.4962 48:0.50379997 49:0.29699999 50:0.1541 51:0.1429 #
1.8867725203377914e-005 1:0.79097372 2:0.11316 3:0.51859999 4:1.1536 5:0.77249998 6:0.898 7:0.229 8:0.78899997 9:0.60089999 10:1.092 11:0.8441 12:1.4069999 13:0.5722 14:1.59 15:0.80110002 16:0.954 17:0.1717 18:0.85799998 19:0.63 20:1.399 21:0.58660001 22:0.889 23:0.97280002 24:1.3150001 25:0.1144 26:0.67299998 27:0.472 28:1.098 29:0.35769999 30:0.68800002 31:0.329 32:0.84399998 33:0.60100001 34:1.226 35:0.51499999 36:0.736 37:0.54400003 38:0.89099997 39:0.3863 40:0.58499998 41:0.27200001 42:0.79900002 43:0.2861 44:0.46779999 45:0.1989 46:0.1245 47:0.53359997 48:0.4664 49:0.28040001 50:0.13590001 51:0.1445 #
1.8867725203377914e-005 1:0.94127148 2:0.11465 3:0.59899998 4:1.2873 5:0.5359 6:0.62300003 7:0.19499999 8:0.67199999 9:0.73079997 10:1.329 11:0.73079997 12:1.2180001 13:0.54809999 14:1.523 15:0.6821 16:0.81199998 17:0.26800001 18:1.34 19:0.53600001 20:1.191 21:0.6821 22:1.033 23:0.75520003 24:1.021 25:0.26800001 26:1.576 27:0.49900001 28:1.161 29:0.47499999 30:0.91399997 31:0.38999999 32:0.99900001 33:0.56 34:1.143 35:0.58469999 36:0.83499998 37:0.52399999 38:0.85900003 39:0.52380002 40:0.79400003 41:0.30500001 42:0.89600003 43:0.25209999 44:0.47499999 45:0.1815 46:0.1328 47:0.50309998 48:0.49700001 49:0.29719999 50:0.15099999 51:0.1462 #
-1.8867725203377914e-005 1:0.60735458 2:0.11438 3:0.51591998 4:0.41389999 5:0.64029998 6:0.745 7:0.113 8:0.38999999 9:0.4896 10:0.88999999 11:0.94160002 12:1.569 13:0.50849998 14:1.4119999 15:0.71560001 16:0.852 17:0.17 18:0.847 19:0.3766 20:0.83700001 21:0.1883 22:0.285 23:0.73449999 24:0.99299997 25:0.018999999 26:0.111 27:0.75330001 28:1.752 29:0.54610002 30:1.05 31:0.88510001 32:2.27 33:0.97930002 34:1.999 35:0.73449999 36:1.049 37:0.2448 38:0.40099999 39:0.54610002 40:0.82700002 41:0.35800001 42:1.052 43:0.2448 44:0.47830001 45:0.1657 46:0.1092 47:0.4614 48:0.53860003 49:0.27680001 50:0.1337 51:0.14309999 #
-1.8867725203377914e-005 1:0.19735619 2:0.11342 3:0.49298999 4:0.16500001 5:0.68970001 6:0.80199999 7:0.057999998 8:0.198 9:0.86210001 10:1.567 11:0.7471 12:1.245 13:0.4598 14:1.277 15:0.7471 16:0.889 17:0 18:0 19:0.6322 20:1.405 21:0.68970001 22:1.045 23:1.2069 24:1.631 25:0.23 26:1.352 27:0.3448 28:0.80199999 29:0.3448 30:0.66299999 31:0.4598 32:1.179 33:0.7471 34:1.525 35:0.4023 36:0.57499999 37:0.3448 38:0.565 39:0.68970001 40:1.045 41:0.23 42:0.676 43:0.22409999 44:0.4483 45:0.2529 46:0.080499999 47:0.5402 48:0.4598 49:0.3046 50:0.1437 51:0.1609 #
-1.8867725203377914e-005 1:0.1929013 2:0.1115 3:0.79350001 4:0.095299996 5:0.6358 6:0.73900002 7:0.23100001 8:0.79699999 9:0.6936 10:1.261 11:0.6358 12:1.0599999 13:0.52020001 14:1.4450001 15:0.8671 16:1.0319999 17:0.116 18:0.57800001 19:0.57800001 20:1.285 21:0.80919999 22:1.226 23:1.2139 24:1.64 25:0.116 26:0.68000001 27:0.40459999 28:0.94099998 29:0.289 30:0.55599999 31:0.52020001 32:1.334 33:0.57800001 34:1.1799999 35:0.52020001 36:0.74299997 37:0.40459999 38:0.66299999 39:0.6358 40:0.963 41:0.17299999 42:0.50999999 43:0.26589999 44:0.4682 45:0.2428 46:0.0867 47:0.53179997 48:0.4682 49:0.2832 50:0.1503 51:0.133 #
1.8867725203377914e-005 1:0.1141307 2:0.113 3:0.65140003 4:0.0128 5:0.69309998 6:0.80599999 7:0.198 8:0.68300003 9:0.69309998 10:1.26 11:0.69309998 12:1.155 13:0.5941 14:1.65 15:0.495 16:0.58899999 17:0.198 18:0.99000001 19:0.396 20:0.88 21:0.69309998 22:1.05 23:1.0891 24:1.472 25:0.396 26:2.3299999 27:0.495 28:1.151 29:0.495 30:0.95200002 31:0.495 32:1.2690001 33:0.59399998 34:1.212 35:0.5941 36:0.84899998 37:0.495 38:0.81199998 39:0.5941 40:0.89999998 41:0.098999999 42:0.29100001 43:0.2475 44:0.47530001 45:0.2079 46:0.089100003 47:0.505 48:0.49509999 49:0.28709999 50:0.1485 51:0.13860001 #
1.8867725203377914e-005 1:0.1510319 2:0.11105 3:0.5668 4:0.051199999 5:0.66180003 6:0.76899999 7:0.221 8:0.76099998 9:0.29409999 10:0.53500003 11:0.88239998 12:1.471 13:0.44119999 14:1.225 15:0.7353 16:0.875 17:0.22059999 18:1.103 19:0.147 20:0.32699999 21:0.5147 22:0.77999997 23:1.3235 24:1.789 25:0.44119999 26:2.595 27:0.368 28:0.85500002 29:0.5147 30:0.99000001 31:0.588 32:1.508 33:0.44100001 34:0.89999998 35:0.88239998 36:1.261 37:0.588 38:0.96399999 39:0.44119999 40:0.66799998 41:0.294 42:0.86500001 43:0.30880001 44:0.47060001 45:0.1912 46:0.095600002 47:0.52209997 48:0.4779 49:0.2353 50:0.1177 51:0.1177 #
-7.6805916154378741e-007 1:0.1981359 2:0.11387 3:0.66712999 4:0.27880001 5:0.4598 6:0.53500003 7:0.23 8:0.79299998 9:0.6322 10:1.149 11:0.86210001 12:1.437 13:0.4023 14:1.117 15:0.7471 16:0.889 17:0.287 18:1.437 19:0.2299 20:0.51099998 21:0.8046 22:1.219 23:1.2644 24:1.709 25:0.115 26:0.676 27:0.3448 28:0.80199999 29:0.2299 30:0.442 31:0.28740001 32:0.73699999 33:0.5747 34:1.173 35:0.51719999 36:0.73900002 37:0.6322 38:1.036 39:0.91949999 40:1.393 41:0.23 42:0.676 43:0.2586 44:0.47130001 45:0.2414 46:0.1149 47:0.50580001 48:0.49430001 49:0.3161 50:0.16670001 51:0.1494 #
-1.8867725203377914e-005 1:0.4353199 2:0.10938 3:0.65105999 4:0.34279999 5:1.0553 6:1.227 7:0.176 8:0.60600001 9:0.5528 10:1.005 11:0.65329999 12:1.089 13:0.32659999 14:0.90700001 15:0.80400002 16:0.95700002 17:0.30199999 18:1.508 19:0.4774 20:1.061 21:0.52759999 22:0.79900002 23:0.90450001 24:1.222 25:0.42699999 26:2.513 27:0.2764 28:0.64300001 29:0.45230001 30:0.87 31:0.32659999 32:0.838 33:0.52759999 34:1.077 35:0.52759999 36:0.75400001 37:0.5528 38:0.90600002 39:0.80400002 40:1.2180001 41:0.226 42:0.66500002 43:0.3116 44:0.5201 45:0.2186 46:0.0955 47:0.57539999 48:0.42460001 49:0.2563 50:0.1357 51:0.1206 #
-1.8867725203377914e-005 1:0.50873488 2:0.11084 3:0.67171001 4:0.47510001 5:0.71899998 6:0.83600003 7:0.17399999 8:0.60100001 9:0.47929999 10:0.87099999 11:0.65359998 12:1.089 13:0.67540002 14:1.876 15:0.78430003 16:0.93400002 17:0.34900001 18:1.743 19:0.54470003 20:1.21 21:0.65359998 22:0.99000001 23:0.95859998 24:1.295 25:0.30500001 26:1.794 27:0.1961 28:0.456 29:0.52289999 30:1.006 31:0.39219999 32:1.006 33:0.3486 34:0.71100003 35:0.78430003 36:1.12 37:0.5011 38:0.82099998 39:0.67540002 40:1.023 41:0.131 42:0.384 43:0.29629999 44:0.48370001 45:0.21789999 46:0.13070001 47:0.5643 48:0.4357 49:0.2484 50:0.13510001 51:0.1133 #
1.8867725203377914e-005 1:0.79877973 2:0.11428 3:0.46070001 4:1.1664 5:0.65810001 6:0.76499999 7:0.215 8:0.74000001 9:0.68669999 10:1.249 11:0.97280002 12:1.6210001 13:0.5722 14:1.59 15:0.72960001 16:0.86900002 17:0.14309999 18:0.71499997 19:0.68699998 20:1.526 21:0.58660001 22:0.889 23:0.95850003 24:1.295 25:0.14309999 26:0.84200001 27:0.38600001 28:0.898 29:0.34330001 30:0.66000003 31:0.37200001 32:0.954 33:0.58700001 34:1.197 35:0.5722 36:0.81699997 37:0.51499999 38:0.84399998 39:0.35769999 40:0.542 41:0.28600001 42:0.84200001 43:0.26899999 44:0.44639999 45:0.20029999 46:0.123 47:0.51789999 48:0.48210001 49:0.2976 50:0.13160001 51:0.16599999 #
1.8867725203377914e-005 1:0.16246261 2:0.10831 3:0.43180001 4:0.051199999 5:0.80000001 6:0.93000001 7:0.133 8:0.46000001 9:0.80000001 10:1.455 11:0.80000001 12:1.3329999 13:0.40000001 14:1.1109999 15:0.80000001 16:0.95200002 17:0.066699997 18:0.333 19:0.73299998 20:1.63 21:0.86669999 22:1.313 23:0.93330002 24:1.261 25:0.2 26:1.176 27:0.26699999 28:0.62 29:0.2667 30:0.51300001 31:0.46700001 32:1.197 33:0.133 34:0.27200001 35:0.86669999 36:1.238 37:0.73299998 38:1.202 39:0.46669999 40:0.70700002 41:0.26699999 42:0.78399998 43:0.33329999 44:0.5133 45:0.2133 46:0.073299997 47:0.5 48:0.5 49:0.2667 50:0.1067 51:0.16 #
1.8867725203377914e-005 1:0.1608097 2:0.10939 3:0.42129999 4:0.038400002 5:0.88440001 6:1.028 7:0.068000004 8:0.235 9:0.6803 10:1.237 11:1.0204 12:1.701 13:0.4082 14:1.1339999 15:0.6803 16:0.81 17:0 18:0 19:0.47600001 20:1.058 21:0.74830002 22:1.1339999 23:1.1565 24:1.563 25:0.2041 26:1.2 27:0.54400003 28:1.266 29:0.2721 30:0.523 31:0.47600001 32:1.221 33:0.27200001 34:0.55500001 35:0.74830002 36:1.069 37:0.68000001 38:1.115 39:0.47620001 40:0.722 41:0.204 42:0.60000002 43:0.30610001 44:0.50340003 45:0.21089999 46:0.0612 47:0.48300001 48:0.51700002 49:0.2721 50:0.102 51:0.1701 #
-1.8867725203377914e-005 1:0.195795 2:0.11253 3:0.79471999 4:0.27880001 5:0.68970001 6:0.80199999 7:0.23 8:0.79299998 9:0.51719999 10:0.94 11:0.8046 12:1.341 13:0.4598 14:1.277 15:0.8046 16:0.958 17:0.17200001 18:0.86199999 19:0.2299 20:0.51099998 21:0.86210001 22:1.306 23:1.3218 24:1.786 25:0.115 26:0.676 27:0.28740001 28:0.66799998 29:0.28740001 30:0.55299997 31:0.3448 32:0.884 33:0.51719999 34:1.056 35:0.4598 36:0.65700001 37:0.6322 38:1.036 39:0.8046 40:1.219 41:0.23 42:0.676 43:0.2816 44:0.47130001 45:0.23559999 46:0.1092 47:0.5402 48:0.4598 49:0.28740001 50:0.1552 51:0.1322 #
-1.8867725203377914e-005 1:0.19829731 2:0.1114 3:0.73421001 4:0.2845 5:0.3933 6:0.45699999 7:0.39300001 8:1.3559999 9:0.5618 10:1.021 11:0.61799997 12:1.03 13:0.50559998 14:1.404 15:0.8427 16:1.003 17:0.22499999 18:1.124 19:0.61799997 20:1.373 21:0.89889997 22:1.362 23:0.73030001 24:0.98699999 25:0.28099999 26:1.652 27:0.3371 28:0.78399998 29:0.2247 30:0.43200001 31:0.61799997 32:1.585 33:0.2809 34:0.57300001 35:0.9551 36:1.364 37:0.3933 38:0.64499998 39:0.8427 40:1.277 41:0 42:0 43:0.2978 44:0.49439999 45:0.2191 46:0.1011 47:0.51120001 48:0.48879999 49:0.25839999 50:0.14049999 51:0.118 #
-1.8867725203377914e-005 1:0.19855741 2:0.11346 3:0.72122002 4:0.25319999 5:0.34290001 6:0.39899999 7:0.34299999 8:1.182 9:0.6857 10:1.247 11:0.6857 12:1.143 13:0.51429999 14:1.429 15:0.80000001 16:0.95200002 17:0.114 18:0.57099998 19:0.6286 20:1.397 21:0.91430002 22:1.385 23:1.0286 24:1.39 25:0.114 26:0.67199999 27:0.74290001 28:1.728 29:0.1714 30:0.33000001 31:0.40000001 32:1.026 33:0.4571 34:0.93300003 35:0.51429999 36:0.73500001 37:0.34290001 38:0.56199998 39:0.85710001 40:1.299 41:0.114 42:0.336 43:0.2343 44:0.47999999 45:0.25139999 46:0.097099997 47:0.51429999 48:0.48570001 49:0.28569999 50:0.1486 51:0.1371 #
1.8867725203377914e-005 1:0.13013691 2:0.11619 3:0.764 4:0.025599999 5:0.35710001 6:0.41499999 7:0.26800001 8:0.92400002 9:0.625 10:1.136 11:0.89289999 12:1.488 13:0.44639999 14:1.24 15:0.625 16:0.74400002 17:0.625 18:3.125 19:0.44600001 20:0.99199998 21:0.98210001 22:1.488 23:0.98210001 24:1.327 25:0.44639999 26:2.6259999 27:0.89300001 28:2.076 29:0.26789999 30:0.51499999 31:0.35699999 32:0.91600001 33:0.53600001 34:1.0930001 35:0.53570002 36:0.76499999 37:0.35699999 38:0.58499998 39:0.1786 40:0.271 41:0.17900001 42:0.52499998 43:0.21430001 44:0.41069999 45:0.16069999 46:0.125 47:0.41960001 48:0.58039999 49:0.36610001 50:0.21430001 51:0.15180001 #
1.8867725203377914e-005 1:0.2101385 2:0.10888 3:0.46849999 4:0.025599999 5:1.3472 6:1.566 7:0.052000001 8:0.17900001 9:0.51810002 10:0.94199997 11:1.1399 12:1.9 13:0.46630001 14:1.295 15:0.56989998 16:0.67900002 17:0.1036 18:0.51800001 19:0.46599999 20:1.036 21:0.98449999 22:1.492 23:0.72539997 24:0.98000002 25:0.3109 26:1.829 27:0.51800001 28:1.205 29:0.67360002 30:1.295 31:0.36300001 32:0.93000001 33:0.259 34:0.52899998 35:0.4145 36:0.59200001 37:0.36300001 38:0.59500003 39:0.62180001 40:0.94199997 41:0.104 42:0.30500001 43:0.2746 44:0.50779998 45:0.1814 46:0.067400001 47:0.53369999 48:0.46630001 49:0.30050001 50:0.1347 51:0.16580001 #
1.8867725203377914e-005 1:0.2400995 2:0.11065 3:0.4824 4:0.2674 5:0.7834 6:0.91100001 7:0.184 8:0.63599998 9:0.69120002 10:1.257 11:0.4147 12:0.69099998 13:0.59909999 14:1.664 15:1.1059999 16:1.317 17:0.18430001 18:0.92199999 19:0.461 20:1.024 21:0.32260001 22:0.48899999 23:0.73729998 24:0.99599999 25:0.4147 26:2.4400001 27:0.32300001 28:0.75 29:0.3687 30:0.70899999 31:0.55299997 32:1.418 33:0.461 34:0.94 35:0.64520001 36:0.92199999 37:0.64499998 38:1.058 39:0.46079999 40:0.69800001 41:0.55299997 42:1.626 43:0.3364 44:0.52069998 45:0.16590001 46:0.1429 47:0.57599998 48:0.42399999 49:0.20739999 50:0.096799999 51:0.1106 #
-3.1817639568716527e-006 1:0.1440179 2:0.1091 3:0.80664998 4:0.16500001 5:1.1364 6:1.321 7:0.227 8:0.78399998 9:0.3788 10:0.68900001 11:0.9091 12:1.515 13:0.2273 14:0.63099998 15:1.1364 16:1.353 17:0.227 18:1.136 19:0.1515 20:0.33700001 21:0.3788 22:0.574 23:0.53030002 24:0.71700001 25:0.303 26:1.783 27:0.53030002 28:1.233 29:0.2273 30:0.43700001 31:0.3788 32:0.97100002 33:0.98479998 34:2.01 35:1.1364 36:1.623 37:0.2273 38:0.373 39:0.45449999 40:0.68900001 41:0.303 42:0.89099997 43:0.38640001 44:0.54549998 45:0.1136 46:0.090899996 47:0.4849 48:0.51520002 49:0.2879 50:0.1591 51:0.1288 #
-1.8867725203377914e-005 1:0.48161331 2:0.1155 3:0.90744001 4:0.458 5:0.93529999 6:1.0880001 7:0.096000001 8:0.331 9:0.45559999 10:0.82800001 11:0.71939999 12:1.199 13:0.81529999 14:2.2650001 15:0.38370001 16:0.45699999 17:0.192 18:0.95899999 19:0.52759999 20:1.1720001 21:0.71939999 22:1.09 23:0.98320001 24:1.329 25:0.23999999 26:1.411 27:0.5036 28:1.171 29:0.57550001 30:1.107 31:0.3118 32:0.79900002 33:0.5995 34:1.224 35:0.52759999 36:0.75400001 37:0.43169999 38:0.708 39:0.45559999 40:0.69 41:0.43200001 42:1.27 43:0.2374 44:0.43650001 45:0.19660001 46:0.15350001 47:0.55400002 48:0.44600001 49:0.26859999 50:0.15109999 51:0.1175 #
-1.8867725203377914e-005 1:0.2848016 2:0.11438 3:0.98863 4:0.1152 5:0.68269998 6:0.79400003 7:0.161 8:0.55400002 9:0.2811 10:0.51099998 11:0.8434 12:1.406 13:0.3213 14:0.89200002 15:0.52209997 16:0.62199998 17:0.121 18:0.602 19:0.4418 20:0.98199999 21:0.6426 22:0.97399998 23:0.92369998 24:1.248 25:0.361 26:2.1259999 27:0.6426 28:1.494 29:0.241 30:0.463 31:0.76310003 32:1.957 33:0.88349998 34:1.803 35:1.0441999 36:1.492 37:0.4016 38:0.65799999 39:0.36140001 40:0.54799998 41:0.361 42:1.063 43:0.2811 44:0.4337 45:0.1727 46:0.080300003 47:0.43779999 48:0.56230003 49:0.2771 50:0.1647 51:0.1125 #
1.8867725203377914e-005 1:0.34595829 2:0.11532 3:0.43970001 4:0.38690001 5:0.40000001 6:0.465 7:0.5 8:1.724 9:0.76670003 10:1.3940001 11:1.2333 12:2.056 13:0.43329999 14:1.204 15:0.43329999 16:0.51599997 17:0.40000001 18:2 19:0.46700001 20:1.0369999 21:0.69999999 22:1.061 23:0.89999998 24:1.216 25:0.13330001 26:0.78399998 27:0.5 28:1.163 29:0.60000002 30:1.154 31:0.30000001 32:0.76899999 33:0.30000001 34:0.61199999 35:0.40000001 36:0.57099998 37:0.433 38:0.70999998 39:0.66670001 40:1.01 41:0.26699999 42:0.78399998 43:0.2167 44:0.47 45:0.2033 46:0.1267 47:0.49669999 48:0.50330001 49:0.34 50:0.14 51:0.2 #
1.8867725203377914e-005 1:0.34716201 2:0.1142 3:0.44459999 4:0.31720001 5:0.625 6:0.727 7:0.52600002 8:1.8150001 9:0.75660002 10:1.376 11:1.1513 12:1.919 13:0.4605 14:1.279 15:0.4605 16:0.54799998 17:0.39469999 18:1.974 19:0.39500001 20:0.87699997 21:0.65789998 22:0.99699998 23:0.95389998 24:1.289 25:0.1645 26:0.96700001 27:0.461 28:1.071 29:0.625 30:1.202 31:0.296 32:0.759 33:0.329 34:0.671 35:0.1974 36:0.28200001 37:0.52600002 38:0.86299998 39:0.65789998 40:0.99699998 41:0.23 42:0.67699999 43:0.23360001 44:0.48359999 45:0.2007 46:0.1217 47:0.523 48:0.477 49:0.329 50:0.1382 51:0.1908 #
-1.8867725203377914e-005 1:0.1772128 2:0.11216 3:0.4224 4:0.19059999 5:0.50629997 6:0.58899999 7:0.56999999 8:1.964 9:0.44299999 10:0.80599999 11:0.82279998 12:1.3710001 13:0.50629997 14:1.406 15:0.31650001 16:0.377 17:0.25299999 18:1.266 19:0.50629997 20:1.125 21:0.31650001 22:0.479 23:1.1392 24:1.54 25:0.317 26:1.862 27:0.44299999 28:1.03 29:0.82279998 30:1.582 31:0.25319999 32:0.64899999 33:0.1899 34:0.38699999 35:1.0759 36:1.5369999 37:0.37970001 38:0.62300003 39:0.6329 40:0.95899999 41:0.38 42:1.117 43:0.28479999 44:0.51899999 45:0.2279 46:0.1266 47:0.58230001 48:0.41769999 49:0.2025 50:0.075999998 51:0.1266 #
-1.8867725203377914e-005 1:0.3580687 2:0.1119 3:0.69972998 4:0.54479998 5:0.84380001 6:0.98100001 7:0.156 8:0.53899997 9:0.59380001 10:1.08 11:0.84380001 12:1.406 13:0.25 14:0.69400001 15:0.75 16:0.89300001 17:0.40599999 18:2.0309999 19:0.46880001 20:1.0420001 21:0.9375 22:1.42 23:0.78130001 24:1.056 25:0.28099999 26:1.654 27:0.375 28:0.87199998 29:0.46880001 30:0.90100002 31:0.21879999 32:0.56099999 33:0.40630001 34:0.829 35:0.4375 36:0.625 37:0.5 38:0.81999999 39:0.8125 40:1.2309999 41:0.219 42:0.64300001 43:0.26879999 44:0.49380001 45:0.20630001 46:0.1125 47:0.52810001 48:0.47189999 49:0.3188 50:0.175 51:0.14380001 #
-1.8867725203377914e-005 1:0.29682031 2:0.11329 3:0.66036999 4:0.3556 5:0.80150002 6:0.93199998 7:0.115 8:0.39500001 9:0.57249999 10:1.041 11:0.68699998 12:1.145 13:0.4962 14:1.378 15:0.57249999 16:0.68199998 17:0.34400001 18:1.7180001 19:0.7252 20:1.612 21:0.80150002 22:1.214 23:0.91600001 24:1.238 25:0.191 26:1.123 27:0.26719999 28:0.62099999 29:0.41980001 30:0.80699998 31:0.458 32:1.174 33:0.3053 34:0.62300003 35:0.41980001 36:0.60000002 37:0.7252 38:1.189 39:0.64889997 40:0.98299998 41:0.382 42:1.123 43:0.26339999 44:0.4542 45:0.229 46:0.1374 47:0.542 48:0.458 49:0.271 50:0.145 51:0.126 #
1.8867725203377914e-005 1:0.1142911 2:0.11205 3:0.74180001 4:0.0128 5:0.78430003 6:0.912 7:0.19599999 8:0.676 9:0.58819997 10:1.0700001 11:0.68629998 12:1.1440001 13:0.78430003 14:2.1789999 15:0.58819997 16:0.69999999 17:0.1961 18:0.98000002 19:0.294 20:0.65399998 21:0.88239998 22:1.337 23:1.0784 24:1.457 25:0.39219999 26:2.3069999 27:0.39199999 28:0.912 29:0.39219999 30:0.75400001 31:0.49000001 32:1.257 33:0.39199999 34:0.80000001 35:0.68629998 36:0.98000002 37:0.588 38:0.96399999 39:0.49020001 40:0.74299997 41:0.097999997 42:0.28799999 43:0.2843 44:0.47060001 45:0.18629999 46:0.1078 47:0.50980002 48:0.49020001 49:0.27450001 50:0.1471 51:0.1275 #
1.8867725203377914e-005 1:0.219795 2:0.11448 3:0.4391 4:0.2418 5:0.8854 6:1.03 7:0.25999999 8:0.898 9:1.0937999 10:1.989 11:0.72920001 12:1.215 13:0.6771 14:1.881 15:0.625 16:0.74400002 17:0.052099999 18:0.25999999 19:0.46900001 20:1.0420001 21:0.78130001 22:1.184 23:0.6771 24:0.91500002 25:0.15629999 26:0.91900003 27:0.625 28:1.4529999 29:0.15629999 30:0.30000001 31:0.36500001 32:0.935 33:0.46900001 34:0.95700002 35:0.3646 36:0.52100003 37:0.31299999 38:0.51200002 39:0.6771 40:1.026 41:0.52100003 42:1.5319999 43:0.2448 44:0.5 45:0.1823 46:0.1354 47:0.52079999 48:0.47920001 49:0.3125 50:0.1302 51:0.1823 #
1.2301333031102983e-005 1:0.1916866 2:0.11342 3:0.4402 4:0.038400002 5:0.29589999 6:0.34400001 7:0.118 8:0.40799999 9:1.1243 10:2.0439999 11:0.76920003 12:1.2819999 13:0.7101 14:1.972 15:0.82840002 16:0.986 17:0.1183 18:0.59200001 19:0.65100002 20:1.446 21:0.8876 22:1.345 23:0.82840002 24:1.119 25:0.35499999 26:2.0880001 27:0.47299999 28:1.101 29:0.17749999 30:0.34099999 31:0.53299999 32:1.365 33:0.35499999 34:0.72500002 35:0.59170002 36:0.84500003 37:0.178 38:0.29100001 39:0.82840002 40:1.255 41:0.178 42:0.52200001 43:0.20119999 44:0.46149999 45:0.2308 46:0.1006 47:0.49700001 48:0.50300002 49:0.32539999 50:0.13609999 51:0.1894 #
-1.8867725203377914e-005 1:0.21722861 2:0.11617 3:0.87933999 4:0.39399999 5:0.64170003 6:0.74599999 7:0.214 8:0.73799998 9:0.8021 10:1.4579999 11:0.32089999 12:0.53500003 13:0.74870002 14:2.0799999 15:0.74870002 16:0.89099997 17:0.214 18:1.0700001 19:0.3743 20:0.83200002 21:0.8021 22:1.215 23:0.8021 24:1.084 25:0.26699999 26:1.573 27:0.4278 28:0.995 29:0.4278 30:0.82300001 31:0.32089999 32:0.82300001 33:0.53479999 34:1.091 35:0.4813 36:0.68800002 37:0.2139 38:0.35100001 39:0.74870002 40:1.1339999 41:0.69499999 42:2.0450001 43:0.23 44:0.47060001 45:0.1925 46:0.18719999 47:0.58819997 48:0.4118 49:0.2674 50:0.1551 51:0.1123 #
-1.8867725203377914e-005 1:0.2044767 2:0.11174 3:0.50348002 4:0.17209999 5:0.8197 6:0.95300001 7:0.164 8:0.565 9:0.8197 10:1.49 11:0.54640001 12:0.91100001 13:0.32789999 14:0.91100001 15:0.8197 16:0.97600001 17:0.164 18:0.81999999 19:0.8197 20:1.821 21:0.65570003 22:0.99400002 23:1.1475 24:1.551 25:0.32800001 26:1.929 27:0.54640001 28:1.271 29:0.49180001 30:0.94599998 31:0.2186 32:0.56 33:0.43720001 34:0.89200002 35:0.1639 36:0.234 37:0.27320001 38:0.44800001 39:0.71039999 40:1.076 41:0.49200001 42:1.446 43:0.22400001 44:0.48089999 45:0.2678 46:0.1038 47:0.61750001 48:0.38249999 49:0.26230001 50:0.1257 51:0.1366 #
-1.8867725203377914e-005 1:1.235715 2:0.11516 3:0.74124002 4:1.1351 5:0.28889999 6:0.336 7:0.242 8:0.83600003 9:0.43799999 10:0.796 11:0.78289998 12:1.3049999 13:0.46599999 14:1.294 15:0.4939 16:0.588 17:0.26100001 18:1.3049999 19:0.63370001 20:1.408 21:0.82010001 22:1.243 23:1.4445 24:1.952 25:0.28 26:1.645 27:0.62440002 28:1.452 29:0.3448 30:0.66299999 31:0.47530001 32:1.219 33:0.39140001 34:0.79900002 35:0.62440002 36:0.89200002 37:0.41940001 38:0.68800002 39:0.62440002 40:0.94599998 41:0.205 42:0.60299999 43:0.2069 44:0.41010001 45:0.2703 46:0.1072 47:0.51630002 48:0.48370001 49:0.26930001 50:0.1473 51:0.1221 #
1.8867725203377914e-005 1:0.2076759 2:0.10873 3:0.46790001 4:0.0128 5:1.3089 6:1.522 7:0.052000001 8:0.18099999 9:0.57590002 10:1.0470001 11:1.0994999 12:1.832 13:0.52359998 14:1.454 15:0.62830001 16:0.74800003 17:0.1047 18:0.52399999 19:0.52399999 20:1.163 21:1.0470999 22:1.587 23:0.68059999 24:0.92000002 25:0.3141 26:1.848 27:0.52399999 28:1.2180001 29:0.73299998 30:1.41 31:0.36700001 32:0.94 33:0.20900001 34:0.42699999 35:0.3141 36:0.449 37:0.419 38:0.68699998 39:0.52359998 40:0.79299998 41:0.052000001 42:0.154 43:0.2723 44:0.5079 45:0.1728 46:0.068099998 47:0.53399998 48:0.46599999 49:0.3037 50:0.13609999 51:0.1675 #
1.8867725203377914e-005 1:0.2320215 2:0.11543 3:0.50760001 4:0.23469999 5:0.54729998 6:0.63599998 7:0.050000001 8:0.17200001 9:0.54729998 10:0.995 11:1.2438 12:2.073 13:0.6965 14:1.9349999 15:0.4975 16:0.59200001 17:0.14929999 18:0.74599999 19:0.597 20:1.327 21:1.2438 22:1.885 23:0.8955 24:1.21 25:0.0995 26:0.58499998 27:0.398 28:0.926 29:0.34830001 30:0.67000002 31:0.398 32:1.021 33:0.249 34:0.50800002 35:0.6965 36:0.995 37:0.64700001 38:1.0599999 39:0.2985 40:0.45199999 41:0.249 42:0.73199999 43:0.2438 44:0.403 45:0.17910001 46:0.1244 47:0.44279999 48:0.55720001 49:0.34330001 50:0.16419999 51:0.17910001 #
1.8867725203377914e-005 1:0.087978803 2:0.11279 3:0.44949999 4:0.0128 5:0.64099997 6:0.745 7:0 8:0 9:0.64099997 10:1.166 11:1.2821 12:2.1370001 13:0.64099997 14:1.781 15:0.51279998 16:0.611 17:0 18:0 19:0.38499999 20:0.85500002 21:1.2821 22:1.943 23:1.2821 24:1.733 25:0 26:0 27:0.25600001 28:0.59600002 29:0.51279998 30:0.986 31:0.89700001 32:2.3010001 33:0.12800001 34:0.26199999 35:0.89740002 36:1.2819999 37:0.12800001 38:0.20999999 39:0.38460001 40:0.583 41:0.12800001 42:0.377 43:0.21799999 44:0.39739999 45:0.2051 46:0.076899998 47:0.44870001 48:0.55129999 49:0.33329999 50:0.141 51:0.19230001 #
-1.8867725203377914e-005 1:0.41074821 2:0.11192 3:0.60276997 4:0.38690001 5:0.76289999 6:0.88700002 7:0.109 8:0.37599999 9:0.73570001 10:1.3380001 11:0.76289999 12:1.272 13:0.40869999 14:1.135 15:0.68120003 16:0.81099999 17:0.164 18:0.81699997 19:0.4632 20:1.029 21:0.84469998 22:1.28 23:0.89920002 24:1.215 25:0.21799999 26:1.2819999 27:0.27250001 28:0.634 29:0.4905 30:0.94300002 31:0.43599999 32:1.118 33:0.51770002 34:1.057 35:0.51770002 36:0.74000001 37:0.54500002 38:0.89300001 39:0.81739998 40:1.239 41:0.21799999 42:0.64099997 43:0.26159999 44:0.4932 45:0.21799999 46:0.092600003 47:0.52039999 48:0.47960001 49:0.30250001 50:0.15260001 51:0.1499 #
-1.8867725203377914e-005 1:0.39726129 2:0.11035 3:0.47147 4:0.36269999 5:0.69440001 6:0.80699998 7:0.25 8:0.86199999 9:0.41670001 10:0.75800002 11:1 12:1.6670001 13:0.52780002 14:1.466 15:0.75 16:0.89300001 17:0.167 18:0.833 19:0.52780002 20:1.173 21:0.66670001 22:1.01 23:0.83329999 24:1.126 25:0.222 26:1.307 27:0.16670001 28:0.38800001 29:0.52780002 30:1.015 31:0.16670001 32:0.42699999 33:0.33329999 34:0.68000001 35:1.0278 36:1.4680001 37:0.5 38:0.81999999 39:0.72219998 40:1.094 41:0.417 42:1.225 43:0.3222 44:0.50559998 45:0.20829999 46:0.1194 47:0.55559999 48:0.44440001 49:0.25830001 50:0.1167 51:0.1417 #
-1.8867725203377914e-005 1:0.4856241 2:0.11294 3:0.53399003 4:0.2233 5:0.58139998 6:0.676 7:0 8:0 9:0.48840001 10:0.88800001 11:0.83719999 12:1.395 13:0.58139998 14:1.615 15:0.58139998 16:0.69199997 17:0.25600001 18:1.279 19:0.55809999 20:1.24 21:0.58139998 22:0.88099998 23:1.0465 24:1.414 25:0.14 26:0.82099998 27:0.69770002 28:1.622 29:0.3488 30:0.671 31:0.6279 32:1.61 33:0.44190001 34:0.90200001 35:0.93019998 36:1.329 37:0.3256 38:0.53399998 39:0.6512 40:0.98699999 41:0.30199999 42:0.889 43:0.2419 44:0.4605 45:0.2256 46:0.1163 47:0.48140001 48:0.51859999 49:0.26050001 50:0.1279 51:0.13259999 #
1.277306625864879e-005 1:0.16798811 2:0.11199 3:0.42899999 4:0.051199999 5:0.53329998 6:0.62 7:0.2 8:0.69 9:0.73329997 10:1.3329999 11:1.1332999 12:1.8890001 13:0.53329998 14:1.4809999 15:0.93330002 16:1.1109999 17:0.2667 18:1.3329999 19:0.26699999 20:0.59299999 21:0.60000002 22:0.90899998 23:0.86669999 24:1.171 25:0.40000001 26:2.3529999 27:0.53299999 28:1.24 29:0.2 30:0.38499999 31:0.40000001 32:1.026 33:0.333 34:0.68000001 35:0.2667 36:0.38100001 37:0.60000002 38:0.98400003 39:0.93330002 40:1.414 41:0.26699999 42:0.78399998 43:0.25330001 44:0.49329999 45:0.2067 46:0.1067 47:0.5133 48:0.4867 49:0.30669999 50:0.12 51:0.1867 #
-1.8867725203377914e-005 1:0.40120789 2:0.11114 3:0.64462 4:0.59600002 5:0.63709998 6:0.741 7:0.19400001 8:0.66900003 9:0.63709998 10:1.158 11:0.63709998 12:1.062 13:0.44319999 14:1.2309999 15:0.83099997 16:0.98900002 17:0.36000001 18:1.801 19:0.33239999 20:0.73900002 21:0.77560002 22:1.175 23:0.63709998 24:0.861 25:0.222 26:1.304 27:0.66479999 28:1.546 29:0.33239999 30:0.639 31:0.27700001 32:0.70999998 33:0.30469999 34:0.62199998 35:0.85869998 36:1.227 37:0.49860001 38:0.81699997 39:0.83099997 40:1.2589999 41:0.30500001 42:0.89600003 43:0.3019 44:0.5485 45:0.18009999 46:0.133 47:0.49860001 48:0.50139999 49:0.27149999 50:0.14399999 51:0.1274 #
-1.8867725203377914e-005 1:0.44257939 2:0.11233 3:0.66491002 4:0.50779998 5:0.68529999 6:0.79699999 7:0.152 8:0.52499998 9:0.4061 10:0.73799998 11:0.83759999 12:1.396 13:0.4061 14:1.128 15:0.58380002 16:0.69499999 17:0.30500001 18:1.523 19:0.68529999 20:1.523 21:0.91369998 22:1.3839999 23:0.78680003 24:1.063 25:0.228 26:1.344 27:0.2538 28:0.58999997 29:0.68529999 30:1.318 31:0.4822 32:1.2359999 33:0.20299999 34:0.414 35:0.50760001 36:0.72500002 37:0.63450003 38:1.04 39:0.76139998 40:1.154 41:0.33000001 42:0.97000003 43:0.25639999 44:0.46700001 45:0.2234 46:0.1193 47:0.54570001 48:0.45429999 49:0.2665 50:0.14210001 51:0.1244 #
1.8867725203377914e-005 1:0.2229615 2:0.11613 3:0.4598 4:0.19059999 5:0.41670001 6:0.484 7:0.104 8:0.359 9:0.72920001 10:1.326 11:0.9896 12:1.649 13:0.72920001 14:2.0250001 15:0.52079999 16:0.62 17:0.052099999 18:0.25999999 19:0.57300001 20:1.273 21:0.72920001 22:1.105 23:0.83329999 24:1.126 25:0.41670001 26:2.451 27:0.417 28:0.96899998 29:0.3646 30:0.70099998 31:0.417 32:1.068 33:0.57300001 34:1.169 35:0.8854 36:1.265 37:0.46900001 38:0.76800001 39:0.3646 40:0.55199999 41:0.31299999 42:0.91900003 43:0.2396 44:0.4271 45:0.1771 46:0.1198 47:0.47400001 48:0.52600002 49:0.3073 50:0.1354 51:0.1719 #
-1.1664575439882736e-006 1:0.76201409 2:0.10687 3:0.68235999 4:0.64999998 5:0.40669999 6:0.47299999 7:0.112 8:0.38699999 9:0.070100002 10:0.12800001 11:0.32260001 12:0.53799999 13:0.028100001 14:0.078000002 15:1.8372999 16:2.187 17:0.22400001 18:1.122 19:0.14030001 20:0.31200001 21:0.12620001 22:0.191 23:0.37869999 24:0.51200002 25:0.07 26:0.41299999 27:0.014 28:0.033 29:1.136 30:2.1849999 31:3.2398 32:8.3070002 33:0.1964 34:0.40099999 35:0.56099999 36:0.801 37:0.37869999 38:0.62099999 39:0.2384 40:0.361 41:0.463 42:1.3609999 43:0.32960001 44:0.47549999 45:0.0757 46:0.077100001 47:0.4867 48:0.5133 49:0.093999997 50:0.054699998 51:0.039299998 #
-1.8867725203377914e-005 1:0.2007003 2:0.11535 3:0.84311998 4:0.2219 5:0.6322 6:0.73500001 7:0.057999998 8:0.198 9:0.7471 10:1.358 11:0.8046 12:1.341 13:0.51719999 14:1.437 15:0.68970001 16:0.82099998 17:0 18:0 19:0.5747 20:1.277 21:0.68970001 22:1.045 23:1.2069 24:1.631 25:0.17200001 26:1.0140001 27:0.3448 28:0.80199999 29:0.2299 30:0.442 31:0.4598 32:1.179 33:0.91949999 34:1.877 35:0.4023 36:0.57499999 37:0.4023 38:0.66000003 39:0.7471 40:1.132 41:0.23 42:0.676 43:0.2184 44:0.4253 45:0.2529 46:0.092 47:0.523 48:0.477 49:0.3161 50:0.1609 51:0.1552 #
1.8867725203377914e-005 1:0.2339561 2:0.1164 3:0.67879999 4:0.26030001 5:0.4975 6:0.579 7:0.149 8:0.51499999 9:0.64679998 10:1.176 11:0.995 12:1.658 13:0.597 14:1.658 15:0.4975 16:0.59200001 17:0.14929999 18:0.74599999 19:0.69700003 20:1.548 21:1.393 22:2.1110001 23:0.796 24:1.076 25:0.199 26:1.171 27:0.54699999 28:1.273 29:0.2985 30:0.574 31:0.498 32:1.276 33:0.199 34:0.40599999 35:0.4975 36:0.71100003 37:0.54699999 38:0.89700001 39:0.2985 40:0.45199999 41:0.34799999 42:1.024 43:0.2189 44:0.398 45:0.17910001 46:0.1244 47:0.45269999 48:0.54729998 49:0.33829999 50:0.1741 51:0.16419999 #
-1.8867725203377914e-005 1:0.6623612 2:0.11303 3:0.63629001 4:0.90750003 5:0.75089997 6:0.87300003 7:0.154 8:0.52999997 9:0.6997 10:1.272 11:0.66549999 12:1.109 13:0.52899998 14:1.469 15:0.73379999 16:0.87400001 17:0.375 18:1.877 19:0.6997 20:1.5549999 21:0.64850003 22:0.98299998 23:0.80199999 24:1.084 25:0.171 26:1.0039999 27:0.34130001 28:0.79400003 29:0.49489999 30:0.95200002 31:0.25600001 32:0.65600002 33:0.49489999 34:1.01 35:0.59729999 36:0.85299999 37:0.44369999 38:0.727 39:0.58020002 40:0.87900001 41:0.375 42:1.104 43:0.26789999 44:0.4795 45:0.20819999 46:0.1468 47:0.5478 48:0.4522 49:0.28839999 50:0.15189999 51:0.1365 #
-1.8867725203377914e-005 1:0.21241 2:0.11867 3:0.81746 4:0.6401 5:0.2235 6:0.25999999 7:0.112 8:0.38499999 9:0.50279999 10:0.91399997 11:0.7263 12:1.21 13:0.55870003 14:1.552 15:0.67040002 16:0.79799998 17:0.168 18:0.838 19:0.67040002 20:1.49 21:0.7263 22:1.1 23:0.78210002 24:1.057 25:0.22400001 26:1.314 27:0.33520001 28:0.77999997 29:0.39109999 30:0.75199997 31:0.44690001 32:1.146 33:0.55870003 34:1.14 35:1.0615 36:1.516 37:0.44690001 38:0.73299998 39:0.33520001 40:0.50800002 41:0.55900002 42:1.643 43:0.25139999 44:0.40779999 45:0.1788 46:0.1788 47:0.50279999 48:0.49720001 49:0.26820001 50:0.1453 51:0.1229 #
1.8867725203377914e-005 1:0.166134 2:0.11302 3:0.42179999 4:0.051199999 5:0.74830002 6:0.87 7:0.13600001 8:0.46900001 9:0.81629997 10:1.484 11:1.0884 12:1.814 13:0.5442 14:1.512 15:0.6803 16:0.81 17:0.2041 18:1.02 19:0.47600001 20:1.058 21:0.47620001 22:0.722 23:1.0204 24:1.3789999 25:0.2721 26:1.601 27:0.40799999 28:0.949 29:0.2041 30:0.39199999 31:0.68000001 32:1.744 33:0.47600001 34:0.972 35:0.61220002 36:0.875 37:0.47600001 38:0.78100002 39:0.4082 40:0.61799997 41:0.27200001 42:0.80000001 43:0.26530001 44:0.449 45:0.19050001 46:0.102 47:0.47620001 48:0.52380002 49:0.30610001 50:0.1157 51:0.19050001 #
-1.8867725203377914e-005 1:0.37215579 2:0.10787 3:0.57712001 4:0.1209 5:0.89859998 6:1.045 7:0.23199999 8:0.80000001 9:0.66670001 10:1.212 11:0.46380001 12:0.773 13:0.66670001 14:1.852 15:0.98549998 16:1.173 17:0.116 18:0.57999998 19:0.52170002 20:1.159 21:0.34779999 22:0.52700001 23:0.78259999 24:1.058 25:0.116 26:0.68199998 27:0.63770002 28:1.483 29:0.40580001 30:0.77999997 31:0.3768 32:0.96600002 33:0.66670001 34:1.3609999 35:0.89859998 36:1.284 37:0.4348 38:0.713 39:0.60869998 40:0.92199999 41:0.145 42:0.426 43:0.34490001 44:0.57679999 45:0.1913 46:0.095700003 47:0.53909999 48:0.46090001 49:0.2261 50:0.113 51:0.113 #
1.8867725203377914e-005 1:0.21879721 2:0.11577 3:0.46399999 4:0.2034 5:0.37040001 6:0.43099999 7:0.106 8:0.36500001 9:0.89950001 10:1.635 11:0.79369998 12:1.323 13:0.8466 14:2.352 15:0.63489997 16:0.75599998 17:0.21160001 18:1.058 19:0.58200002 20:1.293 21:0.79369998 22:1.2029999 23:0.95240003 24:1.2869999 25:0.3175 26:1.867 27:0.37 28:0.861 29:0.26460001 30:0.509 31:0.26499999 32:0.67799997 33:0.37 34:0.75599998 35:0.63489997 36:0.90700001 37:0.68800002 38:1.128 39:0.4233 40:0.64099997 41:0.37 42:1.089 43:0.24339999 44:0.43920001 45:0.19580001 46:0.1534 47:0.49739999 48:0.50269997 49:0.30689999 50:0.1376 51:0.1693 #
-1.8867725203377914e-005 1:0.43349811 2:0.10947 3:0.59073001 4:0.34279999 5:0.83329999 6:0.96899998 7:0.177 8:0.61000001 9:0.55559999 10:1.01 11:0.70709997 12:1.178 13:0.35350001 14:0.98199999 15:0.78280002 16:0.93199998 17:0.20200001 18:1.01 19:0.63129997 20:1.403 21:0.68180001 22:1.033 23:0.93430001 24:1.263 25:0.354 26:2.0799999 27:0.27779999 28:0.64600003 29:0.45449999 30:0.87400001 31:0.303 32:0.77700001 33:0.40400001 34:0.82499999 35:0.73229998 36:1.046 37:0.55559999 38:0.91100001 39:0.73229998 40:1.11 41:0.227 42:0.66799998 43:0.30809999 44:0.51010001 45:0.2298 46:0.088399999 47:0.55809999 48:0.44190001 49:0.25510001 50:0.1288 51:0.12630001 #
-1.8867725203377914e-005 1:0.50153959 2:0.11373 3:0.56830001 4:0.4765 5:0.65759999 6:0.76499999 7:0.249 8:0.86000001 9:0.47620001 10:0.866 11:0.88440001 12:1.474 13:0.47620001 14:1.323 15:0.5442 16:0.648 17:0.227 18:1.1339999 19:0.61220002 20:1.3609999 21:0.4535 22:0.68699998 23:0.92970002 24:1.256 25:0.249 26:1.467 27:0.52149999 28:1.2130001 29:0.3628 30:0.69800001 31:0.2721 32:0.69800001 33:0.6803 34:1.388 35:0.74830002 36:1.069 37:0.5442 38:0.89200002 39:0.65759999 40:0.99599999 41:0.34 42:1 43:0.2744 44:0.47620001 45:0.22 46:0.1157 47:0.51929998 48:0.48069999 49:0.2721 50:0.13609999 51:0.13609999 #
-1.8867725203377914e-005 1:0.60837573 2:0.11204 3:0.66213 4:0.4779 5:0.51569998 6:0.60000002 7:0.055 8:0.191 9:0.60769999 10:1.105 11:0.66299999 12:1.105 13:0.57090002 14:1.586 15:0.84710002 16:1.0089999 17:0.29499999 18:1.473 19:0.3867 20:0.85900003 21:0.77350003 22:1.1720001 23:1.0129 24:1.369 25:0.27599999 26:1.625 27:0.34990001 28:0.81400001 29:0.62620002 30:1.204 31:0.2394 32:0.61400002 33:0.36829999 34:0.75199997 35:0.55250001 36:0.78899997 37:0.55250001 38:0.90600002 39:0.81029999 40:1.228 41:0.442 42:1.3 43:0.25229999 44:0.49169999 45:0.221 46:0.1363 47:0.55989999 48:0.4402 49:0.27070001 50:0.1437 51:0.12710001 #
1.0424480616217652e-005 1:0.21285839 2:0.11506 3:0.43180001 4:0.33000001 5:0.64859998 6:0.75400001 7:0.21600001 8:0.74599999 9:1.1892 10:2.1619999 11:0.54049999 12:0.90100002 13:0.59460002 14:1.652 15:0.59460002 16:0.708 17:0.054099999 18:0.27000001 19:0.37799999 20:0.84100002 21:0.81080002 22:1.229 23:0.81080002 24:1.096 25:0.3784 26:2.2260001 27:0.59500003 28:1.383 29:0.2703 30:0.51999998 31:0.48699999 32:1.247 33:0.324 34:0.662 35:0.48649999 36:0.69499999 37:0.43200001 38:0.70899999 39:0.54049999 40:0.81900001 41:0.43200001 42:1.272 43:0.2378 44:0.4973 45:0.17299999 46:0.12970001 47:0.50809997 48:0.4919 49:0.29190001 50:0.1189 51:0.17299999 #
7.9479236317887618e-006 1:0.160629 2:0.10927 3:0.3985 4:0 5:1.0204 6:1.187 7:0.068000004 8:0.235 9:0.74830002 10:1.3609999 11:1.2925 12:2.154 13:0.5442 14:1.512 15:0.5442 16:0.648 17:0.13609999 18:0.68000001 19:0.54400003 20:1.209 21:0.61220002 22:0.92799997 23:1.2244999 24:1.655 25:0.34009999 26:2.0009999 27:0.47600001 28:1.107 29:0.068000004 30:0.131 31:0.34 32:0.87199998 33:0.204 34:0.41600001 35:1.0884 36:1.5549999 37:0.27200001 38:0.44600001 39:0.47620001 40:0.722 41:0 42:0 43:0.29929999 44:0.47620001 45:0.2245 46:0.068000004 47:0.48300001 48:0.51700002 49:0.29929999 50:0.095200002 51:0.2041 #
2.1850686710910103e-006 1:2.7991574 2:0.11576 3:0.4689 4:3.0425999 5:0.8768 6:1.0190001 7:0.082999997 8:0.285 9:0.71960002 10:1.308 11:1.2448 12:2.075 13:0.31020001 14:0.86199999 15:0.37220001 16:0.44299999 17:0.28119999 18:1.406 19:0.39300001 20:0.87300003 21:0.76099998 22:1.153 23:1.22 24:1.649 25:0.1613 26:0.949 27:0.405 28:0.94300002 29:0.1654 30:0.31799999 31:0.70700002 32:1.813 33:0.57099998 34:1.165 35:0.52520001 36:0.75 37:0.389 38:0.63700002 39:0.43009999 40:0.65200001 41:0.211 42:0.62 43:0.2246 44:0.39660001 45:0.2043 46:0.097599998 47:0.43959999 48:0.56040001 49:0.35769999 50:0.1613 51:0.1964 #
-1.0563900352069145e-005 1:0.2009449 2:0.11483 3:0.97092003 4:0.266 5:0.51429999 6:0.59799999 7:0.229 8:0.78799999 9:0.6286 10:1.143 11:0.57139999 12:0.95200002 13:0.4571 14:1.27 15:0.6286 16:0.74800003 17:0.28600001 18:1.429 19:0.57139999 20:1.27 21:1.0857 22:1.645 23:1.2571 24:1.699 25:0.28600001 26:1.681 27:0.40000001 28:0.93000001 29:0.2286 30:0.44 31:0.28569999 32:0.73299998 33:0.51429999 34:1.05 35:0.4571 36:0.653 37:0.51429999 38:0.84299999 39:0.6857 40:1.039 41:0.171 42:0.50400001 43:0.2343 44:0.42860001 45:0.25139999 46:0.1143 47:0.52569997 48:0.4743 49:0.30860001 50:0.1886 51:0.12 #
-1.8867725203377914e-005 1:0.44947261 2:0.1099 3:0.71419001 4:0.3186 5:0.7335 6:0.85299999 7:0.26899999 8:0.92699999 9:0.51340002 10:0.93400002 11:0.53789997 12:0.89600003 13:0.36669999 14:1.0190001 15:0.97799999 16:1.164 17:0.19599999 18:0.97799999 19:0.51340002 20:1.141 21:0.51340002 22:0.778 23:0.92909998 24:1.256 25:0.34200001 26:2.0139999 27:0.4156 28:0.96700001 29:0.36669999 30:0.70499998 31:0.53789997 32:1.3789999 33:0.51340002 34:1.048 35:0.6846 36:0.97799999 37:0.46450001 38:0.76200002 39:0.6846 40:1.0369999 41:0.391 42:1.151 43:0.31299999 44:0.51099998 45:0.21269999 46:0.1002 47:0.56239998 48:0.4377 49:0.2274 50:0.1223 51:0.1051 #
-3.2647758451057995e-006 1:0.58060873 2:0.11385 3:0.52925003 4:0.41389999 5:0.60780001 6:0.70700002 7:0.118 8:0.40599999 9:0.49020001 10:0.89099997 11:0.86269999 12:1.438 13:0.49020001 14:1.362 15:0.68629998 16:0.81699997 17:0.21600001 18:1.0779999 19:0.3725 20:0.82800001 21:0.2353 22:0.35699999 23:0.72549999 24:0.98000002 25:0.059 26:0.34599999 27:0.68629998 28:1.596 29:0.54900002 30:1.056 31:0.86269999 32:2.2119999 33:0.84310001 34:1.721 35:0.7647 36:1.092 37:0.31369999 38:0.514 39:0.68629998 40:1.04 41:0.373 42:1.096 43:0.249 44:0.49020001 45:0.17839999 46:0.1137 47:0.47260001 48:0.52749997 49:0.2647 50:0.1294 51:0.1353 #
