SVM-light Version V6.01
0 # kernel type
0 # kernel parameter -d 
1 # kernel parameter -g 
1 # kernel parameter -s 
1 # kernel parameter -r 
empty# kernel parameter -u 
261 # highest feature index 
100176 # number of training documents 
1123 # number of support vectors plus 1 
-0.018051923 # threshold b, each following line is a SV (starting with alpha*y)
-0.00044465358254300655 2:0 3:-2 4:0 5:-1 6:-2 7:-2 8:-2 9:6 10:-2 11:-4 12:-4 13:-2 14:-3 15:-3 16:-2 17:0 18:-2 19:-2 20:-3 21:-3 22:0 23:-2 24:0 25:-1 26:-2 27:-2 28:-2 29:6 30:-2 31:-4 32:-4 33:-2 34:-3 35:-3 36:-2 37:0 38:-2 39:-2 40:-3 41:-3 42:0 43:-2 44:0 45:-1 46:-2 47:-2 48:-2 49:6 50:-2 51:-4 52:-4 53:-2 54:-3 55:-3 56:-2 57:0 58:-2 59:-2 60:-3 61:-3 62:-2 63:-2 64:-2 65:-3 66:-2 67:-1 68:-2 69:-3 70:2 71:-1 72:-1 73:-2 74:-1 75:3 76:-3 77:-2 78:-2 79:2 80:7 81:-1 82:0 83:-2 84:0 85:-1 86:-2 87:-2 88:-2 89:6 90:-2 91:-4 92:-4 93:-2 94:-3 95:-3 96:-2 97:0 98:-2 99:-2 100:-3 101:-3 102:0 103:-2 104:0 105:-1 106:-2 107:-2 108:-2 109:6 110:-2 111:-4 112:-4 113:-2 114:-3 115:-3 116:-2 117:0 118:-2 119:-2 120:-3 121:-3 122:0 123:-2 124:0 125:-1 126:-2 127:-2 128:-2 129:6 130:-2 131:-4 132:-4 133:-2 134:-3 135:-3 136:-2 137:0 138:-2 139:-2 140:-3 141:-3 142:0 143:-2 144:0 145:-1 146:-2 147:-2 148:-2 149:6 150:-2 151:-4 152:-4 153:-2 154:-3 155:-3 156:-2 157:0 158:-2 159:-2 160:-3 161:-3 162:0 163:-2 164:0 165:-1 166:-2 167:-2 168:-2 169:6 170:-2 171:-4 172:-4 173:-2 174:-3 175:-3 176:-2 177:0 178:-2 179:-2 180:-3 181:-3 182:0 183:-2 184:0 185:-1 186:-2 187:-2 188:-2 189:6 190:-2 191:-4 192:-4 193:-2 194:-3 195:-3 196:-2 197:0 198:-2 199:-2 200:-3 201:-3 202:-2 203:-2 204:-2 205:-3 206:-2 207:-1 208:-2 209:-3 210:2 211:-1 212:-1 213:-2 214:-1 215:3 216:-3 217:-2 218:-2 219:2 220:7 221:-1 222:0 223:-2 224:0 225:-1 226:-2 227:-2 228:-2 229:6 230:-2 231:-4 232:-4 233:-2 234:-3 235:-3 236:-2 237:0 238:-2 239:-2 240:-3 241:-3 242:0 243:-2 244:0 245:-1 246:-2 247:-2 248:-2 249:6 250:-2 251:-4 252:-4 253:-2 254:-3 255:-3 256:-2 257:0 258:-2 259:-2 260:-3 261:-3 #
0.00014695741212157918 1:-1 2:-2 3:-2 4:-3 5:-2 6:-1 7:-2 8:-3 9:-2 10:1 11:2 12:-2 13:6 14:0 15:-3 16:-2 17:-1 18:-2 19:-1 20:1 21:5 22:-2 23:-2 24:-2 25:-1 26:-1 27:-1 28:0 29:-2 30:-2 31:-2 32:-1 33:-1 34:-3 35:-1 36:1 37:0 38:-3 39:-2 40:0 41:-2 42:-2 43:-2 44:-3 45:-3 46:-2 47:-2 48:-3 49:2 50:-2 51:-1 52:-2 53:-1 54:3 55:-3 56:-2 57:-2 58:2 59:7 60:-1 61:-1 62:-2 63:-2 64:-2 65:-3 66:-2 67:-1 68:-2 69:-2 70:-3 71:-3 72:-1 73:-3 74:-4 75:8 76:-1 77:-1 78:-4 79:-3 80:-3 81:0 82:-3 83:-1 84:-2 85:-3 86:-2 87:-2 88:6 89:-2 90:-4 91:-4 92:-2 93:-3 94:-3 95:-2 96:0 97:-2 98:-3 99:-3 100:-4 101:-2 102:-1 103:-1 104:-2 105:-3 106:0 107:-1 108:-3 109:7 110:-2 111:-2 112:-1 113:-1 114:2 115:-3 116:-1 117:-2 118:1 119:6 120:-2 121:0 122:-3 123:-1 124:-2 125:-3 126:-2 127:-2 128:4 129:-2 130:-4 131:-4 132:-1 133:-3 134:-4 135:6 136:-1 137:-2 138:-3 139:-3 140:-3 141:0 142:-3 143:-1 144:-2 145:-3 146:-2 147:-2 148:6 149:-2 150:-4 151:-4 152:-2 153:-3 154:-3 155:-2 156:0 157:-2 158:-3 159:-3 160:-4 161:3 162:-2 163:-1 164:-2 165:-1 166:-1 167:-2 168:4 169:-2 170:-3 171:-3 172:-1 173:-2 174:-3 175:-2 176:0 177:-1 178:-3 179:-3 180:-2 181:-1 182:-3 183:-2 184:-2 185:-3 186:-3 187:-3 188:4 189:-2 190:-2 191:-1 192:-2 193:-1 194:5 195:-3 196:-1 197:-2 198:0 199:1 200:-2 201:0 202:-3 203:-1 204:-2 205:-3 206:-2 207:-3 208:6 209:-3 210:-4 211:-4 212:-2 213:-3 214:-4 215:-3 216:-1 217:-2 218:-3 219:-4 220:-4 221:-1 222:0 223:4 224:0 225:-3 226:0 227:-1 228:3 229:-1 230:-4 231:-4 232:3 233:-2 234:-4 235:-2 236:0 237:-1 238:-4 239:-3 240:-3 241:-3 242:-3 243:-3 244:-4 245:-3 246:-3 247:-3 248:-4 249:0 250:-1 251:0 252:-3 253:-1 254:6 255:-4 256:-3 257:-2 258:1 259:5 260:-1 #
0.0005867234987185139 1:-1 2:0 3:-1 4:-1 5:-3 6:5 7:0 8:-3 9:-1 10:1 11:-2 12:3 13:-1 14:-3 15:-2 16:-1 17:1 18:-3 19:-2 20:-1 21:-2 22:-1 23:2 24:2 25:-4 26:3 27:3 28:-2 29:-1 30:-4 31:-4 32:0 33:-3 34:-4 35:4 36:-1 37:-1 38:-4 39:-3 40:-3 41:-1 42:-1 43:5 44:1 45:-4 46:0 47:3 48:2 49:0 50:-4 51:-4 52:0 53:-3 54:-4 55:-2 56:0 57:-1 58:-4 59:-3 60:-3 61:-2 62:-2 63:-3 64:-4 65:-3 66:-2 67:-3 68:-4 69:1 70:-2 71:-2 72:-2 73:-2 74:3 75:-4 76:-2 77:-2 78:2 79:8 80:-2 81:4 82:-2 83:-2 84:-3 85:-1 86:-2 87:-2 88:-1 89:-3 90:0 91:-1 92:-2 93:-1 94:-2 95:-2 96:0 97:-1 98:-3 99:-2 100:2 101:0 102:-3 103:-1 104:-2 105:-3 106:-2 107:-3 108:6 109:-3 110:-4 111:-4 112:-2 113:-3 114:-4 115:-3 116:-1 117:-2 118:-3 119:-4 120:-4 121:-2 122:-4 123:-4 124:-4 125:-2 126:-3 127:-4 128:-4 129:-4 130:5 131:1 132:-3 133:1 134:-1 135:-3 136:-3 137:-1 138:-3 139:-2 140:3 141:-2 142:-3 143:-4 144:-4 145:-3 146:-4 147:-4 148:-4 149:-2 150:0 151:0 152:-4 153:0 154:7 155:-4 156:-3 157:-2 158:0 159:2 160:2 161:-2 162:3 163:0 164:-2 165:-4 166:0 167:-1 168:-3 169:8 170:-4 171:-3 172:0 173:-2 174:-2 175:-3 176:-1 177:-2 178:-3 179:1 180:-4 181:-3 182:-3 183:-4 184:-4 185:-3 186:-4 187:-4 188:-4 189:-2 190:-1 191:0 192:-4 193:0 194:7 195:-4 196:-3 197:-3 198:0 199:3 200:-1 201:-1 202:3 203:-1 204:-1 205:-4 206:6 207:1 208:-2 209:0 210:-3 211:-3 212:1 213:-1 214:-4 215:-2 216:-1 217:-1 218:-3 219:-2 220:-3 221:-3 222:-3 223:-4 224:-4 225:-3 226:-4 227:-4 228:-4 229:-2 230:0 231:1 232:-4 233:0 234:7 235:-4 236:-3 237:-3 238:0 239:2 240:-1 241:-3 242:-3 243:-4 244:-5 245:-3 246:-3 247:-3 248:-3 249:-3 250:-3 251:-2 252:-4 253:-2 254:0 255:-4 256:-3 257:-3 258:12 259:2 260:-3 #
0.00057927688492972476 1:-1 2:0 3:0 4:1 5:-4 6:4 7:5 8:-2 9:0 10:-4 11:-3 12:1 13:-2 14:-4 15:-2 16:0 17:-1 18:-3 19:-2 20:-3 21:-3 22:-3 23:-3 24:-4 25:-3 26:-4 27:-4 28:-4 29:-2 30:0 31:0 32:-4 33:0 34:7 35:-4 36:-3 37:-3 38:1 39:3 40:-1 41:-1 42:-3 43:-2 44:-2 45:-3 46:-2 47:-1 48:-3 49:-3 50:-3 51:-3 52:-1 53:-3 54:-4 55:8 56:-1 57:-1 58:-4 59:-3 60:-3 61:-2 62:-2 63:-2 64:-1 65:-2 66:0 67:3 68:-3 69:-2 70:0 71:3 72:-1 73:1 74:-1 75:-3 76:-2 77:-1 78:-2 79:-2 80:0 81:-2 82:6 83:-1 84:-2 85:-4 86:1 87:0 88:-3 89:-1 90:-3 91:-3 92:2 93:-2 94:-3 95:-3 96:-1 97:-1 98:-3 99:-2 100:-3 101:-1 102:-2 103:-3 104:-4 105:-2 106:-1 107:-3 108:-3 109:-2 110:2 111:2 112:-2 113:6 114:0 115:-3 116:-2 117:-1 118:-2 119:-1 120:1 121:2 122:4 123:-1 124:-2 125:-2 126:0 127:-1 128:2 129:-1 130:-3 131:-3 132:0 133:-2 134:-3 135:-2 136:0 137:-1 138:-3 139:-2 140:-2 141:-2 142:-2 143:1 144:7 145:-4 146:-1 147:1 148:-2 149:-1 150:-4 151:-4 152:-1 153:-4 154:-4 155:-2 156:-1 157:-1 158:-5 159:-4 160:-4 161:-3 162:-3 163:-4 164:-5 165:-3 166:-2 167:-3 168:-3 169:-3 170:-3 171:-2 172:-3 173:-2 174:1 175:-4 176:-3 177:-3 178:12 179:2 180:-3 181:-2 182:-3 183:-4 184:-4 185:-2 186:-3 187:-3 188:-4 189:-3 190:1 191:5 192:-3 193:2 194:0 195:-3 196:-3 197:-2 198:-2 199:-1 200:1 201:-2 202:1 203:-1 204:-2 205:-3 206:0 207:0 208:-2 209:-1 210:-2 211:-1 212:4 213:-1 214:4 215:-2 216:-1 217:-1 218:-1 219:1 220:-2 221:-2 222:0 223:5 224:1 225:-3 226:4 227:0 228:-1 229:0 230:-4 231:-3 232:0 233:-2 234:-4 235:-2 236:0 237:-1 238:-3 239:-2 240:-3 241:0 242:-3 243:-3 244:-4 245:-1 246:-3 247:-3 248:-4 249:-4 250:2 251:1 252:-3 253:0 254:-1 255:-3 256:-2 257:0 258:-3 259:-2 260:5 #
0.0005867234987185139 1:0 2:-3 3:-1 4:-2 5:-3 6:-2 7:-3 8:6 9:-3 10:-4 11:-4 12:-2 13:-3 14:-4 15:-3 16:-1 17:-2 18:-3 19:-4 20:-4 21:-1 22:3 23:0 24:0 25:-3 26:3 27:3 28:-2 29:-1 30:-3 31:-3 32:1 33:-2 34:-4 35:-2 36:2 37:0 38:-3 39:-2 40:-3 41:-1 42:-1 43:-2 44:-2 45:-2 46:-1 47:-1 48:-3 49:-2 50:2 51:1 52:3 53:0 54:-2 55:-2 56:-1 57:2 58:-3 59:-2 60:2 61:-1 62:-1 63:-1 64:-2 65:-2 66:5 67:0 68:-3 69:-1 70:0 71:-1 72:0 73:3 74:-2 75:-2 76:-1 77:-1 78:-3 79:-2 80:2 81:-1 82:3 83:-1 84:-2 85:-3 86:0 87:-1 88:-2 89:-2 90:-3 91:-3 92:4 93:-2 94:-2 95:-2 96:1 97:-1 98:7 99:-1 100:-3 101:-2 102:-3 103:-4 104:-4 105:-2 106:-3 107:-4 108:-4 109:-3 110:1 111:5 112:-3 113:2 114:0 115:-4 116:-3 117:-2 118:-2 119:-2 120:0 121:-1 122:-3 123:-4 124:-4 125:-2 126:-2 127:-3 128:-4 129:-3 130:4 131:1 132:-3 133:4 134:-1 135:-3 136:-3 137:-1 138:-3 139:-2 140:3 141:-2 142:7 143:-1 144:-2 145:-4 146:1 147:-1 148:-3 149:-1 150:-4 151:-3 152:2 153:-2 154:-3 155:-3 156:-1 157:-2 158:-3 159:-2 160:-3 161:-2 162:-3 163:-4 164:-4 165:-2 166:-3 167:-3 168:-4 169:-3 170:3 171:4 172:-3 173:4 174:0 175:-3 176:-3 177:-1 178:-2 179:-2 180:1 181:-2 182:7 183:-1 184:-2 185:-4 186:1 187:-1 188:-3 189:-1 190:-4 191:-3 192:2 193:-2 194:-3 195:-3 196:-1 197:-2 198:-3 199:-2 200:-3 201:-2 202:-1 203:7 204:1 205:-3 206:0 207:-1 208:-1 209:0 210:-4 211:-4 212:-1 213:-3 214:-4 215:-3 216:0 217:-1 218:-4 219:-3 220:-4 221:-1 222:-3 223:-3 224:-2 225:-3 226:-2 227:-2 228:-3 229:-3 230:-3 231:-4 232:-2 233:-3 234:-4 235:8 236:-1 237:-2 238:-4 239:-4 240:-3 241:-3 242:-3 243:-4 244:-5 245:-3 246:-3 247:-4 248:-3 249:-3 250:-3 251:-2 252:-4 253:-2 254:1 255:-4 256:-3 257:-3 258:12 259:2 260:-4 #
0.0005867234987185139 1:-2 2:1 3:2 4:1 5:-2 6:-1 7:0 8:3 9:-2 10:0 11:0 12:-1 13:-1 14:2 15:-2 16:-1 17:-2 18:-2 19:-2 20:-2 21:-1 22:1 23:-1 24:2 25:-2 26:-1 27:1 28:2 29:-2 30:-2 31:-2 32:3 33:-2 34:-2 35:-2 36:0 37:-1 38:-2 39:-2 40:0 41:0 42:-2 43:-1 44:1 45:-2 46:-2 47:-2 48:2 49:-2 50:-1 51:0 52:-2 53:3 54:0 55:2 56:0 57:1 58:-2 59:-2 60:0 61:-1 62:1 63:-2 64:-2 65:4 66:-2 67:-2 68:0 69:-2 70:3 71:-1 72:-1 73:-1 74:-2 75:0 76:1 77:-1 78:-2 79:-2 80:2 81:-2 82:-2 83:-2 84:-2 85:-2 86:3 87:0 88:-3 89:-2 90:3 91:2 92:0 93:2 94:-2 95:-2 96:-2 97:0 98:-2 99:-2 100:-1 101:-2 102:1 103:-1 104:1 105:-3 106:-1 107:3 108:2 109:-2 110:-3 111:-2 112:1 113:-2 114:3 115:-2 116:0 117:-2 118:-2 119:-1 120:-3 121:0 122:0 123:-2 124:0 125:-2 126:0 127:-2 128:-3 129:-2 130:-1 131:2 132:-2 133:-1 134:3 135:1 136:-1 137:-2 138:-2 139:-1 140:1 141:1 142:1 143:0 144:1 145:-2 146:-1 147:1 148:-2 149:-2 150:-2 151:0 152:-1 153:-2 154:-2 155:-2 156:3 157:1 158:-3 159:-2 160:0 161:-2 162:-2 163:-1 164:4 165:-3 166:3 167:2 168:1 169:-2 170:-3 171:-2 172:-1 173:-2 174:-3 175:3 176:-2 177:-2 178:-3 179:-3 180:-1 181:0 182:2 183:1 184:-2 185:-3 186:-1 187:2 188:0 189:3 190:-2 191:0 192:2 193:0 194:-3 195:-2 196:0 197:-2 198:-3 199:-2 200:-2 201:3 202:-2 203:0 204:2 205:-2 206:-2 207:0 208:1 209:-2 210:-2 211:0 212:-2 213:4 214:-3 215:-2 216:-1 217:0 218:-3 219:-3 220:-2 221:-2 222:1 223:5 224:1 225:-3 226:-1 227:-1 228:-2 229:-2 230:-3 231:-1 232:2 233:-2 234:-3 235:0 236:1 237:0 238:-4 239:-3 240:-3 241:1 242:0 243:-2 244:-2 245:-3 246:-1 247:1 248:-2 249:-2 250:0 251:-2 252:2 253:-2 254:-3 255:1 256:1 257:3 258:-3 259:-3 260:0 #
0.0005867234987185139 1:3 2:-2 3:-2 4:-2 5:-2 6:2 7:-1 8:2 9:-2 10:-2 11:-2 12:-1 13:-2 14:-3 15:3 16:0 17:-1 18:-4 19:-3 20:0 21:-2 22:-3 23:-3 24:-3 25:-3 26:-2 27:-2 28:-3 29:-3 30:-2 31:1 32:-2 33:-1 34:-3 35:7 36:-2 37:-2 38:-4 39:-3 40:-2 41:-1 42:-4 43:-3 44:-3 45:9 46:-3 47:-3 48:-3 49:-3 50:-2 51:-2 52:-3 53:-2 54:-3 55:4 56:-1 57:-1 58:-3 59:-3 60:-2 61:0 62:-2 63:0 64:-1 65:-2 66:-1 67:-1 68:3 69:-2 70:-3 71:-3 72:-1 73:-2 74:-3 75:-2 76:4 77:0 78:-3 79:-3 80:-3 81:-1 82:-1 83:-1 84:-1 85:-3 86:4 87:0 88:5 89:-1 90:-4 91:-3 92:0 93:-2 94:-4 95:-2 96:-1 97:-2 98:-3 99:-3 100:-3 101:0 102:-3 103:-1 104:-2 105:-3 106:-2 107:-3 108:6 109:-3 110:-4 111:-4 112:-2 113:-3 114:-4 115:-3 116:-1 117:-2 118:-3 119:-4 120:-4 121:-1 122:-1 123:4 124:0 125:-3 126:0 127:-1 128:-1 129:6 130:-3 131:-3 132:-1 133:-2 134:-2 135:-2 136:2 137:0 138:-3 139:0 140:-3 141:-1 142:4 143:0 144:-1 145:-4 146:5 147:1 148:-2 149:0 150:-3 151:-3 152:1 153:-1 154:-4 155:-2 156:-1 157:-1 158:-3 159:-2 160:-3 161:0 162:0 163:0 164:0 165:0 166:0 167:0 168:0 169:0 170:0 171:0 172:0 173:0 174:0 175:0 176:0 177:0 178:0 179:0 180:0 181:0 182:0 183:0 184:0 185:0 186:0 187:0 188:0 189:0 190:0 191:0 192:0 193:0 194:0 195:0 196:0 197:0 198:0 199:0 200:0 201:0 202:0 203:0 204:0 205:0 206:0 207:0 208:0 209:0 210:0 211:0 212:0 213:0 214:0 215:0 216:0 217:0 218:0 219:0 220:0 221:0 222:0 223:0 224:0 225:0 226:0 227:0 228:0 229:0 230:0 231:0 232:0 233:0 234:0 235:0 236:0 237:0 238:0 239:0 240:0 241:0 242:0 243:0 244:0 245:0 246:0 247:0 248:0 249:0 250:0 251:0 252:0 253:0 254:0 255:0 256:0 257:0 258:0 259:0 260:0 #
0.0005867234987185139 1:2 2:1 3:3 4:2 5:3 6:-2 7:1 8:-2 9:-2 10:-4 11:-4 12:1 13:-3 14:0 15:-3 16:1 17:-1 18:-4 19:-3 20:-3 21:3 22:-3 23:-3 24:-4 25:-3 26:-3 27:-3 28:-3 29:-4 30:3 31:-1 32:-3 33:2 34:-3 35:-3 36:-2 37:3 38:-4 39:-3 40:3 41:-4 42:-4 43:-5 44:-5 45:-4 46:-5 47:-5 48:-5 49:-3 50:-2 51:-1 52:-5 53:-2 54:8 55:-5 56:-4 57:-4 58:4 59:1 60:-3 61:-3 62:2 63:-1 64:2 65:-4 66:2 67:0 68:-3 69:7 70:-4 71:-4 72:0 73:-3 74:-3 75:-3 76:0 77:-2 78:-3 79:1 80:-4 81:0 82:1 83:-2 84:-2 85:-3 86:4 87:0 88:-2 89:-2 90:-1 91:-1 92:5 93:1 94:-3 95:-3 96:-2 97:-2 98:-3 99:-3 100:-2 101:-3 102:-3 103:-1 104:-3 105:-3 106:-3 107:-3 108:-4 109:1 110:0 111:1 112:-3 113:-2 114:3 115:-3 116:-1 117:-2 118:0 119:7 120:-1 121:3 122:-3 123:-2 124:3 125:-3 126:-2 127:-2 128:-2 129:-3 130:-3 131:-3 132:-2 133:-3 134:3 135:-2 136:3 137:0 138:-3 139:-2 140:-2 141:0 142:1 143:-1 144:1 145:0 146:-2 147:-2 148:3 149:-2 150:-2 151:-1 152:-2 153:-2 154:0 155:-2 156:-1 157:-1 158:-2 159:-2 160:1 161:-2 162:5 163:-2 164:1 165:-4 166:1 167:-1 168:-3 169:-2 170:-3 171:-3 172:5 173:-3 174:-4 175:-2 176:-1 177:-2 178:-3 179:-3 180:-3 181:-2 182:-2 183:-1 184:4 185:1 186:-1 187:4 188:-1 189:-2 190:-3 191:0 192:0 193:-2 194:-3 195:-3 196:-2 197:-2 198:-4 199:-1 200:-1 201:-2 202:-4 203:-2 204:-3 205:2 206:-3 207:-4 208:7 209:-4 210:-4 211:-4 212:-3 213:-4 214:0 215:-4 216:-2 217:-3 218:-4 219:-3 220:-4 221:-3 222:-3 223:3 224:5 225:-4 226:-2 227:-1 228:0 229:4 230:-4 231:-4 232:-2 233:-4 234:-4 235:1 236:1 237:-2 238:-4 239:1 240:-4 241:-2 242:0 243:2 244:3 245:-4 246:-2 247:-2 248:2 249:-3 250:-4 251:-4 252:3 253:-4 254:-1 255:1 256:0 257:-2 258:-4 259:-1 260:-4 #
0.0005867234987185139 1:-3 2:-3 3:-4 4:-4 5:-3 6:-4 7:-4 8:-4 9:-2 10:-1 11:0 12:-4 13:0 14:7 15:-4 16:-3 17:-3 18:1 19:3 20:-1 21:-1 22:-3 23:-3 24:-2 25:-3 26:-2 27:-2 28:-3 29:-3 30:-3 31:-4 32:-2 33:-3 34:-4 35:8 36:-1 37:-2 38:-4 39:-4 40:-3 41:-2 42:-2 43:-3 44:-2 45:-3 46:-1 47:2 48:-4 49:-2 50:0 51:3 52:-2 53:0 54:4 55:-3 56:-2 57:-2 58:-1 59:0 60:-1 61:-1 62:5 63:-1 64:-2 65:-4 66:0 67:-1 68:3 69:-1 70:-4 71:-3 72:1 73:-2 74:-4 75:-3 76:-1 77:-2 78:-3 79:-3 80:-3 81:-1 82:-2 83:-2 84:-2 85:-2 86:-1 87:-2 88:-2 89:-2 90:2 91:1 92:-2 93:6 94:-1 95:-2 96:2 97:0 98:-3 99:-2 100:0 101:2 102:3 103:-2 104:-2 105:-3 106:-1 107:-1 108:2 109:-2 110:-3 111:-3 112:0 113:-2 114:-4 115:5 116:-1 117:-1 118:-4 119:-3 120:-2 121:-2 122:-2 123:0 124:6 125:-4 126:0 127:4 128:-2 129:-1 130:-4 131:-4 132:-1 133:-3 134:-4 135:-2 136:-1 137:-2 138:-4 139:-3 140:-4 141:-3 142:-3 143:-2 144:3 145:-3 146:-2 147:-1 148:-3 149:-2 150:-3 151:-3 152:-3 153:-2 154:0 155:-3 156:-2 157:-3 158:11 159:1 160:-4 161:-2 162:-3 163:-4 164:-4 165:-2 166:-3 167:-4 168:-4 169:-3 170:1 171:4 172:-3 173:1 174:4 175:-4 176:-3 177:-2 178:-1 179:1 180:0 181:2 182:0 183:-2 184:-2 185:-2 186:0 187:-1 188:-2 189:-2 190:-2 191:-2 192:3 193:-1 194:3 195:-2 196:-1 197:-1 198:-2 199:0 200:-2 201:-2 202:0 203:6 204:1 205:-3 206:3 207:0 208:-1 209:0 210:-4 211:-4 212:0 213:-2 214:-4 215:-2 216:0 217:-1 218:-4 219:-2 220:-3 221:-1 222:-2 223:-2 224:-3 225:-2 226:-2 227:-2 228:-3 229:6 230:1 231:0 232:-2 233:0 234:-1 235:-3 236:-2 237:-1 238:-3 239:0 240:4 241:-2 242:-3 243:-4 244:-4 245:-2 246:-2 247:-3 248:-4 249:-3 250:1 251:4 252:-3 253:4 254:0 255:-3 256:-3 257:-2 258:-2 259:-2 260:0 #
0.00015326298296004348 1:-3 2:-3 3:-4 4:-5 5:-3 6:-3 7:-4 8:-3 9:-3 10:-3 11:-2 12:-4 13:-2 14:1 15:-4 16:-3 17:-3 18:12 19:2 20:-4 21:-1 22:1 23:-1 24:-2 25:4 26:1 27:0 28:-2 29:-2 30:-3 31:-3 32:5 33:-2 34:-4 35:-2 36:-1 37:-1 38:-4 39:-3 40:-3 41:-2 42:7 43:-1 44:-2 45:-4 46:1 47:-1 48:-3 49:-1 50:-4 51:-3 52:2 53:-2 54:-3 55:-3 56:-1 57:-2 58:-3 59:-2 60:-3 61:-1 62:-3 63:-3 64:-2 65:-3 66:-2 67:-2 68:-3 69:-3 70:-3 71:-4 72:-2 73:-3 74:-4 75:8 76:-1 77:-2 78:-4 79:-4 80:-3 81:-1 82:2 83:-1 84:-2 85:-2 86:-1 87:-1 88:-2 89:5 90:-2 91:-2 92:-1 93:-2 94:-3 95:3 96:0 97:4 98:-3 99:-1 100:-2 101:-1 102:-1 103:-1 104:1 105:-4 106:2 107:6 108:-3 109:-1 110:-4 111:-4 112:0 113:-3 114:-4 115:-2 116:-1 117:-1 118:-4 119:-3 120:-3 121:-2 122:-3 123:-4 124:-4 125:-2 126:-3 127:-4 128:-4 129:-4 130:5 131:3 132:-3 133:1 134:0 135:-3 136:-3 137:-1 138:-3 139:-2 140:2 141:-1 142:-3 143:3 144:-2 145:8 146:-2 147:-3 148:-3 149:-2 150:-1 151:0 152:-3 153:-1 154:-2 155:-3 156:-1 157:-1 158:-3 159:-3 160:-1 161:1 162:-1 163:-1 164:0 165:-2 166:0 167:3 168:-2 169:-1 170:-3 171:-3 172:-1 173:-2 174:-4 175:4 176:2 177:0 178:-4 179:-3 180:-2 181:-2 182:-1 183:6 184:3 185:4 186:-1 187:-1 188:-1 189:0 190:-3 191:-4 192:-1 193:-3 194:-4 195:-3 196:0 197:-1 198:-4 199:-3 200:-3 201:2 202:-3 203:-2 204:-2 205:-3 206:-2 207:-2 208:-2 209:-3 210:-3 211:-3 212:-1 213:-3 214:-4 215:7 216:-1 217:-1 218:-4 219:-3 220:-2 221:-2 222:5 223:-1 224:-1 225:-4 226:4 227:0 228:-3 229:-1 230:-4 231:-3 232:3 233:-2 234:-4 235:-2 236:-1 237:-1 238:-3 239:-2 240:-3 241:-3 242:-3 243:-4 244:-4 245:-3 246:-4 247:-4 248:-4 249:-2 250:-1 251:0 252:-4 253:0 254:7 255:-4 256:-3 257:-3 258:1 259:3 260:-1 #
-0.0005867234987185139 2:0 3:-2 4:0 5:-1 6:-3 7:-2 8:-2 9:6 10:-2 11:-4 12:-4 13:-2 14:-3 15:-3 16:-2 17:0 18:-2 19:-3 20:-3 21:-3 22:-2 23:-2 24:-2 25:-3 26:-2 27:-1 28:-2 29:-3 30:2 31:-1 32:-1 33:-2 34:-1 35:3 36:-3 37:-2 38:-2 39:2 40:7 41:-1 42:-1 43:-3 44:-3 45:-3 46:-1 47:-3 48:-3 49:-4 50:-3 51:4 52:2 53:-3 54:1 55:0 56:-3 57:-2 58:-1 59:-3 60:-1 61:3 62:-3 63:-3 64:-4 65:-4 66:-2 67:-2 68:-3 69:-3 70:-2 71:-3 72:-2 73:-3 74:-1 75:1 76:-4 77:-3 78:-2 79:11 80:2 81:-3 82:-1 83:-3 84:-3 85:-3 86:-1 87:-3 88:-3 89:-4 90:-3 91:4 92:2 93:-3 94:1 95:0 96:-3 97:-2 98:-1 99:-3 100:-1 101:3 102:-1 103:-2 104:-2 105:-1 106:-3 107:-1 108:-1 109:-2 110:-2 111:-3 112:-3 113:-1 114:-2 115:-4 116:7 117:-1 118:-1 119:-4 120:-3 121:-2 122:-1 123:-2 124:-2 125:-1 126:-3 127:-1 128:-1 129:-2 130:-2 131:-3 132:-3 133:-1 134:-2 135:-4 136:7 137:-1 138:-1 139:-4 140:-3 141:-2 142:0 143:-1 144:0 145:-1 146:-1 147:-1 148:-1 149:-2 150:-2 151:-1 152:-1 153:-1 154:-1 155:-2 156:-1 157:1 158:5 159:-2 160:-2 161:0 162:-1 163:-2 164:-3 165:-4 166:-1 167:-2 168:-3 169:-4 170:-3 171:2 172:4 173:-2 174:2 175:0 176:-3 177:-2 178:-1 179:-2 180:-1 181:1 182:0 183:0 184:0 185:0 186:0 187:0 188:0 189:0 190:0 191:0 192:0 193:0 194:0 195:0 196:0 197:0 198:0 199:0 200:0 201:0 202:0 203:0 204:0 205:0 206:0 207:0 208:0 209:0 210:0 211:0 212:0 213:0 214:0 215:0 216:0 217:0 218:0 219:0 220:0 221:0 222:0 223:0 224:0 225:0 226:0 227:0 228:0 229:0 230:0 231:0 232:0 233:0 234:0 235:0 236:0 237:0 238:0 239:0 240:0 241:0 242:0 243:0 244:0 245:0 246:0 247:0 248:0 249:0 250:0 251:0 252:0 253:0 254:0 255:0 256:0 257:0 258:0 259:0 260:0 261:0 #
-0.0005867234987185139 2:0 3:-1 4:0 5:-1 6:-1 7:-1 8:-1 9:-2 10:-2 11:-1 12:-1 13:-1 14:-1 15:-2 16:-1 17:1 18:5 19:-2 20:-2 21:0 22:-1 23:-2 24:-3 25:-4 26:-1 27:-2 28:-3 29:-4 30:-3 31:2 32:4 33:-2 34:2 35:0 36:-3 37:-2 38:-1 39:-2 40:-1 41:1 42:0 43:-2 44:0 45:-1 46:-3 47:-2 48:-2 49:6 50:-2 51:-4 52:-4 53:-2 54:-3 55:-3 56:-2 57:0 58:-2 59:-2 60:-3 61:-3 62:0 63:-3 64:-3 65:-3 66:-1 67:-2 68:-2 69:-3 70:-3 71:3 72:1 73:-2 74:1 75:-1 76:-2 77:-2 78:0 79:-3 80:-1 81:4 82:-1 83:2 84:0 85:-1 86:-3 87:1 88:1 89:-2 90:-1 91:-3 92:-2 93:4 94:-1 95:-3 96:-1 97:0 98:-1 99:-3 100:-2 101:-2 102:-1 103:1 104:0 105:0 106:-3 107:5 108:2 109:-2 110:0 111:-3 112:-2 113:1 114:0 115:-3 116:-1 117:0 118:-1 119:-2 120:-1 121:-2 122:-1 123:-1 124:-2 125:-3 126:-1 127:0 128:-2 129:-3 130:-2 131:1 132:2 133:-1 134:5 135:0 136:-2 137:-1 138:-1 139:-1 140:-1 141:1 142:-1 143:-3 144:-3 145:-3 146:-1 147:-3 148:-3 149:-4 150:-3 151:4 152:2 153:-3 154:1 155:0 156:-3 157:-2 158:-1 159:-3 160:-1 161:3 162:0 163:-3 164:-3 165:-3 166:9 167:-3 168:-4 169:-3 170:-3 171:-1 172:-1 173:-3 174:-1 175:-2 176:-3 177:-1 178:-1 179:-2 180:-2 181:-1 182:0 183:-3 184:-3 185:-3 186:9 187:-3 188:-4 189:-3 190:-3 191:-1 192:-1 193:-3 194:-1 195:-2 196:-3 197:-1 198:-1 199:-2 200:-2 201:-1 202:0 203:-3 204:-3 205:-3 206:9 207:-3 208:-4 209:-3 210:-3 211:-1 212:-1 213:-3 214:-1 215:-2 216:-3 217:-1 218:-1 219:-2 220:-2 221:-1 222:0 223:-3 224:-3 225:-3 226:9 227:-3 228:-4 229:-3 230:-3 231:-1 232:-1 233:-3 234:-1 235:-2 236:-3 237:-1 238:-1 239:-2 240:-2 241:-1 242:0 243:-3 244:-3 245:-3 246:9 247:-3 248:-4 249:-3 250:-3 251:-1 252:-1 253:-3 254:-1 255:-2 256:-3 257:-1 258:-1 259:-2 260:-2 261:-1 #
-0.0005867234987185139 2:0 3:-1 4:0 5:-1 6:-1 7:-1 8:-1 9:-2 10:-2 11:-1 12:-1 13:-1 14:-1 15:-2 16:-1 17:2 18:5 19:-3 20:-2 21:0 22:0 23:-3 24:0 25:-1 26:-3 27:-2 28:-2 29:6 30:-2 31:-4 32:-4 33:-2 34:-3 35:-3 36:-2 37:0 38:-2 39:-3 40:-3 41:-4 42:-2 43:-2 44:-4 45:-4 46:-1 47:-2 48:-3 49:-4 50:-3 51:2 52:4 53:-3 54:2 55:0 56:-3 57:-3 58:-1 59:-2 60:-1 61:1 62:-1 63:-2 64:-2 65:-2 66:-3 67:-1 68:-1 69:-2 70:-2 71:-3 72:-3 73:-1 74:-3 75:-4 76:8 77:-1 78:-1 79:-4 80:-3 81:-3 82:-2 83:-2 84:-2 85:-3 86:-3 87:-2 88:-2 89:-3 90:2 91:-2 92:-1 93:-2 94:-1 95:3 96:-3 97:-2 98:-2 99:2 100:7 101:-1 102:-3 103:-3 104:-4 105:-5 106:-3 107:-2 108:-3 109:-3 110:-3 111:-3 112:-2 113:-3 114:-2 115:1 116:-4 117:-3 118:-3 119:12 120:2 121:-3 122:0 123:-3 124:-3 125:-4 126:-1 127:-2 128:-3 129:-4 130:-4 131:3 132:1 133:-3 134:1 135:-1 136:-3 137:-2 138:0 139:-3 140:-1 141:4 142:-2 143:-2 144:-4 145:-4 146:-1 147:-2 148:-3 149:-4 150:-3 151:2 152:4 153:-3 154:2 155:0 156:-3 157:-3 158:-1 159:-2 160:-1 161:1 162:-3 163:-3 164:-4 165:-5 166:-3 167:-2 168:-3 169:-3 170:-3 171:-3 172:-2 173:-3 174:-2 175:1 176:-4 177:-3 178:-3 179:12 180:2 181:-3 182:-1 183:-3 184:-4 185:-4 186:-1 187:-3 188:-4 189:-4 190:-4 191:5 192:2 193:-3 194:1 195:0 196:-3 197:-3 198:-1 199:-3 200:-2 201:3 202:4 203:-2 204:-2 205:-2 206:0 207:-1 208:-1 209:0 210:-2 211:-1 212:-2 213:-1 214:-1 215:-2 216:-1 217:1 218:0 219:-3 220:-2 221:0 222:-2 223:-2 224:-4 225:-4 226:-1 227:-2 228:-3 229:-4 230:-3 231:2 232:4 233:-3 234:2 235:0 236:-3 237:-3 238:-1 239:-2 240:-1 241:1 242:0 243:-3 244:-3 245:-4 246:-1 247:-2 248:-3 249:-4 250:-4 251:3 252:1 253:-3 254:1 255:-1 256:-3 257:-2 258:0 259:-3 260:-1 261:4 #
-0.00026017872407047742 2:-3 3:-3 4:-4 5:-5 6:-3 7:-2 8:-3 9:-3 10:-3 11:-3 12:-2 13:-3 14:-2 15:1 16:-4 17:-3 18:-3 19:11 20:2 21:-3 22:0 23:-4 24:-3 25:-4 26:9 27:-3 28:-4 29:-3 30:-3 31:-1 32:-1 33:-3 34:-2 35:-3 36:-3 37:-1 38:-1 39:-3 40:-3 41:-1 42:0 43:-3 44:0 45:-1 46:-3 47:-2 48:-2 49:6 50:-2 51:-4 52:-4 53:-2 54:-3 55:-3 56:-2 57:0 58:-2 59:-3 60:-3 61:-3 62:-1 63:2 64:0 65:-1 66:-3 67:1 68:1 69:-2 70:-1 71:-3 72:-3 73:5 74:-1 75:-3 76:-1 77:0 78:-1 79:-3 80:-2 81:-2 82:-2 83:-2 84:-4 85:-4 86:-1 87:-2 88:-3 89:-4 90:-3 91:2 92:4 93:-3 94:2 95:0 96:-3 97:-3 98:-1 99:-2 100:-1 101:1 102:-1 103:2 104:0 105:-1 106:-3 107:1 108:1 109:-2 110:-1 111:-3 112:-3 113:5 114:-1 115:-3 116:-1 117:0 118:-1 119:-3 120:-2 121:-2 122:1 123:-1 124:1 125:0 126:-1 127:0 128:0 129:0 130:-1 131:-3 132:-3 133:0 134:-2 135:-3 136:-1 137:4 138:2 139:-3 140:-2 141:-2 142:-1 143:-3 144:-4 145:-3 146:-1 147:-3 148:-3 149:-4 150:-4 151:4 152:2 153:-3 154:1 155:0 156:-3 157:-3 158:-1 159:-3 160:-1 161:3 162:-1 163:-2 164:-2 165:-2 166:-3 167:-1 168:-1 169:-2 170:-2 171:-3 172:-3 173:-1 174:-3 175:-4 176:8 177:-1 178:-1 179:-4 180:-3 181:-3 182:-1 183:-3 184:-4 185:-3 186:-1 187:-3 188:-3 189:-4 190:-4 191:4 192:2 193:-3 194:1 195:0 196:-3 197:-3 198:-1 199:-3 200:-1 201:3 202:-2 203:-2 204:-2 205:-3 206:-3 207:-2 208:-2 209:-3 210:2 211:-1 212:-1 213:-2 214:-1 215:3 216:-3 217:-2 218:-2 219:2 220:7 221:-1 222:-2 223:6 224:0 225:-2 226:-4 227:1 228:0 229:-3 230:0 231:-3 232:-2 233:2 234:-1 235:-3 236:-2 237:-1 238:-1 239:-3 240:-2 241:-3 242:-2 243:-2 244:-4 245:-4 246:-1 247:-2 248:-3 249:-4 250:-3 251:2 252:4 253:-3 254:2 255:0 256:-3 257:-3 258:-1 259:-2 260:-1 261:1 #
-0.0005867234987185139 2:-2 3:-2 4:-4 5:-4 6:-1 7:-2 8:-3 9:-4 10:-3 11:2 12:4 13:-3 14:2 15:0 16:-3 17:-3 18:-1 19:-2 20:-1 21:1 22:-1 23:-2 24:-2 25:-2 26:-3 27:-1 28:-1 29:-2 30:-2 31:-3 32:-3 33:-1 34:-3 35:-4 36:8 37:-1 38:-1 39:-4 40:-3 41:-3 42:0 43:-4 44:-3 45:-4 46:10 47:-3 48:-4 49:-3 50:-3 51:-1 52:-1 53:-3 54:-2 55:-3 56:-3 57:-1 58:-1 59:-3 60:-3 61:-1 62:-2 63:-2 64:-4 65:-4 66:-1 67:-2 68:-3 69:-4 70:-3 71:2 72:4 73:-3 74:2 75:0 76:-3 77:-3 78:-1 79:-2 80:-1 81:1 82:-1 83:0 84:0 85:2 86:-4 87:2 88:5 89:-2 90:0 91:-4 92:-3 93:1 94:-2 95:-4 96:-1 97:0 98:-1 99:-3 100:-2 101:-3 102:-2 103:6 104:0 105:-2 106:-4 107:1 108:0 109:-3 110:0 111:-3 112:-2 113:2 114:-2 115:-3 116:-2 117:-1 118:-1 119:-3 120:-2 121:-3 122:-2 123:-2 124:-4 125:-4 126:-1 127:-2 128:-3 129:-4 130:-3 131:2 132:4 133:-3 134:2 135:0 136:-3 137:-3 138:-1 139:-2 140:-1 141:1 142:-1 143:-3 144:-4 145:-3 146:-1 147:-3 148:-4 149:-4 150:-4 151:4 152:2 153:-3 154:1 155:0 156:-3 157:-3 158:-1 159:-3 160:-1 161:3 162:-2 163:-2 164:-4 165:-4 166:-1 167:-2 168:-3 169:-4 170:-3 171:2 172:4 173:-3 174:2 175:0 176:-3 177:-3 178:-1 179:-2 180:-1 181:1 182:-1 183:2 184:0 185:-1 186:-3 187:1 188:1 189:-2 190:-1 191:-3 192:-3 193:5 194:-2 195:-3 196:-1 197:0 198:-1 199:-3 200:-2 201:-3 202:-2 203:-2 204:-2 205:-3 206:-3 207:-2 208:-2 209:-3 210:2 211:-1 212:-1 213:-2 214:-1 215:3 216:-3 217:-2 218:-2 219:2 220:7 221:-1 222:0 223:-4 224:-3 225:-4 226:10 227:-3 228:-4 229:-3 230:-3 231:-1 232:-1 233:-3 234:-2 235:-3 236:-3 237:-1 238:-1 239:-3 240:-3 241:-1 242:-1 243:0 244:0 245:2 246:-4 247:2 248:5 249:-2 250:0 251:-4 252:-3 253:1 254:-2 255:-4 256:-1 257:0 258:-1 259:-3 260:-2 261:-3 #
0.0005867234987185139 1:-3 2:-3 3:-4 4:-5 5:-3 6:-3 7:-3 8:-3 9:-3 10:-3 11:-2 12:-4 13:-2 14:1 15:-4 16:-3 17:-3 18:12 19:2 20:-3 21:-2 22:5 23:-1 24:-1 25:-4 26:5 27:1 28:-3 29:0 30:-4 31:-3 32:1 33:-1 34:-4 35:-2 36:-1 37:-1 38:-3 39:-2 40:-3 41:-3 42:-3 43:-3 44:-4 45:-3 46:-3 47:-3 48:-4 49:0 50:-1 51:-1 52:-3 53:-1 54:5 55:-4 56:-3 57:-2 58:1 59:7 60:-2 61:0 62:-3 63:-1 64:-2 65:-3 66:-2 67:-3 68:6 69:-3 70:-4 71:-4 72:-2 73:-3 74:-4 75:-3 76:-1 77:-2 78:-3 79:-4 80:-4 81:-2 82:-1 83:0 84:4 85:-4 86:1 87:4 88:-2 89:5 90:-4 91:-4 92:0 93:-3 94:-3 95:-2 96:-1 97:-2 98:-4 99:-1 100:-3 101:-3 102:-3 103:-4 104:-5 105:-3 106:-3 107:-3 108:-3 109:-3 110:-3 111:-2 112:-4 113:-2 114:1 115:-4 116:-3 117:-3 118:12 119:2 120:-3 121:-1 122:-3 123:-4 124:-4 125:-1 126:-3 127:-3 128:-4 129:-4 130:2 131:0 132:-3 133:0 134:-1 135:-3 136:-2 137:-1 138:-3 139:-2 140:5 141:-2 142:-1 143:0 144:6 145:-4 146:0 147:4 148:-2 149:-1 150:-4 151:-4 152:0 153:-3 154:-4 155:-2 156:-1 157:-1 158:-4 159:-3 160:-3 161:-1 162:-3 163:-4 164:-4 165:-1 166:-3 167:-3 168:-4 169:-4 170:2 171:0 172:-3 173:0 174:-1 175:-3 176:-2 177:-1 178:-3 179:-2 180:5 181:-1 182:-3 183:-4 184:-4 185:-1 186:-3 187:-3 188:-4 189:-4 190:3 191:2 192:-3 193:1 194:-1 195:-3 196:-3 197:-1 198:-3 199:-2 200:4 201:-1 202:-3 203:-4 204:-4 205:-2 206:-3 207:-3 208:-4 209:-4 210:4 211:1 212:-3 213:1 214:-1 215:-3 216:-3 217:-1 218:-3 219:-2 220:4 221:-2 222:-2 223:1 224:7 225:-4 226:-1 227:1 228:-2 229:-2 230:-4 231:-4 232:-1 233:-4 234:-4 235:-2 236:-1 237:-2 238:-5 239:-4 240:-4 241:-2 242:-2 243:1 244:7 245:-4 246:-1 247:1 248:-2 249:-2 250:-4 251:-4 252:-1 253:-4 254:-4 255:-2 256:-1 257:-2 258:-5 259:-4 260:-4 #
0.0005867234987185139 1:-3 2:-3 3:-4 4:-5 5:-3 6:-3 7:-3 8:-3 9:-3 10:-3 11:-2 12:-4 13:-2 14:1 15:-4 16:-3 17:-3 18:12 19:2 20:-3 21:-2 22:5 23:-1 24:-1 25:-4 26:5 27:1 28:-3 29:0 30:-4 31:-3 32:1 33:-1 34:-4 35:-2 36:-1 37:-1 38:-3 39:-2 40:-3 41:-3 42:-3 43:-3 44:-4 45:-3 46:-3 47:-3 48:-4 49:0 50:-1 51:-1 52:-3 53:-1 54:5 55:-4 56:-3 57:-2 58:1 59:7 60:-2 61:0 62:-3 63:-1 64:-2 65:-3 66:-2 67:-3 68:6 69:-3 70:-4 71:-4 72:-2 73:-3 74:-4 75:-3 76:-1 77:-2 78:-3 79:-4 80:-4 81:-2 82:-1 83:0 84:4 85:-4 86:1 87:4 88:-2 89:5 90:-4 91:-4 92:0 93:-3 94:-3 95:-2 96:-1 97:-2 98:-4 99:-1 100:-3 101:-3 102:-3 103:-4 104:-5 105:-3 106:-3 107:-3 108:-3 109:-3 110:-3 111:-2 112:-4 113:-2 114:1 115:-4 116:-3 117:-3 118:12 119:2 120:-3 121:-1 122:-3 123:-4 124:-4 125:-1 126:-3 127:-3 128:-4 129:-4 130:2 131:0 132:-3 133:0 134:-1 135:-3 136:-2 137:-1 138:-3 139:-2 140:5 141:-2 142:-1 143:0 144:6 145:-4 146:0 147:4 148:-2 149:-1 150:-4 151:-4 152:-1 153:-3 154:-4 155:-2 156:-1 157:-1 158:-4 159:-3 160:-4 161:-1 162:-3 163:-4 164:-4 165:-1 166:-3 167:-3 168:-4 169:-4 170:2 171:0 172:-3 173:0 174:-1 175:-3 176:-2 177:-1 178:-3 179:-2 180:5 181:-1 182:-3 183:-4 184:-4 185:-1 186:-3 187:-3 188:-4 189:-4 190:3 191:2 192:-3 193:1 194:-1 195:-3 196:-3 197:-1 198:-3 199:-2 200:4 201:-1 202:-3 203:-4 204:-4 205:-2 206:-3 207:-3 208:-4 209:-4 210:4 211:1 212:-3 213:1 214:-1 215:-3 216:-3 217:-1 218:-3 219:-2 220:4 221:-2 222:-2 223:1 224:7 225:-4 226:-1 227:1 228:-2 229:-2 230:-4 231:-4 232:-1 233:-4 234:-4 235:-2 236:-1 237:-2 238:-5 239:-4 240:-4 241:-2 242:-2 243:1 244:7 245:-4 246:-1 247:1 248:-2 249:-2 250:-4 251:-4 252:-1 253:-4 254:-4 255:-2 256:-1 257:-2 258:-5 259:-4 260:-4 #
0.0005867234987185139 1:0 2:0 3:0 4:0 5:0 6:0 7:0 8:0 9:0 10:0 11:0 12:0 13:0 14:0 15:0 16:0 17:0 18:0 19:0 20:0 21:0 22:0 23:0 24:0 25:0 26:0 27:0 28:0 29:0 30:0 31:0 32:0 33:0 34:0 35:0 36:0 37:0 38:0 39:0 40:0 41:0 42:0 43:0 44:0 45:0 46:0 47:0 48:0 49:0 50:0 51:0 52:0 53:0 54:0 55:0 56:0 57:0 58:0 59:0 60:0 61:0 62:0 63:0 64:0 65:0 66:0 67:0 68:0 69:0 70:0 71:0 72:0 73:0 74:0 75:0 76:0 77:0 78:0 79:0 80:0 81:0 82:0 83:0 84:0 85:0 86:0 87:0 88:0 89:0 90:0 91:0 92:0 93:0 94:0 95:0 96:0 97:0 98:0 99:0 100:0 101:0 102:0 103:0 104:0 105:0 106:0 107:0 108:0 109:0 110:0 111:0 112:0 113:0 114:0 115:0 116:0 117:0 118:0 119:0 120:0 121:0 122:0 123:0 124:0 125:0 126:0 127:0 128:0 129:0 130:0 131:0 132:0 133:0 134:0 135:0 136:0 137:0 138:0 139:0 140:0 141:-1 142:-2 143:-2 144:-3 145:-2 146:-1 147:-2 148:-3 149:-2 150:1 151:2 152:-2 153:6 154:0 155:-3 156:-2 157:-1 158:-2 159:-1 160:1 161:-2 162:6 163:-1 164:-2 165:-4 166:1 167:0 168:-3 169:0 170:-3 171:-2 172:2 173:-2 174:-3 175:-2 176:-1 177:-1 178:-3 179:-2 180:-3 181:2 182:-2 183:-1 184:-2 185:-1 186:-1 187:-2 188:-1 189:-2 190:1 191:-1 192:-1 193:0 194:-2 195:-2 196:0 197:3 198:-3 199:-2 200:2 201:-3 202:-3 203:-4 204:-5 205:-3 206:-2 207:-3 208:-3 209:-3 210:-3 211:-2 212:-3 213:-2 214:1 215:-4 216:-3 217:-3 218:11 219:2 220:-3 221:-1 222:-3 223:-3 224:-3 225:-1 226:-3 227:-3 228:-4 229:-4 230:4 231:1 232:-3 233:1 234:-1 235:-3 236:-2 237:-1 238:-3 239:-1 240:3 241:-2 242:-3 243:-3 244:-4 245:-3 246:-3 247:-4 248:-3 249:-1 250:0 251:0 252:-3 253:0 254:7 255:-4 256:-3 257:-2 258:1 259:3 260:-1 #
-0.0005867234987185139 2:-3 3:-3 4:-4 5:-4 6:-2 7:-2 8:-3 9:-3 10:-2 11:-3 12:-2 13:-3 14:-1 15:1 16:-4 17:-3 18:-2 19:11 20:2 21:-3 22:-1 23:-2 24:-3 25:-4 26:-1 27:-2 28:-3 29:-4 30:-3 31:2 32:4 33:-2 34:2 35:0 36:-3 37:-2 38:-1 39:-2 40:-1 41:1 42:-1 43:-2 44:-2 45:-1 46:-3 47:-1 48:-1 49:-2 50:-2 51:-3 52:-3 53:-1 54:-2 55:-4 56:7 57:-1 58:-1 59:-4 60:-3 61:-2 62:0 63:-1 64:0 65:-1 66:-1 67:-1 68:-1 69:-2 70:-2 71:-1 72:-1 73:-1 74:-1 75:-2 76:-1 77:1 78:5 79:-2 80:-2 81:0 82:0 83:-1 84:0 85:-1 86:-1 87:-1 88:-1 89:-2 90:-2 91:-1 92:-1 93:-1 94:-1 95:-2 96:-1 97:1 98:5 99:-2 100:-2 101:0 102:-2 103:-2 104:1 105:6 106:-3 107:0 108:2 109:-1 110:-1 111:-3 112:-4 113:-1 114:-3 115:-4 116:-1 117:0 118:-1 119:-4 120:-3 121:-3 122:0 123:-3 124:-3 125:-3 126:9 127:-3 128:-4 129:-3 130:-3 131:-1 132:-1 133:-3 134:-1 135:-2 136:-3 137:-1 138:-1 139:-2 140:-2 141:-1 142:0 143:-3 144:-3 145:-3 146:9 147:-3 148:-4 149:-3 150:-3 151:-1 152:-1 153:-3 154:-1 155:-2 156:-3 157:-1 158:-1 159:-2 160:-2 161:-1 162:-2 163:0 164:6 165:1 166:-3 167:0 168:0 169:0 170:1 171:-3 172:-3 173:0 174:-2 175:-3 176:-2 177:1 178:0 179:-4 180:-2 181:-3 182:-1 183:5 184:0 185:-2 186:-3 187:1 188:0 189:-2 190:0 191:-3 192:-2 193:2 194:-1 195:-3 196:-2 197:-1 198:-1 199:-3 200:-2 201:-3 202:0 203:-1 204:0 205:-1 206:-1 207:-1 208:-1 209:-2 210:-2 211:-1 212:-1 213:-1 214:-1 215:-2 216:-1 217:1 218:5 219:-2 220:-2 221:0 222:-3 223:-3 224:-4 225:-4 226:-2 227:-2 228:-3 229:-3 230:-2 231:-3 232:-2 233:-3 234:-1 235:1 236:-4 237:-3 238:-2 239:11 240:2 241:-3 242:-1 243:-2 244:-3 245:-4 246:-1 247:-2 248:-3 249:-4 250:-3 251:2 252:4 253:-2 254:2 255:0 256:-3 257:-2 258:-1 259:-2 260:-1 261:1 #
-0.0005867234987185139 2:-1 3:1 4:0 5:0 6:-3 7:5 8:2 9:-2 10:0 11:-3 12:-2 13:1 14:0 15:-3 16:-1 17:0 18:-1 19:-2 20:-1 21:-2 22:-1 23:5 24:0 25:-2 26:-3 27:1 28:0 29:-2 30:0 31:-3 32:-2 33:2 34:-1 35:-3 36:-2 37:-1 38:-1 39:-3 40:-2 41:-3 42:-3 43:-3 44:-4 45:-4 46:-2 47:-2 48:-3 49:-3 50:-2 51:-3 52:-2 53:-3 54:-1 55:1 56:-4 57:-3 58:-2 59:11 60:2 61:-3 62:-2 63:-2 64:-2 65:-3 66:-2 67:-1 68:-2 69:-3 70:2 71:-1 72:-1 73:-2 74:-1 75:3 76:-3 77:-2 78:-2 79:2 80:7 81:-1 82:-2 83:0 84:1 85:-1 86:-3 87:0 88:0 89:-2 90:8 91:-3 92:-3 93:-1 94:-2 95:-1 96:-2 97:-1 98:-2 99:-2 100:2 101:-3 102:0 103:-3 104:-3 105:-3 106:-1 107:-2 108:-2 109:-3 110:-3 111:3 112:1 113:-2 114:1 115:-1 116:-2 117:-2 118:0 119:-3 120:-1 121:4 122:-1 123:-2 124:-2 125:-1 126:-3 127:-1 128:-1 129:-2 130:-2 131:-3 132:-3 133:-1 134:-2 135:-4 136:7 137:-1 138:-1 139:-4 140:-3 141:-2 142:-1 143:5 144:0 145:-2 146:-3 147:1 148:0 149:-2 150:0 151:-3 152:-2 153:2 154:-1 155:-3 156:-2 157:-1 158:-1 159:-3 160:-2 161:-3 162:1 163:-1 164:1 165:0 166:-1 167:0 168:0 169:0 170:-1 171:-2 172:-2 173:0 174:-1 175:-2 176:-1 177:4 178:1 179:-3 180:-2 181:-2 182:-3 183:-3 184:-4 185:-4 186:-2 187:-2 188:-3 189:-3 190:-2 191:-3 192:-2 193:-3 194:-1 195:1 196:-4 197:-3 198:-2 199:11 200:2 201:-3 202:-1 203:-2 204:-3 205:-4 206:-1 207:-2 208:-3 209:-4 210:-3 211:2 212:4 213:-2 214:2 215:0 216:-3 217:-2 218:-1 219:-2 220:-1 221:1 222:-1 223:2 224:0 225:-1 226:-3 227:1 228:1 229:-2 230:-1 231:-3 232:-2 233:5 234:-1 235:-3 236:-1 237:0 238:-1 239:-3 240:-2 241:-2 242:-1 243:-2 244:-2 245:-1 246:-3 247:-1 248:-1 249:-2 250:-2 251:-3 252:-3 253:-1 254:-2 255:-4 256:7 257:-1 258:-1 259:-4 260:-3 261:-2 #
0.0005867234987185139 1:-3 2:-3 3:-4 4:-4 5:-3 6:-4 7:-4 8:-4 9:-2 10:-1 11:0 12:-4 13:0 14:7 15:-4 16:-3 17:-3 18:1 19:3 20:-1 21:-1 22:3 23:-1 24:-1 25:-4 26:6 27:1 28:-3 29:0 30:-4 31:-3 32:1 33:-1 34:-4 35:-2 36:-1 37:-1 38:-3 39:-2 40:-3 41:-3 42:-3 43:-4 44:-4 45:-3 46:-4 47:-4 48:-4 49:-2 50:0 51:1 52:-4 53:0 54:7 55:-4 56:-3 57:-3 58:0 59:2 60:-1 61:-3 62:-3 63:-4 64:-5 65:-3 66:-3 67:-4 68:-3 69:-3 70:-3 71:-2 72:-4 73:-2 74:1 75:-4 76:-3 77:-3 78:12 79:2 80:-4 81:-2 82:5 83:-1 84:-1 85:-4 86:5 87:1 88:-3 89:0 90:-4 91:-3 92:1 93:-1 94:-4 95:-2 96:-1 97:-1 98:-3 99:-2 100:-3 101:-3 102:-3 103:-3 104:-4 105:-3 106:-3 107:-3 108:-4 109:0 110:-1 111:-1 112:-3 113:-1 114:5 115:-4 116:-3 117:-2 118:1 119:7 120:-2 121:0 122:-3 123:-1 124:-2 125:-3 126:-2 127:-3 128:6 129:-3 130:-4 131:-4 132:-2 133:-3 134:-4 135:-3 136:-1 137:-2 138:-3 139:-4 140:-4 141:-2 142:-1 143:0 144:4 145:-4 146:1 147:4 148:-2 149:5 150:-4 151:-4 152:0 153:-3 154:-3 155:-2 156:-1 157:-2 158:-4 159:-1 160:-3 161:-3 162:-3 163:-4 164:-5 165:-3 166:-3 167:-4 168:-3 169:-3 170:-3 171:-2 172:-4 173:-2 174:1 175:-4 176:-3 177:-3 178:12 179:2 180:-4 181:-1 182:-3 183:-4 184:-4 185:-1 186:-3 187:-3 188:-4 189:-4 190:2 191:0 192:-3 193:0 194:-1 195:-3 196:-2 197:-1 198:-4 199:-2 200:5 201:-2 202:-1 203:0 204:6 205:-4 206:0 207:4 208:-2 209:-1 210:-4 211:-4 212:-1 213:-3 214:-4 215:-2 216:-1 217:-2 218:-4 219:-3 220:-4 221:-1 222:-3 223:-4 224:-4 225:-1 226:-3 227:-3 228:-4 229:-4 230:2 231:0 232:-3 233:0 234:-1 235:-3 236:-2 237:-1 238:-4 239:-2 240:5 241:-1 242:-3 243:-4 244:-4 245:-2 246:-3 247:-3 248:-4 249:-4 250:3 251:2 252:-3 253:1 254:-1 255:-3 256:-3 257:-1 258:-3 259:-2 260:4 #
0.00050890942636816526 1:-1 2:0 3:0 4:1 5:-4 6:4 7:5 8:-2 9:0 10:-4 11:-3 12:1 13:-2 14:-4 15:-2 16:0 17:-1 18:-3 19:-2 20:-3 21:-3 22:-3 23:-3 24:-4 25:-3 26:-4 27:-4 28:-4 29:-2 30:0 31:0 32:-4 33:0 34:7 35:-4 36:-3 37:-3 38:1 39:3 40:-1 41:-1 42:-3 43:-2 44:-2 45:-3 46:-2 47:-1 48:-3 49:-3 50:-3 51:-3 52:-1 53:-3 54:-4 55:8 56:-1 57:-1 58:-4 59:-3 60:-3 61:-2 62:-2 63:-2 64:-1 65:-2 66:0 67:3 68:-3 69:-2 70:0 71:3 72:-1 73:1 74:-1 75:-3 76:-2 77:-1 78:-2 79:-2 80:0 81:-2 82:6 83:-1 84:-2 85:-4 86:1 87:0 88:-3 89:-1 90:-3 91:-3 92:2 93:-2 94:-3 95:-3 96:-1 97:-1 98:-3 99:-2 100:-3 101:-1 102:-2 103:-3 104:-4 105:-2 106:-1 107:-3 108:-3 109:-2 110:2 111:2 112:-2 113:6 114:0 115:-3 116:-2 117:-1 118:-2 119:-1 120:1 121:2 122:4 123:-1 124:-2 125:-2 126:0 127:-1 128:2 129:-1 130:-3 131:-3 132:0 133:-2 134:-3 135:-2 136:0 137:-1 138:-3 139:-2 140:-2 141:-2 142:-2 143:1 144:7 145:-4 146:-1 147:1 148:-2 149:-1 150:-4 151:-4 152:-1 153:-4 154:-4 155:-2 156:-1 157:-1 158:-5 159:-4 160:-4 161:-3 162:-3 163:-4 164:-5 165:-3 166:-2 167:-3 168:-3 169:-3 170:-3 171:-2 172:-3 173:-2 174:1 175:-4 176:-3 177:-3 178:12 179:2 180:-3 181:-2 182:-3 183:-4 184:-4 185:-2 186:-3 187:-3 188:-4 189:-3 190:1 191:5 192:-3 193:2 194:0 195:-3 196:-3 197:-2 198:-2 199:-1 200:1 201:-2 202:1 203:-1 204:-2 205:-3 206:0 207:0 208:-2 209:-1 210:-2 211:-1 212:4 213:-1 214:4 215:-2 216:-1 217:-1 218:-1 219:1 220:-2 221:-2 222:0 223:5 224:1 225:-3 226:4 227:0 228:-1 229:0 230:-4 231:-3 232:0 233:-2 234:-4 235:-2 236:0 237:-1 238:-3 239:-2 240:-3 241:0 242:-3 243:-3 244:-4 245:-1 246:-3 247:-3 248:-4 249:-4 250:2 251:1 252:-3 253:0 254:-1 255:-3 256:-2 257:0 258:-3 259:-2 260:5 #
0.0005867234987185139 1:3 2:-1 3:0 4:-1 5:-1 6:-1 7:-1 8:0 9:-1 10:-2 11:-2 12:-1 13:-2 14:-3 15:-1 16:4 17:1 18:-3 19:-2 20:-1 21:-2 22:-3 23:-4 24:-4 25:-2 26:-3 27:-3 28:-4 29:-2 30:0 31:2 32:-3 33:1 34:6 35:-4 36:-3 37:-2 38:0 39:2 40:0 41:-1 42:3 43:4 44:0 45:-3 46:0 47:-1 48:3 49:-1 50:-4 51:-3 52:0 53:-2 54:-3 55:-2 56:0 57:-1 58:-3 59:-3 60:-3 61:0 62:-3 63:-3 64:-4 65:-1 66:-3 67:-3 68:-4 69:-4 70:2 71:1 72:-3 73:0 74:-1 75:-3 76:-2 77:0 78:-3 79:-2 80:5 81:2 82:-2 83:-2 84:-2 85:-2 86:-2 87:-2 88:3 89:-2 90:-3 91:-3 92:-1 93:-2 94:-3 95:5 96:0 97:-1 98:-3 99:-3 100:-2 101:0 102:-1 103:0 104:-1 105:-2 106:-1 107:-1 108:-1 109:-2 110:-3 111:-3 112:-1 113:-2 114:-3 115:5 116:4 117:1 118:-3 119:-2 120:-2 121:-1 122:-1 123:5 124:1 125:-2 126:0 127:0 128:-1 129:0 130:-3 131:-3 132:0 133:-2 134:-3 135:-2 136:3 137:0 138:-4 139:-2 140:-3 141:-1 142:-2 143:-2 144:-2 145:-3 146:-2 147:-1 148:-3 149:-3 150:-3 151:-3 152:-1 153:-3 154:-4 155:8 156:-1 157:-1 158:-4 159:-3 160:-3 161:-2 162:-2 163:-2 164:-3 165:-3 166:-2 167:-2 168:-3 169:2 170:-2 171:-1 172:-2 173:-1 174:3 175:-3 176:-2 177:-2 178:2 179:7 180:-2 181:0 182:-1 183:0 184:-1 185:-1 186:-1 187:-1 188:-2 189:-2 190:-1 191:-2 192:-1 193:-1 194:-2 195:-1 196:1 197:5 198:-3 199:-2 200:0 201:-3 202:-3 203:-4 204:-5 205:-3 206:-2 207:-3 208:-3 209:-3 210:-3 211:-2 212:-3 213:-2 214:1 215:-4 216:-3 217:-3 218:11 219:2 220:-3 221:-2 222:-3 223:-4 224:-4 225:-2 226:-3 227:-3 228:-4 229:-2 230:0 231:2 232:-3 233:1 234:6 235:-4 236:-3 237:-2 238:0 239:2 240:0 241:0 242:-1 243:0 244:-1 245:-1 246:-1 247:-1 248:-2 249:-2 250:-1 251:-2 252:-1 253:-1 254:-2 255:-1 256:1 257:5 258:-3 259:-2 260:0 #
0.0005867234987185139 1:-1 2:-1 3:5 4:1 5:-4 6:0 7:3 8:2 9:0 10:-4 11:-4 12:0 13:-3 14:-4 15:-2 16:0 17:-1 18:-4 19:-3 20:-3 21:-2 22:-2 23:-3 24:-4 25:-3 26:-2 27:-3 28:-4 29:1 30:-2 31:-2 32:-2 33:-2 34:3 35:-4 36:-2 37:-2 38:2 39:8 40:-2 41:4 42:-2 43:-2 44:-3 45:-1 46:-2 47:-2 48:-1 49:-3 50:0 51:-1 52:-2 53:-1 54:-2 55:-2 56:0 57:-1 58:-3 59:-2 60:2 61:0 62:-3 63:-1 64:-2 65:-3 66:-2 67:-3 68:6 69:-3 70:-4 71:-4 72:-2 73:-3 74:-4 75:-3 76:-1 77:-2 78:-3 79:-4 80:-4 81:-2 82:-4 83:-4 84:-4 85:-2 86:-3 87:-4 88:-4 89:-4 90:5 91:1 92:-3 93:1 94:-1 95:-3 96:-3 97:-1 98:-3 99:-2 100:3 101:-2 102:-3 103:-4 104:-4 105:-3 106:-4 107:-4 108:-4 109:-2 110:0 111:0 112:-4 113:0 114:7 115:-4 116:-3 117:-2 118:0 119:2 120:2 121:-2 122:3 123:0 124:-2 125:-4 126:0 127:-1 128:-3 129:8 130:-4 131:-3 132:0 133:-2 134:-2 135:-3 136:-1 137:-2 138:-3 139:1 140:-4 141:-3 142:-3 143:-4 144:-4 145:-3 146:-4 147:-4 148:-4 149:-2 150:-1 151:0 152:-4 153:0 154:7 155:-4 156:-3 157:-3 158:0 159:3 160:-1 161:-1 162:3 163:-1 164:-1 165:-4 166:6 167:1 168:-2 169:0 170:-3 171:-3 172:1 173:-1 174:-4 175:-2 176:-1 177:-1 178:-3 179:-2 180:-3 181:-3 182:-3 183:-4 184:-4 185:-3 186:-4 187:-4 188:-4 189:-2 190:0 191:1 192:-4 193:0 194:7 195:-4 196:-3 197:-3 198:0 199:2 200:-1 201:-3 202:-3 203:-4 204:-5 205:-3 206:-3 207:-3 208:-3 209:-3 210:-3 211:-2 212:-4 213:-2 214:0 215:-4 216:-3 217:-3 218:12 219:2 220:-3 221:-2 222:5 223:-1 224:-1 225:-4 226:5 227:1 228:-3 229:0 230:-4 231:-3 232:1 233:-1 234:-4 235:-2 236:-1 237:-1 238:-3 239:-2 240:-3 241:-3 242:-3 243:-3 244:-4 245:-3 246:-3 247:-3 248:-4 249:0 250:-1 251:-1 252:-3 253:-1 254:5 255:-4 256:-3 257:-2 258:1 259:7 260:-2 #
0.00058191732205242904 1:-2 2:-2 3:-3 4:-4 5:-2 6:-2 7:-3 8:-4 9:-3 10:1 11:4 12:-2 13:5 14:0 15:-3 16:-2 17:-1 18:-2 19:-1 20:1 21:3 22:-2 23:-1 24:-1 25:-1 26:-1 27:-1 28:-1 29:-2 30:-2 31:-2 32:-1 33:-1 34:-3 35:-1 36:2 37:3 38:-3 39:-2 40:-1 41:-1 42:0 43:0 44:1 45:-4 46:4 47:5 48:-2 49:0 50:-4 51:-3 52:1 53:-2 54:-4 55:-2 56:0 57:-1 58:-3 59:-2 60:-3 61:-3 62:-3 63:-3 64:-4 65:-3 66:-4 67:-4 68:-4 69:-2 70:0 71:0 72:-4 73:0 74:7 75:-4 76:-3 77:-3 78:1 79:3 80:-1 81:-1 82:-3 83:-2 84:-2 85:-3 86:-2 87:-1 88:-3 89:-3 90:-3 91:-3 92:-1 93:-3 94:-4 95:8 96:-1 97:-1 98:-4 99:-3 100:-3 101:-2 102:-2 103:-2 104:-1 105:-2 106:0 107:3 108:-3 109:-2 110:0 111:3 112:-1 113:1 114:-1 115:-3 116:-2 117:-1 118:-2 119:-2 120:0 121:-2 122:6 123:-1 124:-2 125:-4 126:1 127:0 128:-3 129:-1 130:-3 131:-3 132:2 133:-2 134:-3 135:-3 136:-1 137:-1 138:-3 139:-2 140:-3 141:-1 142:-2 143:-3 144:-4 145:-2 146:-1 147:-3 148:-3 149:-2 150:2 151:2 152:-2 153:6 154:0 155:-3 156:-2 157:-1 158:-2 159:-1 160:1 161:2 162:4 163:-1 164:-2 165:-2 166:0 167:-1 168:2 169:-1 170:-3 171:-3 172:0 173:-2 174:-3 175:-2 176:0 177:-1 178:-3 179:-2 180:-2 181:-2 182:-2 183:1 184:7 185:-4 186:-1 187:1 188:-2 189:-1 190:-4 191:-4 192:-1 193:-4 194:-4 195:-2 196:-1 197:-1 198:-5 199:-4 200:-4 201:-3 202:-3 203:-4 204:-5 205:-3 206:-2 207:-3 208:-3 209:-3 210:-3 211:-2 212:-3 213:-2 214:1 215:-4 216:-3 217:-3 218:12 219:2 220:-3 221:-2 222:-3 223:-4 224:-4 225:-2 226:-3 227:-3 228:-4 229:-3 230:1 231:5 232:-3 233:2 234:0 235:-3 236:-3 237:-2 238:-2 239:-1 240:1 241:-2 242:1 243:-1 244:-2 245:-3 246:0 247:0 248:-2 249:-1 250:-2 251:-1 252:4 253:-1 254:4 255:-2 256:-1 257:-1 258:-1 259:1 260:-2 #
-0.0005867234987185139 2:-1 3:-2 4:-3 5:-4 6:-1 7:-2 8:-3 9:-4 10:-3 11:2 12:4 13:-2 14:2 15:0 16:-3 17:-2 18:-1 19:-2 20:-1 21:1 22:-3 23:-3 24:-4 25:-4 26:-2 27:-2 28:-3 29:-3 30:-2 31:-3 32:-2 33:-3 34:-1 35:1 36:-4 37:-3 38:-2 39:11 40:2 41:-3 42:-1 43:-2 44:-2 45:-1 46:-3 47:-1 48:-1 49:-2 50:-2 51:-3 52:-3 53:-1 54:-2 55:-4 56:7 57:-1 58:-1 59:-4 60:-3 61:-2 62:-1 63:5 64:0 65:-2 66:-3 67:1 68:0 69:-2 70:0 71:-3 72:-2 73:2 74:-1 75:-3 76:-2 77:-1 78:-1 79:-3 80:-2 81:-3 82:0 83:-3 84:-3 85:-3 86:9 87:-3 88:-4 89:-3 90:-3 91:-1 92:-1 93:-3 94:-1 95:-2 96:-3 97:-1 98:-1 99:-2 100:-2 101:-1 102:-1 103:-2 104:-2 105:-1 106:-3 107:-1 108:-1 109:-2 110:-2 111:-3 112:-3 113:-1 114:-2 115:-4 116:7 117:-1 118:-1 119:-4 120:-3 121:-2 122:0 123:-3 124:-3 125:-3 126:-1 127:-2 128:-2 129:-3 130:-3 131:3 132:1 133:-2 134:1 135:-1 136:-2 137:-2 138:0 139:-3 140:-1 141:4 142:-3 143:-3 144:-4 145:-4 146:-2 147:-2 148:-3 149:-3 150:-2 151:-3 152:-2 153:-3 154:-1 155:1 156:-4 157:-3 158:-2 159:11 160:2 161:-3 162:4 163:-1 164:-2 165:-2 166:0 167:-1 168:-1 169:0 170:-2 171:-1 172:-1 173:-1 174:-1 175:-2 176:-1 177:1 178:0 179:-3 180:-2 181:0 182:4 183:-1 184:-2 185:-2 186:0 187:-1 188:-1 189:0 190:-2 191:-1 192:-1 193:-1 194:-1 195:-2 196:-1 197:1 198:0 199:-3 200:-2 201:0 202:-1 203:5 204:0 205:-2 206:-3 207:1 208:0 209:-2 210:0 211:-3 212:-2 213:2 214:-1 215:-3 216:-2 217:-1 218:-1 219:-3 220:-2 221:-3 222:0 223:-3 224:-3 225:-3 226:-1 227:-2 228:-2 229:-3 230:-3 231:3 232:1 233:-2 234:1 235:-1 236:-2 237:-2 238:0 239:-3 240:-1 241:4 242:-2 243:-3 244:-3 245:-4 246:-2 247:-3 248:-3 249:-3 250:-1 251:0 252:0 253:-3 254:0 255:6 256:-4 257:-2 258:-2 259:1 260:3 261:-1 #
6.0896499632748295e-005 1:0 2:0 3:3 4:0 5:-1 6:0 7:0 8:2 9:0 10:-1 11:-1 12:0 13:-1 14:-1 15:0 16:0 17:0 18:-1 19:-1 20:-1 21:0 22:-1 23:-1 24:-1 25:-1 26:0 27:-1 28:-1 29:-1 30:0 31:0 32:-1 33:3 34:3 35:0 36:0 37:0 38:0 39:0 40:0 41:0 42:0 43:0 44:0 45:-1 46:0 47:0 48:-1 49:4 50:-1 51:-1 52:0 53:-1 54:-1 55:0 56:0 57:2 58:-1 59:0 60:-1 61:-1 62:-1 63:-1 64:-1 65:-1 66:0 67:0 68:-1 69:0 70:-1 71:-1 72:-1 73:-1 74:1 75:0 76:0 77:0 78:1 79:5 80:-1 81:0 82:-1 83:0 84:0 85:-1 86:0 87:0 88:4 89:-1 90:-1 91:-1 92:0 93:-1 94:-1 95:0 96:0 97:0 98:-1 99:-1 100:-1 101:2 102:0 103:0 104:0 105:-1 106:0 107:0 108:0 109:-1 110:-1 111:-1 112:0 113:0 114:-1 115:0 116:0 117:2 118:-1 119:-1 120:0 121:2 122:0 123:0 124:0 125:-1 126:0 127:0 128:0 129:-1 130:-1 131:-1 132:0 133:-1 134:-1 135:0 136:2 137:0 138:-1 139:-1 140:-1 141:0 142:-1 143:-1 144:0 145:-1 146:0 147:0 148:-1 149:-1 150:-1 151:-1 152:0 153:-1 154:-1 155:5 156:0 157:0 158:-1 159:-1 160:-1 161:0 162:2 163:0 164:0 165:-1 166:0 167:0 168:0 169:0 170:-1 171:-1 172:0 173:-1 174:-1 175:0 176:2 177:0 178:-1 179:-1 180:-1 181:0 182:0 183:0 184:0 185:-1 186:0 187:0 188:2 189:-1 190:-1 191:-1 192:0 193:-1 194:-1 195:0 196:2 197:0 198:-1 199:-1 200:-1 201:0 202:0 203:0 204:0 205:0 206:0 207:0 208:0 209:0 210:0 211:1 212:0 213:0 214:0 215:0 216:0 217:0 218:0 219:0 220:0 221:0 222:0 223:3 224:3 225:-1 226:0 227:0 228:0 229:0 230:-1 231:-1 232:0 233:-1 234:-1 235:0 236:0 237:0 238:-1 239:-1 240:-1 241:0 242:-1 243:-1 244:-1 245:-1 246:0 247:-1 248:-1 249:-1 250:2 251:0 252:-1 253:3 254:0 255:0 256:0 257:0 258:-1 259:-1 260:0 #
-0.0005867234987185139 2:-3 3:-3 4:-4 5:-4 6:-2 7:-2 8:-3 9:-3 10:-2 11:-3 12:-2 13:-3 14:-1 15:1 16:-4 17:-3 18:-2 19:11 20:2 21:-3 22:0 23:-1 24:0 25:-1 26:-1 27:-1 28:-1 29:-2 30:-2 31:-1 32:-1 33:-1 34:-1 35:-2 36:-1 37:1 38:5 39:-2 40:-2 41:0 42:-1 43:-2 44:-3 45:-4 46:-1 47:-2 48:-3 49:-4 50:-3 51:2 52:4 53:-2 54:2 55:0 56:-3 57:-2 58:-1 59:-2 60:-1 61:1 62:-1 63:0 64:0 65:2 66:-4 67:2 68:5 69:-2 70:0 71:-3 72:-3 73:1 74:-2 75:-3 76:-1 77:0 78:-1 79:-3 80:-2 81:-2 82:-3 83:-3 84:-4 85:-4 86:-2 87:-2 88:-3 89:-3 90:-2 91:-3 92:-2 93:-3 94:-1 95:1 96:-4 97:-3 98:-2 99:11 100:2 101:-3 102:4 103:-1 104:-2 105:-2 106:0 107:-1 108:-1 109:0 110:-2 111:-1 112:-1 113:-1 114:-1 115:-2 116:-1 117:1 118:0 119:-3 120:-2 121:0 122:-3 123:-3 124:-4 125:-4 126:-2 127:-2 128:-3 129:-3 130:-2 131:-3 132:-2 133:-3 134:-1 135:1 136:-4 137:-3 138:-2 139:11 140:2 141:-3 142:-3 143:-3 144:-4 145:-4 146:-2 147:-2 148:-3 149:-3 150:-2 151:-3 152:-2 153:-3 154:-1 155:1 156:-4 157:-3 158:-2 159:11 160:2 161:-3 162:0 163:-1 164:0 165:-1 166:-1 167:-1 168:-1 169:-2 170:-2 171:-1 172:-1 173:-1 174:-1 175:-2 176:-1 177:1 178:5 179:-2 180:-2 181:0 182:-1 183:-2 184:-2 185:-2 186:-3 187:-1 188:-1 189:-2 190:-2 191:-3 192:-3 193:-1 194:-3 195:-4 196:7 197:-1 198:-1 199:-4 200:-3 201:-2 202:-1 203:6 204:0 205:-2 206:-3 207:1 208:0 209:-2 210:0 211:-3 212:-2 213:2 214:-1 215:-3 216:-2 217:-1 218:-1 219:-3 220:-2 221:-3 222:-1 223:6 224:0 225:-2 226:-3 227:1 228:0 229:-2 230:0 231:-3 232:-2 233:2 234:-1 235:-3 236:-2 237:-1 238:-1 239:-3 240:-2 241:-3 242:-1 243:-2 244:-3 245:-4 246:-1 247:-2 248:-3 249:-4 250:-3 251:2 252:4 253:-2 254:2 255:0 256:-3 257:-2 258:-1 259:-2 260:-1 261:1 #
-0.0005867234987185139 2:-2 3:-2 4:-4 5:-4 6:-1 7:-2 8:-3 9:-4 10:-3 11:2 12:4 13:-3 14:2 15:0 16:-3 17:-3 18:-1 19:-2 20:-1 21:1 22:-1 23:1 24:0 25:0 26:-3 27:6 28:2 29:-2 30:0 31:-3 32:-2 33:1 34:0 35:-3 36:-1 37:0 38:-1 39:-2 40:-2 41:-2 42:-1 43:-3 44:-4 45:-3 46:-1 47:-3 48:-3 49:-4 50:-4 51:4 52:2 53:-3 54:1 55:0 56:-3 57:-3 58:-1 59:-3 60:-1 61:3 62:-2 63:-2 64:-4 65:-4 66:-1 67:-2 68:-3 69:-4 70:-3 71:2 72:4 73:-3 74:2 75:0 76:-3 77:-3 78:-1 79:-2 80:-1 81:1 82:-2 83:6 84:0 85:-2 86:-4 87:1 88:0 89:-3 90:0 91:-3 92:-2 93:2 94:-1 95:-3 96:-2 97:-1 98:-1 99:-3 100:-2 101:-3 102:-1 103:-3 104:-4 105:-3 106:-1 107:-3 108:-3 109:-4 110:-4 111:4 112:2 113:-3 114:1 115:0 116:-3 117:-3 118:-1 119:-3 120:-1 121:3 122:-3 123:-3 124:-4 125:-5 126:-3 127:-2 128:-3 129:-3 130:-3 131:-3 132:-2 133:-3 134:-2 135:1 136:-4 137:-3 138:-3 139:11 140:2 141:-3 142:1 143:-1 144:1 145:0 146:-1 147:0 148:0 149:0 150:-1 151:-3 152:-3 153:0 154:-2 155:-3 156:-1 157:4 158:2 159:-3 160:-2 161:-2 162:0 163:-4 164:-3 165:-4 166:9 167:-3 168:-4 169:-3 170:-3 171:-1 172:-1 173:-3 174:-2 175:-3 176:-3 177:-1 178:-1 179:-3 180:-3 181:-1 182:-1 183:-2 184:-2 185:-2 186:-3 187:-1 188:-1 189:-2 190:-2 191:-3 192:-3 193:-1 194:-3 195:-4 196:8 197:-1 198:-1 199:-4 200:-3 201:-3 202:-1 203:2 204:0 205:-1 206:-3 207:1 208:1 209:-2 210:-1 211:-3 212:-3 213:5 214:-1 215:-3 216:-1 217:0 218:-1 219:-3 220:-2 221:-2 222:-2 223:-2 224:-4 225:-4 226:-1 227:-2 228:-3 229:-4 230:-3 231:2 232:4 233:-3 234:2 235:0 236:-3 237:-3 238:-1 239:-2 240:-1 241:1 242:-1 243:-2 244:-2 245:-2 246:-3 247:-1 248:-1 249:-2 250:-2 251:-3 252:-3 253:-1 254:-3 255:-4 256:8 257:-1 258:-1 259:-4 260:-3 261:-3 #
-0.0005867234987185139 2:-1 3:-3 4:-3 5:-3 6:-1 7:-3 8:-3 9:-4 10:-3 11:4 12:2 13:-3 14:1 15:0 16:-3 17:-2 18:-1 19:-3 20:-1 21:3 22:4 23:-1 24:-2 25:-2 26:0 27:-1 28:-1 29:0 30:-2 31:-1 32:-1 33:-1 34:-1 35:-2 36:-1 37:1 38:0 39:-3 40:-2 41:0 42:-1 43:-2 44:-2 45:-1 46:-3 47:-1 48:-1 49:-2 50:-2 51:-3 52:-3 53:-1 54:-2 55:-4 56:7 57:-1 58:-1 59:-4 60:-3 61:-2 62:-1 63:2 64:0 65:-1 66:-3 67:1 68:1 69:-2 70:-1 71:-3 72:-2 73:5 74:-1 75:-3 76:-1 77:0 78:-1 79:-3 80:-2 81:-2 82:-3 83:-3 84:-4 85:-4 86:-2 87:-2 88:-3 89:-2 90:-2 91:-3 92:-2 93:-3 94:-1 95:1 96:-4 97:-3 98:-2 99:11 100:2 101:-3 102:0 103:-3 104:-3 105:-3 106:9 107:-3 108:-4 109:-3 110:-3 111:-1 112:-1 113:-3 114:-1 115:-2 116:-3 117:-1 118:-1 119:-2 120:-2 121:-1 122:-3 123:-3 124:-4 125:-4 126:-2 127:-2 128:-3 129:-2 130:-2 131:-3 132:-2 133:-3 134:-1 135:1 136:-4 137:-3 138:-2 139:11 140:2 141:-3 142:-1 143:-2 144:-3 145:-4 146:-1 147:-2 148:-3 149:-4 150:-3 151:2 152:4 153:-2 154:2 155:0 156:-3 157:-2 158:-1 159:-2 160:-1 161:1 162:-1 163:-2 164:-2 165:-1 166:-3 167:-1 168:-1 169:-2 170:-2 171:-3 172:-3 173:-1 174:-2 175:-4 176:7 177:-1 178:-1 179:-4 180:-3 181:-2 182:1 183:-1 184:1 185:0 186:-1 187:0 188:0 189:0 190:-1 191:-2 192:-2 193:0 194:-1 195:-2 196:-1 197:4 198:1 199:-3 200:-2 201:-2 202:-1 203:-2 204:-2 205:-1 206:-3 207:-1 208:-1 209:-2 210:-2 211:-3 212:-3 213:-1 214:-2 215:-4 216:7 217:-1 218:-1 219:-4 220:-3 221:-2 222:-1 223:1 224:0 225:0 226:-3 227:5 228:2 229:-2 230:0 231:-3 232:-2 233:1 234:0 235:-3 236:-1 237:0 238:-1 239:-2 240:-1 241:-2 242:0 243:-3 244:-3 245:-3 246:-1 247:-2 248:-2 249:-3 250:-3 251:3 252:1 253:-2 254:1 255:-1 256:-2 257:-2 258:0 259:-3 260:-1 261:4 #
0.0005867234987185139 1:4 2:-2 3:-2 4:-3 5:-1 6:-2 7:-2 8:-1 9:-3 10:0 11:-1 12:-2 13:-1 14:-2 15:-2 16:0 17:-1 18:-3 19:-2 20:2 21:0 22:-3 23:-1 24:-2 25:-3 26:-2 27:-3 28:6 29:-3 30:-4 31:-4 32:-2 33:-3 34:-4 35:-3 36:-1 37:-2 38:-3 39:-4 40:-4 41:-2 42:-4 43:-4 44:-4 45:-2 46:-3 47:-4 48:-4 49:-4 50:5 51:1 52:-3 53:1 54:-1 55:-3 56:-3 57:-1 58:-3 59:-2 60:3 61:-2 62:-3 63:-4 64:-4 65:-3 66:-4 67:-4 68:-4 69:-2 70:0 71:0 72:-4 73:0 74:7 75:-4 76:-3 77:-2 78:0 79:2 80:2 81:-2 82:3 83:0 84:-2 85:-4 86:0 87:-1 88:-3 89:8 90:-4 91:-3 92:0 93:-2 94:-2 95:-3 96:-1 97:-2 98:-3 99:1 100:-4 101:-3 102:-3 103:-4 104:-4 105:-3 106:-4 107:-4 108:-4 109:-2 110:-1 111:0 112:-4 113:0 114:7 115:-4 116:-3 117:-3 118:1 119:3 120:-1 121:-1 122:3 123:-1 124:-1 125:-4 126:6 127:1 128:-3 129:0 130:-4 131:-3 132:1 133:-1 134:-4 135:-2 136:-1 137:-1 138:-3 139:-2 140:-3 141:-3 142:-3 143:-4 144:-4 145:-3 146:-4 147:-4 148:-4 149:-2 150:0 151:1 152:-4 153:0 154:7 155:-4 156:-3 157:-3 158:0 159:2 160:-1 161:-3 162:-3 163:-4 164:-5 165:-3 166:-3 167:-4 168:-3 169:-3 170:-3 171:-2 172:-4 173:-2 174:1 175:-4 176:-3 177:-3 178:12 179:2 180:-4 181:-2 182:5 183:-1 184:-1 185:-4 186:5 187:1 188:-3 189:0 190:-4 191:-3 192:1 193:-1 194:-4 195:-2 196:-1 197:-1 198:-3 199:-2 200:-3 201:-3 202:-3 203:-3 204:-4 205:-3 206:-3 207:-3 208:-4 209:0 210:-1 211:-1 212:-3 213:-1 214:5 215:-4 216:-3 217:-2 218:1 219:7 220:-2 221:0 222:-3 223:-1 224:-2 225:-3 226:-2 227:-3 228:6 229:-3 230:-4 231:-4 232:-2 233:-3 234:-4 235:-3 236:-1 237:-2 238:-3 239:-4 240:-4 241:-2 242:-1 243:0 244:4 245:-4 246:1 247:4 248:-2 249:5 250:-4 251:-4 252:0 253:-3 254:-3 255:-2 256:-1 257:-2 258:-4 259:-1 260:-3 #
0.0005867234987185139 1:-2 2:2 3:-3 4:-3 5:-4 6:2 7:-2 8:4 9:0 10:-3 11:-4 12:4 13:-1 14:-5 15:1 16:-2 17:-3 18:-4 19:-4 20:-4 21:0 22:-1 23:0 24:3 25:-4 26:0 27:2 28:-1 29:-3 30:-2 31:-2 32:-1 33:-3 34:2 35:-3 36:1 37:1 38:-3 39:-1 40:-1 41:-2 42:-4 43:-4 44:-4 45:2 46:-4 47:-4 48:-1 49:-4 50:5 51:1 52:-4 53:2 54:1 55:-4 56:-3 57:-1 58:-4 59:-3 60:3 61:-2 62:-3 63:-1 64:-4 65:-3 66:-1 67:-4 68:-4 69:-1 70:1 71:4 72:-3 73:2 74:1 75:-2 76:0 77:0 78:-3 79:2 80:-1 81:1 82:3 83:1 84:-3 85:0 86:2 87:-2 88:-3 89:-3 90:-3 91:-3 92:2 93:-3 94:-4 95:-1 96:1 97:3 98:-4 99:-3 100:-2 101:1 102:1 103:4 104:0 105:0 106:0 107:0 108:-1 109:-3 110:-4 111:-3 112:2 113:-1 114:-1 115:-3 116:2 117:0 118:-4 119:-3 120:-3 121:-3 122:-3 123:-3 124:-3 125:-1 126:-3 127:2 128:-2 129:-3 130:-1 131:3 132:-3 133:3 134:4 135:1 136:-2 137:-1 138:-3 139:-2 140:1 141:-1 142:-3 143:-3 144:-2 145:-1 146:-3 147:-2 148:4 149:-3 150:0 151:2 152:-3 153:-2 154:1 155:-3 156:-2 157:-3 158:-3 159:-1 160:2 161:1 162:-1 163:-1 164:-2 165:-3 166:1 167:-2 168:2 169:-2 170:-2 171:0 172:1 173:0 174:-2 175:1 176:1 177:1 178:-3 179:-3 180:-1 181:-1 182:-1 183:2 184:1 185:-3 186:-2 187:0 188:-1 189:0 190:-2 191:-2 192:3 193:-3 194:-1 195:-2 196:1 197:2 198:-3 199:-3 200:-2 201:1 202:2 203:-3 204:-3 205:-3 206:-2 207:-3 208:1 209:1 210:1 211:1 212:-2 213:-2 214:0 215:3 216:-2 217:-2 218:-3 219:-3 220:1 221:-3 222:1 223:-1 224:-2 225:-3 226:2 227:-2 228:-2 229:-3 230:0 231:1 232:1 233:3 234:0 235:0 236:0 237:1 238:-4 239:-3 240:0 241:0 242:3 243:3 244:4 245:-4 246:0 247:1 248:-3 249:-2 250:-4 251:-4 252:1 253:-3 254:-4 255:-1 256:0 257:-2 258:-4 259:-4 260:-4 #
0.0005867234987185139 1:0 2:0 3:0 4:0 5:0 6:0 7:0 8:0 9:0 10:0 11:0 12:0 13:0 14:0 15:0 16:0 17:0 18:0 19:0 20:0 21:0 22:0 23:0 24:0 25:0 26:0 27:0 28:0 29:0 30:0 31:0 32:0 33:0 34:0 35:0 36:0 37:0 38:0 39:0 40:0 41:0 42:0 43:0 44:0 45:0 46:0 47:0 48:0 49:0 50:0 51:0 52:0 53:0 54:0 55:0 56:0 57:0 58:0 59:0 60:0 61:-1 62:-2 63:-2 64:-3 65:-2 66:-1 67:-2 68:-3 69:-2 70:1 71:2 72:-2 73:6 74:0 75:-3 76:-2 77:-1 78:-2 79:-1 80:1 81:5 82:-2 83:-2 84:-2 85:-1 86:-1 87:-1 88:0 89:-2 90:-2 91:-2 92:-1 93:-1 94:-3 95:-1 96:1 97:0 98:-3 99:-2 100:0 101:-2 102:-2 103:-2 104:-3 105:-3 106:-2 107:-2 108:-3 109:2 110:-2 111:-1 112:-2 113:-1 114:3 115:-3 116:-2 117:-2 118:2 119:7 120:-1 121:-1 122:-2 123:-2 124:-2 125:-3 126:-2 127:-1 128:-2 129:-2 130:-3 131:-3 132:-1 133:-3 134:-4 135:8 136:-1 137:-1 138:-4 139:-3 140:-3 141:0 142:-3 143:-1 144:-2 145:-3 146:-2 147:-2 148:6 149:-2 150:-4 151:-4 152:-2 153:-3 154:-3 155:-2 156:0 157:-2 158:-3 159:-3 160:-4 161:-2 162:-1 163:-1 164:-2 165:-3 166:0 167:-1 168:-3 169:7 170:-2 171:-2 172:-1 173:-1 174:2 175:-3 176:-1 177:-2 178:1 179:6 180:-2 181:0 182:-3 183:-1 184:-2 185:-3 186:-2 187:-2 188:4 189:-2 190:-4 191:-4 192:-1 193:-3 194:-4 195:6 196:-1 197:-2 198:-3 199:-3 200:-3 201:0 202:-3 203:-1 204:-2 205:-3 206:-2 207:-2 208:6 209:-2 210:-4 211:-4 212:-2 213:-3 214:-3 215:-2 216:0 217:-2 218:-3 219:-3 220:-4 221:3 222:-2 223:-1 224:-2 225:-1 226:-1 227:-2 228:4 229:-2 230:-3 231:-3 232:-1 233:-2 234:-3 235:-2 236:0 237:-1 238:-3 239:-3 240:-2 241:-1 242:-3 243:-2 244:-2 245:-3 246:-3 247:-3 248:4 249:-2 250:-2 251:-1 252:-2 253:-1 254:5 255:-3 256:-1 257:-2 258:0 259:1 260:-2 #
0.0005867234987185139 1:-2 2:-1 3:2 4:2 5:-4 6:3 7:3 8:-2 9:-1 10:-4 11:-4 12:0 13:-2 14:-4 15:4 16:-1 17:-1 18:-4 19:-3 20:-3 21:-1 22:-1 23:5 24:1 25:-4 26:0 27:3 28:2 29:0 30:-4 31:-4 32:0 33:-3 34:-4 35:-2 36:0 37:-1 38:-4 39:-3 40:-3 41:-2 42:-2 43:-3 44:-4 45:-3 46:-2 47:-3 48:-4 49:1 50:-2 51:-2 52:-2 53:-2 54:3 55:-4 56:-2 57:-2 58:2 59:8 60:-2 61:4 62:-2 63:-2 64:-3 65:-1 66:-2 67:-2 68:-1 69:-2 70:0 71:-1 72:-2 73:-1 74:-2 75:-2 76:0 77:-1 78:-3 79:-2 80:2 81:0 82:-3 83:-1 84:-2 85:-3 86:-2 87:-3 88:6 89:-3 90:-4 91:-4 92:-2 93:-3 94:-4 95:-3 96:-1 97:-2 98:-3 99:-4 100:-4 101:-2 102:-4 103:-4 104:-4 105:-2 106:-3 107:-4 108:-4 109:-4 110:5 111:1 112:-3 113:1 114:-1 115:-3 116:-3 117:-1 118:-3 119:-2 120:3 121:-2 122:-3 123:-4 124:-4 125:-3 126:-4 127:-4 128:-4 129:-2 130:0 131:0 132:-4 133:0 134:7 135:-4 136:-3 137:-2 138:0 139:2 140:2 141:-2 142:3 143:0 144:-2 145:-4 146:0 147:-1 148:-3 149:8 150:-4 151:-3 152:0 153:-2 154:-2 155:-3 156:-1 157:-2 158:-3 159:1 160:-4 161:-3 162:-3 163:-4 164:-4 165:-3 166:-4 167:-4 168:-4 169:-2 170:-1 171:0 172:-4 173:0 174:7 175:-4 176:-3 177:-3 178:1 179:3 180:-1 181:-1 182:3 183:-1 184:-1 185:-4 186:6 187:1 188:-2 189:0 190:-3 191:-3 192:1 193:-1 194:-4 195:-2 196:-1 197:-1 198:-3 199:-2 200:-3 201:-3 202:-3 203:-4 204:-4 205:-3 206:-4 207:-4 208:-4 209:-2 210:0 211:1 212:-4 213:0 214:7 215:-4 216:-3 217:-3 218:0 219:2 220:-1 221:-3 222:-3 223:-4 224:-5 225:-3 226:-3 227:-3 228:-3 229:-3 230:-3 231:-2 232:-4 233:-2 234:1 235:-4 236:-3 237:-3 238:12 239:2 240:-3 241:-2 242:5 243:-1 244:-1 245:-4 246:5 247:1 248:-3 249:0 250:-4 251:-3 252:1 253:-1 254:-4 255:-2 256:-1 257:-1 258:-3 259:-2 260:-3 #
0.0005867234987185139 1:-1 2:-1 3:2 4:2 5:-4 6:2 7:3 8:3 9:-1 10:-4 11:-4 12:0 13:-3 14:-4 15:-2 16:-1 17:-1 18:-4 19:-3 20:-3 21:-1 22:-1 23:5 24:0 25:-3 26:-1 27:1 28:2 29:-1 30:-4 31:-4 32:-1 33:-3 34:-4 35:4 36:0 37:-1 38:-4 39:-3 40:-3 41:-2 42:-2 43:-3 44:-4 45:-3 46:-2 47:-3 48:-4 49:1 50:-2 51:-2 52:-2 53:-2 54:3 55:-4 56:-2 57:-2 58:2 59:8 60:-2 61:4 62:-2 63:-2 64:-3 65:-1 66:-2 67:-2 68:-1 69:-3 70:0 71:-1 72:-2 73:-1 74:-2 75:-2 76:0 77:-1 78:-3 79:-2 80:2 81:0 82:-3 83:-1 84:-2 85:-3 86:-2 87:-3 88:6 89:-3 90:-4 91:-4 92:-2 93:-3 94:-4 95:-3 96:-1 97:-2 98:-3 99:-4 100:-4 101:-2 102:-4 103:-4 104:-4 105:-2 106:-3 107:-4 108:-4 109:-4 110:5 111:1 112:-3 113:1 114:-1 115:-3 116:-3 117:-1 118:-3 119:-2 120:3 121:-2 122:-3 123:-4 124:-4 125:-3 126:-4 127:-4 128:-4 129:-2 130:0 131:0 132:-4 133:0 134:7 135:-4 136:-3 137:-2 138:0 139:2 140:2 141:-2 142:3 143:0 144:-2 145:-4 146:0 147:-1 148:-3 149:8 150:-4 151:-3 152:0 153:-2 154:-2 155:-3 156:-1 157:-2 158:-3 159:1 160:-4 161:-3 162:-3 163:-4 164:-4 165:-3 166:-4 167:-4 168:-4 169:-2 170:-1 171:0 172:-4 173:0 174:7 175:-4 176:-3 177:-3 178:1 179:3 180:-1 181:-1 182:3 183:-1 184:-1 185:-4 186:6 187:1 188:-3 189:0 190:-4 191:-3 192:1 193:-1 194:-4 195:-2 196:-1 197:-1 198:-3 199:-2 200:-3 201:-3 202:-3 203:-4 204:-4 205:-3 206:-4 207:-4 208:-4 209:-2 210:0 211:1 212:-4 213:0 214:7 215:-4 216:-3 217:-3 218:0 219:2 220:-1 221:-3 222:-3 223:-4 224:-5 225:-3 226:-3 227:-4 228:-3 229:-3 230:-3 231:-2 232:-4 233:-2 234:1 235:-4 236:-3 237:-3 238:12 239:2 240:-4 241:-2 242:5 243:-1 244:-1 245:-4 246:5 247:1 248:-3 249:0 250:-4 251:-3 252:1 253:-1 254:-4 255:-2 256:-1 257:-1 258:-3 259:-2 260:-3 #
-0.0005867234987185139 2:0 3:-3 4:0 5:-2 6:-3 7:-2 8:-2 9:6 10:-2 11:-4 12:-4 13:-2 14:-3 15:-4 16:-2 17:0 18:-2 19:-3 20:-3 21:-4 22:0 23:-4 24:-3 25:-4 26:10 27:-3 28:-4 29:-3 30:-3 31:-1 32:-1 33:-3 34:-2 35:-3 36:-3 37:-1 38:-1 39:-3 40:-3 41:-1 42:-2 43:-2 44:-4 45:-4 46:-1 47:-2 48:-3 49:-4 50:-3 51:2 52:4 53:-3 54:2 55:0 56:-3 57:-3 58:-1 59:-2 60:-1 61:1 62:-3 63:-3 64:-3 65:-4 66:-3 67:-4 68:-4 69:-4 70:-1 71:0 72:0 73:-4 74:0 75:7 76:-4 77:-3 78:-2 79:1 80:3 81:-1 82:0 83:-4 84:-3 85:-4 86:10 87:-3 88:-4 89:-3 90:-3 91:-1 92:-1 93:-3 94:-2 95:-3 96:-3 97:-1 98:-1 99:-3 100:-3 101:-1 102:-1 103:-2 104:-2 105:-4 106:-2 107:0 108:-2 109:-3 110:-2 111:1 112:2 113:-2 114:6 115:0 116:-3 117:-2 118:-1 119:-2 120:-1 121:1 122:-2 123:-2 124:-4 125:-4 126:-1 127:-2 128:-3 129:-4 130:-3 131:2 132:4 133:-3 134:2 135:0 136:-3 137:-3 138:-1 139:-2 140:-1 141:1 142:-2 143:6 144:-1 145:-2 146:-4 147:1 148:0 149:-3 150:0 151:-3 152:-2 153:2 154:-2 155:-3 156:-2 157:-1 158:-1 159:-3 160:-2 161:-3 162:1 163:-1 164:1 165:0 166:-1 167:0 168:0 169:0 170:-1 171:-3 172:-3 173:0 174:-2 175:-3 176:-1 177:4 178:2 179:-3 180:-2 181:-2 182:-2 183:-2 184:-4 185:-4 186:-1 187:-2 188:-3 189:-4 190:-3 191:2 192:4 193:-3 194:2 195:0 196:-3 197:-3 198:-1 199:-2 200:-1 201:1 202:0 203:-4 204:-3 205:-4 206:10 207:-3 208:-4 209:-3 210:-3 211:-1 212:-1 213:-3 214:-2 215:-3 216:-3 217:-1 218:-1 219:-3 220:-3 221:-1 222:5 223:-2 224:-2 225:-2 226:0 227:-1 228:-1 229:0 230:-2 231:-2 232:-2 233:-1 234:-1 235:-3 236:-1 237:1 238:0 239:-3 240:-2 241:0 242:0 243:-3 244:-3 245:-4 246:-1 247:-3 248:-3 249:-4 250:-4 251:3 252:1 253:-3 254:1 255:-1 256:-3 257:-2 258:0 259:-3 260:-1 261:4 #
-0.0005867234987185139 2:-1 3:-2 4:-2 5:-1 6:-3 7:-1 8:-1 9:-2 10:-2 11:-3 12:-3 13:-1 14:-2 15:-4 16:7 17:-1 18:-1 19:-4 20:-3 21:-2 22:-2 23:-2 24:1 25:6 26:-3 27:0 28:2 29:-1 30:-1 31:-3 32:-4 33:-1 34:-3 35:-4 36:-1 37:0 38:-1 39:-4 40:-3 41:-3 42:-1 43:-3 44:-3 45:-3 46:-1 47:-3 48:-3 49:-4 50:-3 51:4 52:2 53:-3 54:1 55:0 56:-3 57:-2 58:-1 59:-3 60:-1 61:3 62:-1 63:-2 64:-3 65:-4 66:-1 67:-2 68:-3 69:-4 70:-3 71:2 72:4 73:-2 74:2 75:0 76:-3 77:-2 78:-1 79:-2 80:-1 81:1 82:-2 83:0 84:6 85:1 86:-3 87:0 88:0 89:0 90:1 91:-3 92:-3 93:0 94:-2 95:-3 96:-2 97:1 98:0 99:-4 100:-2 101:-3 102:-3 103:-3 104:-4 105:-4 106:-2 107:-2 108:-3 109:-3 110:-2 111:-3 112:-2 113:-3 114:-1 115:1 116:-4 117:-3 118:-2 119:11 120:2 121:-3 122:-2 123:-3 124:-3 125:-4 126:-2 127:-3 128:-3 129:-3 130:-1 131:0 132:0 133:-3 134:0 135:6 136:-4 137:-2 138:-2 139:1 140:3 141:-1 142:0 143:-2 144:0 145:-1 146:-3 147:-2 148:-2 149:6 150:-2 151:-4 152:-4 153:-2 154:-3 155:-3 156:-2 157:0 158:-2 159:-3 160:-3 161:-3 162:-3 163:-3 164:-4 165:-4 166:-2 167:-2 168:-3 169:-3 170:-2 171:-3 172:-2 173:-3 174:-1 175:1 176:-4 177:-3 178:-2 179:11 180:2 181:-3 182:0 183:-3 184:-3 185:-3 186:9 187:-3 188:-4 189:-3 190:-3 191:-1 192:-1 193:-3 194:-1 195:-2 196:-3 197:-1 198:-1 199:-2 200:-2 201:-1 202:0 203:-1 204:0 205:-1 206:-1 207:-1 208:-1 209:-2 210:-2 211:-1 212:-1 213:-1 214:-1 215:-2 216:-1 217:1 218:5 219:-2 220:-2 221:0 222:-3 223:-3 224:-4 225:-4 226:-2 227:-2 228:-3 229:-3 230:-2 231:-3 232:-2 233:-3 234:-1 235:1 236:-4 237:-3 238:-2 239:11 240:2 241:-3 242:-2 243:-2 244:1 245:6 246:-3 247:0 248:2 249:-1 250:-1 251:-3 252:-4 253:-1 254:-3 255:-4 256:-1 257:0 258:-1 259:-4 260:-3 261:-3 #
-0.00030441938488103053 2:-1 3:1 4:0 5:0 6:-3 7:6 8:2 9:-2 10:0 11:-3 12:-2 13:1 14:0 15:-3 16:-1 17:0 18:-1 19:-2 20:-2 21:-2 22:-2 23:-2 24:1 25:6 26:-4 27:0 28:2 29:-1 30:-1 31:-3 32:-4 33:-1 34:-3 35:-4 36:-2 37:0 38:-1 39:-5 40:-3 41:-3 42:-3 43:-3 44:-4 45:-5 46:-3 47:-2 48:-3 49:-3 50:-3 51:-3 52:-2 53:-3 54:-2 55:1 56:-4 57:-3 58:-3 59:11 60:2 61:-3 62:-3 63:-3 64:-4 65:-5 66:-3 67:-2 68:-3 69:-3 70:-3 71:-3 72:-2 73:-3 74:-2 75:1 76:-4 77:-3 78:-3 79:11 80:2 81:-3 82:0 83:-3 84:0 85:-1 86:-3 87:-2 88:-2 89:6 90:-2 91:-4 92:-4 93:-2 94:-3 95:-3 96:-2 97:0 98:-2 99:-3 100:-3 101:-3 102:-1 103:2 104:0 105:-1 106:-3 107:1 108:1 109:-2 110:-1 111:-3 112:-3 113:5 114:-1 115:-3 116:-1 117:0 118:-1 119:-3 120:-2 121:-2 122:-2 123:-2 124:-4 125:-4 126:-1 127:-2 128:-3 129:-4 130:-3 131:2 132:4 133:-3 134:2 135:0 136:-3 137:-3 138:-1 139:-2 140:-1 141:1 142:0 143:-4 144:-3 145:-4 146:9 147:-3 148:-4 149:-3 150:-3 151:-1 152:-1 153:-3 154:-2 155:-3 156:-3 157:-1 158:-1 159:-3 160:-3 161:-1 162:1 163:-1 164:1 165:0 166:-1 167:0 168:0 169:0 170:-1 171:-3 172:-3 173:0 174:-2 175:-3 176:-1 177:4 178:2 179:-3 180:-2 181:-2 182:4 183:-2 184:-2 185:-2 186:0 187:-1 188:-1 189:0 190:-2 191:-1 192:-2 193:-1 194:-1 195:-2 196:-1 197:1 198:0 199:-3 200:-2 201:0 202:-1 203:-3 204:-3 205:-3 206:-1 207:-3 208:-3 209:-4 210:-4 211:4 212:2 213:-3 214:1 215:0 216:-3 217:-3 218:-1 219:-3 220:-1 221:3 222:-1 223:1 224:0 225:0 226:-3 227:6 228:2 229:-2 230:0 231:-3 232:-2 233:1 234:0 235:-3 236:-1 237:0 238:-1 239:-2 240:-2 241:-2 242:-1 243:2 244:0 245:-1 246:-3 247:1 248:1 249:-2 250:-1 251:-3 252:-3 253:5 254:-1 255:-3 256:-1 257:0 258:-1 259:-3 260:-2 261:-2 #
-0.0005867234987185139 2:-2 3:-1 4:6 5:1 6:-3 7:0 8:0 9:0 10:1 11:-4 12:-4 13:0 14:-2 15:-3 16:-2 17:1 18:0 19:-4 20:-2 21:-3 22:-2 23:0 24:1 25:-1 26:-3 27:1 28:0 29:-2 30:9 31:-4 32:-3 33:-1 34:-2 35:-1 36:-2 37:-1 38:-2 39:-3 40:2 41:-4 42:-3 43:-3 44:-4 45:-5 46:-3 47:-2 48:-3 49:-3 50:-3 51:-3 52:-2 53:-3 54:-2 55:1 56:-4 57:-3 58:-3 59:12 60:2 61:-3 62:-2 63:-3 64:-4 65:-4 66:-1 67:-3 68:-4 69:-4 70:-4 71:5 72:2 73:-3 74:1 75:0 76:-3 77:-3 78:-1 79:-3 80:-2 81:3 82:-2 83:-2 84:-2 85:-4 86:-3 87:-2 88:-2 89:-3 90:2 91:-2 92:-1 93:-2 94:-1 95:3 96:-3 97:-2 98:-2 99:2 100:8 101:-1 102:-3 103:-3 104:-4 105:-5 106:-3 107:-2 108:-3 109:-3 110:-3 111:-3 112:-2 113:-3 114:-2 115:1 116:-4 117:-3 118:-3 119:12 120:2 121:-3 122:0 123:-3 124:-3 125:-4 126:-1 127:-3 128:-3 129:-4 130:-4 131:3 132:1 133:-3 134:1 135:-1 136:-3 137:-2 138:0 139:-3 140:-1 141:4 142:0 143:-3 144:0 145:-2 146:-3 147:-2 148:-2 149:6 150:-2 151:-4 152:-4 153:-2 154:-3 155:-4 156:-2 157:0 158:-2 159:-3 160:-3 161:-4 162:-1 163:-2 164:-2 165:-2 166:-3 167:-1 168:-1 169:-2 170:-2 171:-3 172:-3 173:-1 174:-3 175:-4 176:8 177:-1 178:-1 179:-4 180:-3 181:-3 182:-2 183:-2 184:-4 185:-4 186:-1 187:-2 188:-3 189:-4 190:-3 191:2 192:4 193:-3 194:2 195:0 196:-3 197:-3 198:-1 199:-2 200:-1 201:1 202:-2 203:-3 204:-4 205:-4 206:-1 207:-3 208:-4 209:-4 210:-4 211:5 212:2 213:-3 214:1 215:0 216:-3 217:-3 218:-1 219:-3 220:-2 221:3 222:0 223:-3 224:0 225:-2 226:-3 227:-2 228:-2 229:6 230:-2 231:-4 232:-4 233:-2 234:-3 235:-4 236:-2 237:0 238:-2 239:-3 240:-3 241:-4 242:0 243:-3 244:0 245:-2 246:-3 247:-2 248:-2 249:6 250:-2 251:-4 252:-4 253:-2 254:-3 255:-4 256:-2 257:0 258:-2 259:-3 260:-3 261:-4 #
0.00011314099651448136 1:3 2:-2 3:-1 4:4 5:-3 6:-1 7:4 8:-2 9:-2 10:-4 11:-4 12:-1 13:-3 14:-4 15:-2 16:-1 17:-2 18:-5 19:-4 20:-3 21:0 22:-1 23:0 24:2 25:-3 26:-1 27:-1 28:-2 29:-2 30:-4 31:-4 32:3 33:-3 34:-4 35:-2 36:5 37:0 38:-4 39:-3 40:-3 41:2 42:0 43:1 44:-2 45:3 46:-1 47:-1 48:-2 49:-2 50:-3 51:-3 52:4 53:-2 54:-4 55:2 56:-1 57:1 58:-4 59:-3 60:-2 61:2 62:-2 63:5 64:-1 65:-3 66:-1 67:-2 68:2 69:-1 70:-3 71:-3 72:-1 73:-3 74:-4 75:-2 76:1 77:2 78:-4 79:-3 80:-3 81:2 82:-1 83:3 84:4 85:-3 86:-1 87:0 88:-2 89:-2 90:-4 91:-4 92:2 93:-3 94:-4 95:-2 96:-1 97:-1 98:-4 99:-3 100:-3 101:-1 102:-3 103:-3 104:-4 105:5 106:-3 107:-3 108:-4 109:-4 110:3 111:0 112:-3 113:-1 114:-2 115:-3 116:-2 117:2 118:-4 119:-2 120:4 121:-3 122:-3 123:-4 124:-4 125:-3 126:-3 127:-3 128:-4 129:-1 130:0 131:2 132:-3 133:0 134:6 135:-4 136:-3 137:-2 138:0 139:5 140:-1 141:-3 142:-3 143:-4 144:-4 145:-3 146:-3 147:-3 148:-4 149:-2 150:-1 151:0 152:-3 153:4 154:5 155:-4 156:-3 157:-2 158:8 159:2 160:-1 161:0 162:-3 163:-1 164:-2 165:-3 166:-2 167:-3 168:6 169:-3 170:-5 171:-4 172:-2 173:-3 174:-4 175:-3 176:-1 177:-2 178:-3 179:-4 180:-4 181:-1 182:-3 183:-3 184:-2 185:-3 186:-2 187:-2 188:-3 189:-3 190:-3 191:-3 192:-1 193:-3 194:-4 195:8 196:-1 197:-2 198:-4 199:-4 200:-3 201:-2 202:-3 203:-4 204:-4 205:-2 206:-3 207:-3 208:-4 209:-3 210:1 211:5 212:-3 213:2 214:0 215:-3 216:-3 217:-2 218:-2 219:-2 220:0 221:0 222:-3 223:-3 224:-3 225:-1 226:-2 227:-3 228:-3 229:-3 230:3 231:1 232:-2 233:1 234:-1 235:-3 236:-2 237:0 238:-3 239:-1 240:4 241:0 242:0 243:0 244:0 245:0 246:0 247:0 248:0 249:0 250:0 251:0 252:0 253:0 254:0 255:0 256:0 257:0 258:0 259:0 260:0 #
0.0005867234987185139 1:-3 2:-3 3:-4 4:-5 5:-3 6:-3 7:-4 8:-3 9:-3 10:-2 11:1 12:-4 13:-1 14:0 15:-4 16:-3 17:-3 18:11 19:1 20:-2 21:-1 22:-1 23:3 24:3 25:-2 26:-1 27:0 28:-2 29:-1 30:-3 31:-3 32:1 33:-2 34:-3 35:-2 36:2 37:3 38:-4 39:-3 40:-2 41:-1 42:-2 43:-2 44:-2 45:-2 46:-1 47:2 48:-3 49:-2 50:1 51:2 52:-2 53:0 54:-1 55:-3 56:-1 57:2 58:-3 59:-2 60:2 61:2 62:-2 63:-1 64:-2 65:-1 66:-1 67:-1 68:-1 69:-2 70:-1 71:0 72:-1 73:-1 74:-2 75:-2 76:3 77:3 78:-3 79:-2 80:-1 81:-1 82:-1 83:-3 84:-3 85:-2 86:-1 87:-2 88:-3 89:-3 90:3 91:1 92:2 93:0 94:-1 95:-3 96:-2 97:-1 98:-3 99:-2 100:3 101:-2 102:-2 103:3 104:-2 105:-3 106:-2 107:-2 108:-3 109:-1 110:-1 111:1 112:-2 113:3 114:4 115:-3 116:-1 117:-1 118:-1 119:3 120:-1 121:-1 122:-1 123:0 124:4 125:-3 126:1 127:4 128:-2 129:-1 130:-4 131:-4 132:0 133:-3 134:-4 135:-2 136:2 137:-1 138:-4 139:-3 140:-3 141:0 142:-3 143:-1 144:-2 145:-3 146:-2 147:-3 148:6 149:-3 150:-4 151:-4 152:-2 153:-3 154:-4 155:-3 156:-1 157:-2 158:-3 159:-4 160:-4 161:-2 162:4 163:4 164:-1 165:-3 166:3 167:0 168:-2 169:0 170:-3 171:-3 172:1 173:-2 174:-3 175:-2 176:0 177:2 178:-3 179:-2 180:-3 181:-3 182:-3 183:-4 184:-5 185:-3 186:-3 187:-4 188:-3 189:-3 190:-3 191:-2 192:-4 193:-2 194:1 195:-4 196:-3 197:-3 198:12 199:2 200:-4 201:-1 202:5 203:-1 204:-2 205:-3 206:3 207:0 208:-3 209:-1 210:0 211:-1 212:1 213:-1 214:-3 215:-3 216:-1 217:-1 218:-3 219:-2 220:2 221:-2 222:7 223:-1 224:-2 225:-4 226:1 227:-1 228:-3 229:-1 230:-4 231:-3 232:2 233:-2 234:-3 235:-3 236:-1 237:-2 238:-3 239:-2 240:-3 241:-1 242:-2 243:3 244:-1 245:-3 246:-2 247:-2 248:6 249:-2 250:-4 251:-4 252:-2 253:-3 254:-4 255:-3 256:-1 257:-2 258:-3 259:-3 260:-4 #
0.0005867234987185139 1:-2 2:-3 3:-4 4:-4 5:-2 6:-3 7:-4 8:-4 9:-2 10:1 11:3 12:-3 13:1 14:5 15:-4 16:-3 17:-2 18:-1 19:1 20:0 21:-3 22:-3 23:-4 24:-4 25:-3 26:-3 27:-4 28:-3 29:-2 30:-1 31:-1 32:-4 33:-1 34:6 35:-4 36:-3 37:-3 38:9 39:2 40:-2 41:0 42:-3 43:-1 44:-2 45:-3 46:-2 47:-3 48:6 49:-3 50:-4 51:-4 52:-2 53:-3 54:-4 55:-3 56:-1 57:-2 58:-3 59:-4 60:-4 61:-1 62:-3 63:-2 64:-2 65:-3 66:-2 67:-2 68:-3 69:-3 70:-3 71:-3 72:-1 73:-3 74:-4 75:8 76:-1 77:-2 78:-4 79:-3 80:-3 81:-2 82:-3 83:-4 84:-4 85:-2 86:-3 87:-3 88:-4 89:-3 90:1 91:5 92:-3 93:2 94:0 95:-3 96:-3 97:-2 98:-2 99:-1 100:0 101:-1 102:2 103:0 104:-1 105:-3 106:1 107:1 108:-2 109:-1 110:-3 111:-3 112:5 113:-2 114:-3 115:-1 116:0 117:-1 118:-3 119:-2 120:-2 121:-1 122:-1 123:-1 124:1 125:-3 126:1 127:4 128:-3 129:-1 130:0 131:-1 132:0 133:-1 134:-2 135:-2 136:-1 137:-1 138:-3 139:-2 140:2 141:0 142:-3 143:-3 144:-3 145:-1 146:-2 147:-3 148:-3 149:-3 150:3 151:1 152:-2 153:1 154:-1 155:-3 156:-2 157:0 158:-3 159:-1 160:4 161:-1 162:1 163:0 164:0 165:-3 166:6 167:2 168:-2 169:0 170:-3 171:-2 172:1 173:-1 174:-3 175:-1 176:0 177:-1 178:-2 179:-2 180:-2 181:0 182:0 183:0 184:0 185:0 186:0 187:0 188:0 189:0 190:0 191:0 192:0 193:0 194:0 195:0 196:0 197:0 198:0 199:0 200:0 201:0 202:0 203:0 204:0 205:0 206:0 207:0 208:0 209:0 210:0 211:0 212:0 213:0 214:0 215:0 216:0 217:0 218:0 219:0 220:0 221:0 222:0 223:0 224:0 225:0 226:0 227:0 228:0 229:0 230:0 231:0 232:0 233:0 234:0 235:0 236:0 237:0 238:0 239:0 240:0 241:0 242:0 243:0 244:0 245:0 246:0 247:0 248:0 249:0 250:0 251:0 252:0 253:0 254:0 255:0 256:0 257:0 258:0 259:0 260:0 #
0.0005867234987185139 1:-2 2:-1 3:-3 4:-3 5:-2 6:-1 7:-2 8:-3 9:-3 10:0 11:4 12:2 13:1 14:-1 15:-3 16:-2 17:-2 18:-3 19:-2 20:0 21:-1 22:-3 23:-2 24:-2 25:-3 26:-2 27:-3 28:4 29:-3 30:-1 31:-2 32:-2 33:-2 34:2 35:4 36:-1 37:-2 38:-2 39:-1 40:0 41:-2 42:-3 43:-1 44:3 45:-4 46:-2 47:-1 48:-3 49:-2 50:-3 51:-4 52:-1 53:-3 54:-4 55:7 56:-1 57:-2 58:-4 59:-4 60:-3 61:-2 62:-2 63:3 64:-2 65:-3 66:-2 67:-2 68:-3 69:-1 70:2 71:0 72:-2 73:-1 74:4 75:-3 76:-2 77:-1 78:-1 79:3 80:0 81:0 82:3 83:0 84:-1 85:-2 86:2 87:0 88:-2 89:-1 90:-3 91:-3 92:2 93:-2 94:-3 95:-2 96:3 97:0 98:-3 99:-2 100:-3 101:0 102:-1 103:0 104:0 105:-2 106:0 107:3 108:-1 109:0 110:-2 111:-2 112:0 113:-1 114:-1 115:-1 116:2 117:0 118:-1 119:3 120:-2 121:-1 122:4 123:0 124:-1 125:-2 126:1 127:0 128:-1 129:-1 130:-2 131:-2 132:4 133:-1 134:-2 135:-1 136:-1 137:-1 138:-2 139:-1 140:-2 141:0 142:-1 143:0 144:-1 145:-1 146:0 147:0 148:-1 149:-1 150:-1 151:-1 152:0 153:-1 154:-1 155:0 156:1 157:4 158:-1 159:-1 160:0 161:-1 162:2 163:0 164:-1 165:-1 166:0 167:0 168:-1 169:0 170:-1 171:-1 172:2 173:-1 174:0 175:-1 176:0 177:-1 178:0 179:3 180:-1 181:0 182:-1 183:0 184:-1 185:-1 186:-1 187:-1 188:4 189:-1 190:-2 191:-1 192:-1 193:-1 194:-1 195:-1 196:0 197:-1 198:-1 199:-1 200:-1 201:-2 202:-3 203:-4 204:-4 205:-2 206:-3 207:-4 208:-4 209:-3 210:4 211:1 212:-3 213:0 214:4 215:-4 216:-3 217:-1 218:-2 219:0 220:2 221:-1 222:-1 223:-1 224:0 225:-3 226:1 227:4 228:-3 229:-1 230:-1 231:-2 232:2 233:-1 234:-3 235:-2 236:-1 237:-1 238:-4 239:-2 240:2 241:-3 242:-3 243:-4 244:-5 245:-3 246:-3 247:-3 248:-3 249:-3 250:-3 251:-2 252:-4 253:-2 254:1 255:-4 256:-3 257:-3 258:12 259:2 260:-3 #
0.0005867234987185139 1:-2 2:3 3:-2 4:-3 5:-3 6:0 7:-1 8:-3 9:-2 10:-1 11:3 12:3 13:0 14:-1 15:-3 16:-2 17:-2 18:-3 19:-2 20:-1 21:-1 22:-2 23:-1 24:-2 25:-2 26:-2 27:-2 28:4 29:-2 30:-1 31:-1 32:-2 33:-1 34:2 35:-2 36:-1 37:-1 38:-1 39:-1 40:1 41:-1 42:-2 43:-2 44:-1 45:-2 46:-1 47:-1 48:-2 49:-2 50:-2 51:-2 52:-1 53:-2 54:-3 55:7 56:-1 57:-1 58:-3 59:-2 60:-2 61:-1 62:-1 63:4 64:-1 65:-2 66:-1 67:-1 68:-2 69:0 70:2 71:-1 72:-1 73:-1 74:0 75:-2 76:-1 77:-1 78:-1 79:3 80:0 81:0 82:0 83:0 84:-1 85:-2 86:2 87:0 88:-1 89:-1 90:-2 91:-2 92:2 93:-1 94:-2 95:-1 96:3 97:0 98:-2 99:-2 100:-2 101:-1 102:-1 103:-1 104:-2 105:-2 106:-1 107:-1 108:-1 109:-1 110:-1 111:-1 112:-1 113:-1 114:4 115:-2 116:2 117:0 118:0 119:3 120:-1 121:0 122:1 123:0 124:0 125:-1 126:1 127:0 128:-1 129:-1 130:-1 131:-1 132:4 133:-1 134:-1 135:0 136:0 137:0 138:-1 139:-1 140:-1 141:0 142:-1 143:0 144:-1 145:-1 146:0 147:0 148:-1 149:-1 150:-1 151:-1 152:0 153:-1 154:-1 155:0 156:1 157:4 158:-1 159:-1 160:0 161:-1 162:2 163:0 164:-1 165:-1 166:0 167:0 168:-1 169:0 170:-1 171:-1 172:2 173:-1 174:0 175:-1 176:0 177:-1 178:0 179:3 180:-1 181:0 182:-1 183:0 184:-1 185:-1 186:-1 187:-1 188:4 189:-1 190:-2 191:-1 192:-1 193:-1 194:-1 195:-1 196:0 197:-1 198:-1 199:-1 200:-1 201:-1 202:-2 203:-2 204:-2 205:-1 206:-2 207:-2 208:-2 209:-2 210:4 211:1 212:-2 213:0 214:-1 215:-2 216:-2 217:-1 218:-2 219:-1 220:2 221:-1 222:-1 223:-1 224:0 225:-3 226:1 227:4 228:-3 229:-1 230:-1 231:-2 232:2 233:-1 234:-3 235:-2 236:-1 237:-1 238:-4 239:-2 240:2 241:-3 242:-3 243:-4 244:-5 245:-3 246:-3 247:-3 248:-3 249:-3 250:-3 251:-2 252:-4 253:-2 254:1 255:-4 256:-3 257:-3 258:12 259:2 260:-3 #
0.0005867234987185139 1:-1 2:-1 3:-1 4:-1 5:-1 6:-1 7:-1 8:-1 9:-1 10:1 11:3 12:-1 13:1 14:0 15:-1 16:-1 17:-1 18:-1 19:-1 20:0 21:-3 22:-3 23:-4 24:-5 25:-3 26:-3 27:-4 28:-3 29:-2 30:-2 31:-1 32:-4 33:-1 34:6 35:-4 36:-3 37:-3 38:10 39:2 40:-2 41:0 42:-3 43:-1 44:-2 45:-3 46:-2 47:-3 48:6 49:-3 50:-4 51:-4 52:-2 53:-3 54:-4 55:-3 56:-1 57:-2 58:-3 59:-4 60:-4 61:-1 62:-3 63:-3 64:-2 65:-3 66:-2 67:-2 68:-3 69:-3 70:-3 71:-4 72:-2 73:-3 74:-4 75:8 76:-1 77:-2 78:-4 79:-4 80:-3 81:-2 82:-3 83:-4 84:-4 85:-2 86:-3 87:-4 88:-4 89:-3 90:1 91:5 92:-3 93:2 94:0 95:-4 96:-3 97:-2 98:-2 99:-2 100:0 101:-1 102:2 103:0 104:-1 105:-3 106:1 107:1 108:-2 109:-1 110:-3 111:-3 112:5 113:-2 114:-3 115:-1 116:0 117:-1 118:-3 119:-2 120:-3 121:-1 122:-1 123:-1 124:1 125:-3 126:1 127:4 128:-3 129:-1 130:0 131:-1 132:0 133:-1 134:-2 135:-2 136:-1 137:-1 138:-3 139:-2 140:2 141:0 142:-3 143:-3 144:-4 145:-1 146:-2 147:-3 148:-4 149:-3 150:3 151:1 152:-3 153:1 154:-1 155:-3 156:-2 157:0 158:-3 159:-1 160:4 161:-1 162:1 163:0 164:0 165:-3 166:6 167:2 168:-2 169:0 170:-3 171:-2 172:1 173:-1 174:-4 175:-2 176:0 177:-1 178:-2 179:-2 180:-2 181:0 182:0 183:0 184:0 185:0 186:0 187:0 188:0 189:0 190:0 191:0 192:0 193:0 194:0 195:0 196:0 197:0 198:0 199:0 200:0 201:0 202:0 203:0 204:0 205:0 206:0 207:0 208:0 209:0 210:0 211:0 212:0 213:0 214:0 215:0 216:0 217:0 218:0 219:0 220:0 221:0 222:0 223:0 224:0 225:0 226:0 227:0 228:0 229:0 230:0 231:0 232:0 233:0 234:0 235:0 236:0 237:0 238:0 239:0 240:0 241:0 242:0 243:0 244:0 245:0 246:0 247:0 248:0 249:0 250:0 251:0 252:0 253:0 254:0 255:0 256:0 257:0 258:0 259:0 260:0 #
-3.0490479070444598e-005 2:0 3:0 4:0 5:0 6:0 7:0 8:0 9:0 10:0 11:0 12:0 13:0 14:0 15:0 16:0 17:0 18:0 19:0 20:0 21:0 22:0 23:0 24:0 25:0 26:0 27:0 28:0 29:0 30:0 31:0 32:0 33:0 34:0 35:0 36:0 37:0 38:0 39:0 40:0 41:0 42:0 43:0 44:0 45:0 46:0 47:0 48:0 49:0 50:0 51:0 52:0 53:0 54:0 55:0 56:0 57:0 58:0 59:0 60:0 61:0 62:0 63:0 64:0 65:0 66:0 67:0 68:0 69:0 70:0 71:0 72:0 73:0 74:0 75:0 76:0 77:0 78:0 79:0 80:0 81:0 82:0 83:0 84:0 85:0 86:0 87:0 88:0 89:0 90:0 91:0 92:0 93:0 94:0 95:0 96:0 97:0 98:0 99:0 100:0 101:0 102:0 103:0 104:0 105:0 106:0 107:0 108:0 109:0 110:0 111:0 112:0 113:0 114:0 115:0 116:0 117:0 118:0 119:0 120:0 121:0 122:0 123:-2 124:0 125:-1 126:-3 127:-2 128:-2 129:6 130:-2 131:-4 132:-4 133:-2 134:-3 135:-3 136:-2 137:0 138:-2 139:-2 140:-3 141:-3 142:-1 143:-1 144:-2 145:-3 146:-1 147:0 148:-2 149:-3 150:-2 151:1 152:2 153:-1 154:5 155:0 156:-2 157:-1 158:-1 159:-1 160:-1 161:1 162:0 163:-2 164:0 165:-1 166:-3 167:-2 168:-2 169:6 170:-2 171:-4 172:-4 173:-2 174:-3 175:-3 176:-2 177:0 178:-2 179:-2 180:-3 181:-3 182:0 183:-2 184:0 185:-1 186:-3 187:-2 188:-2 189:6 190:-2 191:-4 192:-4 193:-2 194:-3 195:-3 196:-2 197:0 198:-2 199:-2 200:-3 201:-3 202:0 203:-3 204:-3 205:-3 206:-1 207:-2 208:-2 209:-3 210:-3 211:3 212:1 213:-2 214:1 215:-1 216:-2 217:-2 218:0 219:-3 220:-1 221:4 222:0 223:-2 224:0 225:-1 226:-3 227:-2 228:-2 229:6 230:-2 231:-4 232:-4 233:-2 234:-3 235:-3 236:-2 237:0 238:-2 239:-2 240:-3 241:-3 242:-1 243:2 244:0 245:-1 246:-3 247:1 248:1 249:-2 250:-1 251:-3 252:-2 253:5 254:-1 255:-3 256:-1 257:0 258:-1 259:-3 260:-2 261:-2 #
-0.00012070140187090626 2:-3 3:-3 4:-4 5:-4 6:-2 7:-2 8:-3 9:-2 10:-2 11:-3 12:-2 13:-3 14:-1 15:1 16:-4 17:-3 18:-2 19:10 20:2 21:-3 22:-1 23:-2 24:-3 25:-4 26:-1 27:-2 28:-3 29:-4 30:-3 31:2 32:4 33:-2 34:2 35:0 36:-3 37:-2 38:-1 39:-2 40:-1 41:1 42:-1 43:1 44:0 45:0 46:-3 47:5 48:2 49:-2 50:0 51:-3 52:-2 53:1 54:0 55:-3 56:-1 57:0 58:-1 59:-2 60:-1 61:-2 62:-1 63:-2 64:-2 65:-1 66:-3 67:-1 68:-1 69:-2 70:-2 71:-3 72:-3 73:-1 74:-2 75:-4 76:7 77:-1 78:-1 79:-4 80:-3 81:-2 82:0 83:-2 84:0 85:-1 86:-2 87:-2 88:-2 89:6 90:-2 91:-4 92:-4 93:-2 94:-3 95:-3 96:-2 97:0 98:-2 99:-2 100:-3 101:-3 102:-1 103:1 104:0 105:0 106:-3 107:5 108:2 109:-2 110:0 111:-3 112:-2 113:1 114:0 115:-3 116:-1 117:0 118:-1 119:-2 120:-1 121:-2 122:0 123:-2 124:0 125:-1 126:-2 127:-2 128:-2 129:6 130:-2 131:-4 132:-4 133:-2 134:-3 135:-3 136:-2 137:0 138:-2 139:-2 140:-3 141:-3 142:-1 143:1 144:0 145:0 146:-3 147:5 148:2 149:-2 150:0 151:-3 152:-2 153:1 154:0 155:-3 156:-1 157:0 158:-1 159:-2 160:-1 161:-2 162:-1 163:1 164:0 165:0 166:-3 167:5 168:2 169:-2 170:0 171:-3 172:-2 173:1 174:0 175:-3 176:-1 177:0 178:-1 179:-2 180:-1 181:-2 182:0 183:-2 184:0 185:-1 186:-2 187:-2 188:-2 189:6 190:-2 191:-4 192:-4 193:-2 194:-3 195:-3 196:-2 197:0 198:-2 199:-2 200:-3 201:-3 202:-2 203:-2 204:-2 205:-3 206:-2 207:-1 208:-2 209:-3 210:2 211:-1 212:-1 213:-2 214:-1 215:3 216:-3 217:-2 218:-2 219:2 220:7 221:-1 222:-2 223:-2 224:-2 225:-3 226:-2 227:-1 228:-2 229:-3 230:2 231:-1 232:-1 233:-2 234:-1 235:3 236:-3 237:-2 238:-2 239:2 240:7 241:-1 242:-1 243:-2 244:-2 245:-1 246:-3 247:-1 248:-1 249:-2 250:-2 251:-3 252:-3 253:-1 254:-2 255:-4 256:7 257:-1 258:-1 259:-4 260:-3 261:-2 #
0.0005867234987185139 1:2 2:0 3:0 4:0 5:-1 6:0 7:0 8:0 9:-1 10:-1 11:-1 12:0 13:-1 14:-1 15:0 16:2 17:0 18:-1 19:-1 20:-1 21:0 22:-1 23:-1 24:0 25:-1 26:0 27:0 28:-1 29:-1 30:-1 31:-1 32:0 33:-1 34:-1 35:5 36:0 37:0 38:-1 39:-1 40:-1 41:0 42:2 43:0 44:0 45:-1 46:0 47:0 48:0 49:0 50:-1 51:-1 52:0 53:-1 54:-1 55:0 56:2 57:0 58:-1 59:-1 60:-1 61:0 62:0 63:0 64:0 65:-1 66:0 67:0 68:2 69:-1 70:-1 71:-1 72:0 73:-1 74:-1 75:0 76:2 77:0 78:-1 79:-1 80:-1 81:0 82:0 83:3 84:3 85:-1 86:0 87:0 88:0 89:0 90:-1 91:-1 92:0 93:-1 94:-1 95:0 96:0 97:0 98:-1 99:-1 100:-1 101:0 102:-1 103:-1 104:-1 105:-1 106:0 107:-1 108:-1 109:-1 110:2 111:0 112:-1 113:3 114:0 115:0 116:0 117:0 118:-1 119:-1 120:0 121:0 122:-1 123:0 124:0 125:-1 126:0 127:0 128:4 129:-1 130:-1 131:-1 132:0 133:-1 134:-1 135:0 136:0 137:0 138:-1 139:-1 140:-1 141:0 142:0 143:0 144:0 145:-1 146:1 147:3 148:-1 149:0 150:-1 151:-1 152:0 153:-1 154:-1 155:0 156:0 157:0 158:-1 159:-1 160:-1 161:0 162:-1 163:-1 164:-1 165:-1 166:0 167:-1 168:-1 169:-1 170:0 171:2 172:-1 173:1 174:0 175:0 176:-1 177:0 178:-1 179:0 180:0 181:0 182:-1 183:-1 184:-1 185:-1 186:-1 187:-1 188:-1 189:-1 190:3 191:0 192:-1 193:0 194:0 195:0 196:-1 197:0 198:-1 199:-1 200:1 201:3 202:0 203:0 204:-1 205:0 206:0 207:0 208:0 209:-1 210:-1 211:-1 212:0 213:-1 214:-1 215:0 216:0 217:0 218:-1 219:-1 220:0 221:0 222:4 223:0 224:0 225:-1 226:0 227:0 228:-1 229:0 230:-1 231:-1 232:1 233:-1 234:-1 235:0 236:0 237:0 238:-1 239:-1 240:-1 241:-1 242:-1 243:-2 244:-2 245:-1 246:-1 247:-1 248:-2 249:-2 250:3 251:1 252:-1 253:5 254:0 255:-1 256:-1 257:-1 258:-1 259:-1 260:1 #
0.00031119892252855528 1:2 2:-1 3:-1 4:1 5:-3 6:1 7:5 8:-2 9:-1 10:-3 11:-3 12:0 13:-2 14:-4 15:-2 16:0 17:-1 18:-3 19:-3 20:-2 21:-2 22:-2 23:1 24:7 25:-4 26:-1 27:1 28:-2 29:-2 30:-4 31:-4 32:-1 33:-4 34:-4 35:-2 36:-1 37:-2 38:-5 39:-4 40:-4 41:0 42:-3 43:-1 44:-2 45:-3 46:-2 47:-3 48:6 49:-3 50:-4 51:-4 52:-2 53:-3 54:-4 55:-3 56:-1 57:-2 58:-3 59:-4 60:-4 61:-1 62:-1 63:-1 64:1 65:-4 66:2 67:6 68:-3 69:-1 70:-4 71:-3 72:0 73:-3 74:-4 75:-2 76:-1 77:-1 78:-3 79:-3 80:-3 81:-3 82:-3 83:-4 84:-4 85:-3 86:-4 87:-4 88:-4 89:-2 90:-1 91:0 92:-4 93:0 94:7 95:-4 96:-3 97:-3 98:1 99:3 100:-1 101:-3 102:-3 103:-4 104:-5 105:-3 106:-3 107:-3 108:-3 109:-3 110:-3 111:-2 112:-4 113:-2 114:1 115:-4 116:-3 117:-3 118:12 119:2 120:-3 121:-2 122:-2 123:-3 124:-4 125:-2 126:-1 127:-3 128:-3 129:-2 130:2 131:2 132:-2 133:7 134:0 135:-3 136:-2 137:-1 138:-2 139:-2 140:1 141:2 142:-1 143:0 144:-1 145:-1 146:-1 147:-1 148:-1 149:-2 150:-3 151:-3 152:-1 153:-2 154:-3 155:-1 156:5 157:1 158:-3 159:-2 160:-2 161:-2 162:-3 163:-3 164:-4 165:-3 166:-3 167:-3 168:-4 169:0 170:-1 171:1 172:-3 173:0 174:5 175:-4 176:-3 177:-2 178:1 179:6 180:-1 181:-1 182:2 183:2 184:3 185:-3 186:1 187:4 188:-2 189:-1 190:-4 191:-3 192:0 193:-3 194:-4 195:-2 196:1 197:-1 198:-4 199:-3 200:-3 201:-2 202:-2 203:1 204:7 205:-4 206:-1 207:1 208:-2 209:-2 210:-4 211:-4 212:-1 213:-4 214:-4 215:-2 216:-1 217:-2 218:-5 219:-4 220:-4 221:-3 222:-3 223:-4 224:-4 225:-3 226:-4 227:-4 228:-4 229:-2 230:-1 231:0 232:-4 233:0 234:7 235:-4 236:-3 237:-3 238:1 239:3 240:-1 241:-1 242:-3 243:-3 244:-4 245:-2 246:-2 247:-3 248:-4 249:-3 250:2 251:3 252:-3 253:5 254:-1 255:-3 256:-2 257:-1 258:-3 259:-2 260:3 #
0.00018551496775444918 1:-2 2:-4 3:-4 4:-4 5:-2 6:-3 7:-4 8:-4 9:-4 10:5 11:1 12:-3 13:1 14:-1 15:-3 16:-3 17:-1 18:-3 19:-2 20:2 21:3 22:-2 23:-1 24:-2 25:-1 26:-1 27:-1 28:-1 29:-2 30:-2 31:-2 32:-1 33:-1 34:-3 35:-1 36:3 37:3 38:-3 39:-2 40:-1 41:-2 42:-3 43:-4 44:-4 45:-2 46:-3 47:-4 48:-4 49:-3 50:3 51:4 52:-3 53:2 54:0 55:-3 56:-3 57:-2 58:-2 59:-2 60:1 61:-2 62:0 63:0 64:5 65:-4 66:1 67:3 68:-2 69:-1 70:-4 71:-4 72:2 73:-3 74:-4 75:-2 76:-1 77:-1 78:-4 79:-3 80:-3 81:-1 82:-1 83:-1 84:1 85:-4 86:2 87:6 88:-3 89:-1 90:-4 91:-3 92:0 93:-3 94:-4 95:-2 96:-1 97:-1 98:-3 99:-3 100:-3 101:-3 102:-3 103:-4 104:-5 105:-3 106:-3 107:-4 108:-3 109:-2 110:-2 111:-1 112:-4 113:-1 114:4 115:-4 116:-3 117:-3 118:10 119:2 120:-3 121:4 122:-2 123:-1 124:-2 125:-1 126:-2 127:-2 128:4 129:-2 130:-2 131:-3 132:-1 133:-2 134:-3 135:-2 136:0 137:-1 138:-3 139:-3 140:-1 141:0 142:1 143:0 144:-1 145:-3 146:0 147:0 148:2 149:-1 150:-3 151:-3 152:4 153:-2 154:-3 155:-2 156:2 157:-1 158:-3 159:-2 160:-3 161:-1 162:-4 163:-3 164:-4 165:10 166:-3 167:-4 168:-3 169:-3 170:-2 171:-2 172:-4 173:-2 174:-3 175:-3 176:-1 177:-1 178:-3 179:-3 180:-1 181:-2 182:-3 183:-4 184:-4 185:-2 186:-3 187:-4 188:-4 189:-2 190:0 191:3 192:-3 193:1 194:6 195:-4 196:-3 197:-2 198:0 199:2 200:0 201:0 202:-3 203:-1 204:-2 205:-3 206:-2 207:-3 208:6 209:-2 210:-4 211:-4 212:-2 213:-3 214:-4 215:-3 216:-1 217:-2 218:-3 219:-4 220:-4 221:-2 222:-3 223:-4 224:-4 225:-2 226:-3 227:-4 228:-4 229:-4 230:4 231:3 232:-3 233:1 234:0 235:-3 236:-3 237:-1 238:-3 239:-2 240:2 241:-1 242:2 243:0 244:-1 245:-4 246:1 247:1 248:-2 249:-1 250:-3 251:-3 252:5 253:-2 254:-4 255:-1 256:-1 257:-1 258:-3 259:-2 260:-3 #
0.0005867234987185139 1:1 2:-1 3:6 4:0 5:4 6:-1 7:-1 8:-1 9:-1 10:-3 11:-3 12:-1 13:-3 14:-3 15:-3 16:0 17:-1 18:-4 19:-3 20:-3 21:-1 22:1 23:4 24:-1 25:-3 26:0 27:0 28:-2 29:-1 30:-3 31:-3 32:5 33:-2 34:-4 35:-2 36:1 37:-1 38:-4 39:-3 40:-3 41:3 42:-2 43:-3 44:-3 45:-1 46:-2 47:-2 48:-1 49:-3 50:1 51:-1 52:-2 53:0 54:-2 55:-2 56:0 57:0 58:-3 59:-2 60:3 61:0 62:-1 63:-1 64:-1 65:7 66:-1 67:-1 68:-1 69:-2 70:0 71:-1 72:-1 73:-1 74:-1 75:-1 76:-1 77:0 78:-1 79:-1 80:1 81:-1 82:-1 83:-1 84:-1 85:-1 86:-1 87:-1 88:-1 89:0 90:-1 91:-1 92:-1 93:-1 94:4 95:-1 96:-1 97:-1 98:1 99:5 100:-1 101:-2 102:-3 103:-4 104:-4 105:-2 106:-3 107:-4 108:-4 109:-2 110:1 111:3 112:-3 113:1 114:5 115:-4 116:-3 117:-2 118:-1 119:1 120:0 121:-3 122:-3 123:-4 124:-4 125:-3 126:-3 127:-4 128:-3 129:-2 130:-1 131:-1 132:-4 133:-1 134:6 135:-4 136:-3 137:-3 138:9 139:2 140:-2 141:0 142:-3 143:-1 144:-2 145:-3 146:-2 147:-3 148:6 149:-3 150:-4 151:-4 152:-2 153:-3 154:-4 155:-3 156:-1 157:-2 158:-3 159:-4 160:-4 161:-1 162:-3 163:-2 164:-2 165:-3 166:-2 167:-2 168:-3 169:-3 170:-3 171:-3 172:-1 173:-3 174:-4 175:8 176:-1 177:-2 178:-4 179:-3 180:-3 181:-2 182:-3 183:-4 184:-4 185:-2 186:-3 187:-3 188:-4 189:-3 190:1 191:5 192:-3 193:2 194:0 195:-3 196:-3 197:-2 198:-2 199:-1 200:0 201:-1 202:2 203:0 204:-1 205:-3 206:1 207:1 208:-2 209:-1 210:-3 211:-3 212:5 213:-2 214:-3 215:-1 216:0 217:-1 218:-3 219:-2 220:-2 221:-1 222:-1 223:-1 224:1 225:-3 226:1 227:4 228:-3 229:-1 230:0 231:-1 232:0 233:-1 234:-2 235:-2 236:-1 237:-1 238:-3 239:-2 240:2 241:0 242:-3 243:-3 244:-3 245:-1 246:-2 247:-3 248:-3 249:-3 250:3 251:1 252:-2 253:1 254:-1 255:-3 256:-2 257:0 258:-3 259:-1 260:4 #
0.00032310929127480357 1:-1 2:0 3:-1 4:-1 5:-3 6:0 7:2 8:-2 9:-2 10:-3 11:-3 12:3 13:-2 14:-4 15:2 16:3 17:2 18:-4 19:-3 20:-3 21:1 22:-1 23:6 24:0 25:4 26:-1 27:-1 28:-1 29:-1 30:-3 31:-3 32:-1 33:-3 34:-3 35:-3 36:0 37:-1 38:-4 39:-3 40:-3 41:-1 42:1 43:4 44:-1 45:-3 46:0 47:0 48:-2 49:-1 50:-3 51:-3 52:5 53:-2 54:-4 55:-2 56:1 57:-1 58:-4 59:-3 60:-3 61:3 62:-2 63:-3 64:-3 65:-1 66:-2 67:-2 68:-1 69:-3 70:1 71:-1 72:-2 73:0 74:-2 75:-2 76:0 77:0 78:-3 79:-2 80:3 81:0 82:-1 83:-1 84:-1 85:7 86:-1 87:-1 88:-1 89:-2 90:0 91:-1 92:-1 93:-1 94:-1 95:-1 96:-1 97:0 98:-1 99:-1 100:1 101:-1 102:-1 103:-1 104:-1 105:-1 106:-1 107:-1 108:-1 109:0 110:-1 111:-1 112:-1 113:-1 114:4 115:-1 116:-1 117:-1 118:1 119:5 120:-1 121:-2 122:-3 123:-4 124:-4 125:-2 126:-3 127:-4 128:-4 129:-2 130:1 131:3 132:-3 133:1 134:5 135:-4 136:-3 137:-2 138:-1 139:1 140:0 141:-3 142:-3 143:-4 144:-4 145:-3 146:-3 147:-4 148:-3 149:-2 150:-1 151:-1 152:-4 153:-1 154:6 155:-4 156:-3 157:-3 158:9 159:2 160:-2 161:0 162:-3 163:-1 164:-2 165:-3 166:-2 167:-3 168:6 169:-3 170:-4 171:-4 172:-2 173:-3 174:-4 175:-3 176:-1 177:-2 178:-3 179:-4 180:-4 181:-1 182:-3 183:-2 184:-2 185:-3 186:-2 187:-2 188:-3 189:-3 190:-3 191:-3 192:-1 193:-3 194:-4 195:8 196:-1 197:-2 198:-4 199:-3 200:-3 201:-2 202:-3 203:-4 204:-4 205:-2 206:-3 207:-3 208:-4 209:-3 210:1 211:5 212:-3 213:2 214:0 215:-3 216:-3 217:-2 218:-2 219:-1 220:0 221:-1 222:2 223:0 224:-1 225:-3 226:1 227:1 228:-2 229:-1 230:-3 231:-3 232:5 233:-2 234:-3 235:-1 236:0 237:-1 238:-3 239:-2 240:-2 241:-1 242:-1 243:-1 244:1 245:-3 246:1 247:4 248:-3 249:-1 250:0 251:-1 252:0 253:-1 254:-2 255:-2 256:-1 257:-1 258:-3 259:-2 260:2 #
0.0005867234987185139 1:2 2:3 3:-2 4:0 5:-2 6:-1 7:-2 8:-2 9:-2 10:2 11:0 12:-1 13:-1 14:-2 15:-2 16:0 17:-1 18:-2 19:-2 20:2 21:-2 22:3 23:-1 24:2 25:-2 26:3 27:-1 28:0 29:-1 30:-2 31:-2 32:1 33:-2 34:1 35:-2 36:-1 37:1 38:-2 39:-2 40:-2 41:-1 42:-1 43:0 44:1 45:-2 46:-1 47:1 48:-2 49:-2 50:-2 51:-2 52:4 53:-2 54:1 55:-2 56:0 57:1 58:-2 59:-2 60:0 61:-1 62:0 63:-1 64:-1 65:-3 66:0 67:2 68:1 69:-1 70:-3 71:-2 72:5 73:-2 74:-3 75:-1 76:-1 77:-1 78:-2 79:-2 80:-2 81:1 82:-1 83:4 84:1 85:-2 86:-1 87:1 88:-2 89:-1 90:-2 91:-2 92:2 93:-2 94:-2 95:-2 96:-1 97:1 98:-2 99:-2 100:-2 101:-2 102:1 103:2 104:1 105:-2 106:-1 107:0 108:3 109:-2 110:0 111:0 112:-1 113:-1 114:2 115:-2 116:-1 117:-2 118:-2 119:-2 120:-2 121:-1 122:1 123:-1 124:2 125:-2 126:-1 127:1 128:2 129:-2 130:-2 131:-2 132:3 133:-2 134:-2 135:-2 136:0 137:-1 138:-2 139:-2 140:0 141:0 142:-2 143:-1 144:1 145:-2 146:-2 147:-2 148:2 149:-2 150:-1 151:0 152:-2 153:3 154:0 155:2 156:0 157:1 158:-2 159:-2 160:0 161:-1 162:1 163:-2 164:-2 165:4 166:-2 167:-2 168:0 169:-2 170:3 171:-1 172:-1 173:-1 174:-2 175:0 176:1 177:-1 178:-2 179:-2 180:2 181:-2 182:-2 183:-2 184:-2 185:-2 186:3 187:0 188:-3 189:-2 190:3 191:2 192:0 193:2 194:-2 195:-2 196:-2 197:0 198:-2 199:-2 200:-1 201:-2 202:1 203:-1 204:1 205:-3 206:-1 207:3 208:2 209:-2 210:-3 211:-2 212:1 213:-2 214:3 215:-2 216:0 217:-2 218:-2 219:-1 220:-3 221:0 222:0 223:-2 224:0 225:-2 226:0 227:-2 228:-3 229:-2 230:-1 231:2 232:-2 233:-1 234:3 235:1 236:-1 237:-2 238:-2 239:-1 240:1 241:1 242:1 243:0 244:1 245:-2 246:-1 247:1 248:-2 249:-2 250:-2 251:0 252:-1 253:-2 254:-2 255:-2 256:3 257:1 258:-3 259:-2 260:0 #
-1.1395727666065982e-005 2:-1 3:2 4:0 5:-1 6:-3 7:1 8:1 9:-2 10:-1 11:-3 12:-3 13:5 14:-1 15:-3 16:-1 17:0 18:-1 19:-3 20:-2 21:-2 22:0 23:-4 24:-3 25:-4 26:9 27:-3 28:-4 29:-3 30:-3 31:-1 32:-1 33:-3 34:-2 35:-3 36:-3 37:-1 38:-1 39:-3 40:-3 41:-1 42:-1 43:2 44:0 45:-1 46:-3 47:1 48:1 49:-2 50:-1 51:-3 52:-3 53:5 54:-1 55:-3 56:-1 57:0 58:-1 59:-3 60:-2 61:-2 62:0 63:-3 64:0 65:-1 66:-3 67:-2 68:-2 69:6 70:-2 71:-4 72:-4 73:-2 74:-3 75:-3 76:-2 77:0 78:-2 79:-3 80:-3 81:-3 82:-2 83:-2 84:-4 85:-4 86:-1 87:-2 88:-3 89:-4 90:-3 91:2 92:4 93:-3 94:2 95:0 96:-3 97:-3 98:-1 99:-2 100:-1 101:1 102:-1 103:-2 104:-2 105:-2 106:-3 107:-1 108:-1 109:-2 110:-2 111:-3 112:-3 113:-1 114:-3 115:-4 116:8 117:-1 118:-1 119:-4 120:-3 121:-3 122:-2 123:-2 124:-4 125:-4 126:-1 127:-2 128:-3 129:-4 130:-3 131:2 132:4 133:-3 134:2 135:0 136:-3 137:-3 138:-1 139:-2 140:-1 141:1 142:4 143:-2 144:-2 145:-2 146:0 147:-1 148:-1 149:0 150:-2 151:-1 152:-2 153:-1 154:-1 155:-2 156:-1 157:1 158:0 159:-3 160:-2 161:0 162:-2 163:-2 164:-4 165:-4 166:-1 167:-2 168:-3 169:-4 170:-3 171:2 172:4 173:-3 174:2 175:0 176:-3 177:-3 178:-1 179:-2 180:-1 181:1 182:-1 183:2 184:0 185:-1 186:-3 187:1 188:1 189:-2 190:-1 191:-3 192:-3 193:5 194:-1 195:-3 196:-1 197:0 198:-1 199:-3 200:-2 201:-2 202:0 203:-3 204:-3 205:-3 206:-1 207:-2 208:-3 209:-3 210:-3 211:3 212:1 213:-2 214:1 215:-1 216:-3 217:-2 218:0 219:-3 220:-1 221:4 222:0 223:0 224:0 225:0 226:0 227:0 228:0 229:0 230:0 231:0 232:0 233:0 234:0 235:0 236:0 237:0 238:0 239:0 240:0 241:0 242:0 243:0 244:0 245:0 246:0 247:0 248:0 249:0 250:0 251:0 252:0 253:0 254:0 255:0 256:0 257:0 258:0 259:0 260:0 261:0 #
-0.0005867234987185139 2:-1 3:-2 4:-2 5:-2 6:-3 7:-1 8:-1 9:-2 10:-2 11:-3 12:-3 13:-1 14:-3 15:-4 16:8 17:-1 18:-1 19:-4 20:-3 21:-3 22:0 23:-4 24:-3 25:-4 26:10 27:-3 28:-4 29:-3 30:-3 31:-1 32:-1 33:-3 34:-2 35:-3 36:-3 37:-1 38:-1 39:-3 40:-3 41:-1 42:-2 43:-2 44:-4 45:-4 46:-1 47:-2 48:-3 49:-4 50:-3 51:2 52:4 53:-3 54:2 55:0 56:-3 57:-3 58:-1 59:-2 60:-1 61:1 62:-1 63:0 64:0 65:2 66:-4 67:2 68:5 69:-2 70:0 71:-4 72:-3 73:1 74:-2 75:-4 76:-1 77:0 78:-1 79:-3 80:-2 81:-3 82:-2 83:6 84:0 85:-2 86:-4 87:1 88:0 89:-3 90:0 91:-3 92:-2 93:2 94:-2 95:-3 96:-2 97:-1 98:-1 99:-3 100:-2 101:-3 102:-2 103:-2 104:-4 105:-4 106:-1 107:-2 108:-3 109:-4 110:-3 111:2 112:4 113:-3 114:2 115:0 116:-3 117:-3 118:-1 119:-2 120:-1 121:1 122:-1 123:-3 124:-4 125:-3 126:-1 127:-3 128:-4 129:-4 130:-4 131:4 132:2 133:-3 134:1 135:0 136:-3 137:-3 138:-1 139:-3 140:-1 141:3 142:-2 143:-2 144:-4 145:-4 146:-1 147:-2 148:-3 149:-4 150:-3 151:2 152:4 153:-3 154:2 155:0 156:-3 157:-3 158:-1 159:-2 160:-1 161:1 162:-1 163:2 164:0 165:-1 166:-3 167:1 168:1 169:-2 170:-1 171:-3 172:-3 173:5 174:-2 175:-3 176:-1 177:0 178:-1 179:-3 180:-2 181:-3 182:-2 183:-2 184:-2 185:-3 186:-3 187:-2 188:-2 189:-3 190:2 191:-1 192:-1 193:-2 194:-1 195:3 196:-3 197:-2 198:-2 199:2 200:7 201:-1 202:0 203:-4 204:-3 205:-4 206:10 207:-3 208:-4 209:-3 210:-3 211:-1 212:-1 213:-3 214:-2 215:-3 216:-3 217:-1 218:-1 219:-3 220:-3 221:-1 222:-1 223:0 224:0 225:2 226:-4 227:2 228:5 229:-2 230:0 231:-4 232:-3 233:1 234:-2 235:-4 236:-1 237:0 238:-1 239:-3 240:-2 241:-3 242:-2 243:6 244:0 245:-2 246:-4 247:1 248:0 249:-3 250:0 251:-3 252:-2 253:2 254:-2 255:-3 256:-2 257:-1 258:-1 259:-3 260:-2 261:-3 #
-0.0005867234987185139 2:-2 3:6 4:-1 5:-2 6:-4 7:1 8:0 9:-3 10:0 11:-3 12:-2 13:2 14:-2 15:-3 16:-2 17:-1 18:-1 19:-3 20:-2 21:-3 22:-1 23:0 24:0 25:2 26:-4 27:2 28:6 29:-2 30:0 31:-4 32:-3 33:1 34:-2 35:-4 36:-1 37:0 38:-1 39:-3 40:-2 41:-3 42:-2 43:-2 44:-4 45:-4 46:-1 47:-2 48:-3 49:-4 50:-3 51:2 52:4 53:-3 54:2 55:0 56:-3 57:-3 58:-1 59:-2 60:-1 61:1 62:-3 63:-3 64:-3 65:-4 66:-3 67:-4 68:-4 69:-4 70:-1 71:0 72:0 73:-4 74:0 75:7 76:-4 77:-3 78:-2 79:1 80:3 81:-1 82:-2 83:-2 84:-4 85:-4 86:-1 87:-2 88:-3 89:-4 90:-3 91:2 92:4 93:-3 94:2 95:0 96:-3 97:-3 98:-1 99:-2 100:-1 101:1 102:-2 103:-2 104:-4 105:-4 106:-1 107:-2 108:-3 109:-4 110:-3 111:2 112:4 113:-3 114:2 115:0 116:-3 117:-3 118:-1 119:-2 120:-1 121:1 122:-2 123:-3 124:-4 125:-4 126:-1 127:-3 128:-4 129:-4 130:-4 131:5 132:2 133:-3 134:1 135:0 136:-3 137:-3 138:-1 139:-3 140:-2 141:3 142:0 143:-4 144:-3 145:-4 146:10 147:-3 148:-4 149:-3 150:-3 151:-1 152:-1 153:-3 154:-2 155:-3 156:-3 157:-1 158:-1 159:-3 160:-3 161:-1 162:-2 163:-3 164:-4 165:-4 166:-1 167:-3 168:-4 169:-4 170:-4 171:5 172:2 173:-3 174:1 175:0 176:-3 177:-3 178:-1 179:-3 180:-2 181:3 182:-3 183:-3 184:-3 185:-4 186:-3 187:-4 188:-4 189:-4 190:-1 191:0 192:0 193:-4 194:0 195:7 196:-4 197:-3 198:-2 199:1 200:3 201:-1 202:-2 203:-2 204:-4 205:-4 206:-1 207:-2 208:-3 209:-4 210:-3 211:2 212:4 213:-3 214:2 215:0 216:-3 217:-3 218:-1 219:-2 220:-1 221:1 222:-1 223:-2 224:-2 225:-2 226:-3 227:-1 228:-1 229:-2 230:-2 231:-3 232:-3 233:-1 234:-3 235:-4 236:8 237:-1 238:-1 239:-4 240:-3 241:-3 242:0 243:-3 244:-3 245:-4 246:-1 247:-3 248:-3 249:-4 250:-4 251:3 252:1 253:-3 254:1 255:-1 256:-3 257:-2 258:0 259:-3 260:-1 261:4 #
-0.0005867234987185139 2:-2 3:0 4:6 5:1 6:-3 7:0 8:0 9:0 10:1 11:-3 12:-3 13:0 14:-2 15:-3 16:-2 17:1 18:0 19:-4 20:-2 21:-3 22:0 23:-3 24:-3 25:-4 26:9 27:-3 28:-4 29:-3 30:-3 31:-1 32:-1 33:-3 34:-1 35:-2 36:-3 37:-1 38:-1 39:-2 40:-2 41:-1 42:-1 43:1 44:0 45:0 46:-3 47:5 48:2 49:-2 50:0 51:-3 52:-2 53:1 54:0 55:-3 56:-1 57:0 58:-1 59:-2 60:-1 61:-2 62:1 63:-1 64:1 65:0 66:-1 67:0 68:0 69:0 70:-1 71:-2 72:-2 73:0 74:-2 75:-2 76:-1 77:4 78:1 79:-3 80:-2 81:-2 82:-1 83:1 84:0 85:0 86:-3 87:5 88:2 89:-2 90:0 91:-3 92:-2 93:1 94:0 95:-3 96:-1 97:0 98:-1 99:-2 100:-1 101:-2 102:0 103:-3 104:-3 105:-4 106:9 107:-3 108:-4 109:-3 110:-3 111:-1 112:-1 113:-3 114:-1 115:-2 116:-3 117:-1 118:-1 119:-2 120:-2 121:-1 122:-1 123:-2 124:-2 125:-2 126:-3 127:-1 128:-1 129:-2 130:-2 131:-3 132:-3 133:-1 134:-3 135:-4 136:7 137:-1 138:-1 139:-4 140:-3 141:-2 142:0 143:-2 144:0 145:-1 146:-3 147:-2 148:-2 149:6 150:-2 151:-4 152:-4 153:-2 154:-3 155:-3 156:-2 157:0 158:-2 159:-3 160:-3 161:-3 162:0 163:-2 164:0 165:-1 166:-3 167:-2 168:-2 169:6 170:-2 171:-4 172:-4 173:-2 174:-3 175:-3 176:-2 177:0 178:-2 179:-3 180:-3 181:-3 182:0 183:-2 184:0 185:-1 186:-3 187:-2 188:-2 189:6 190:-2 191:-4 192:-4 193:-2 194:-3 195:-3 196:-2 197:0 198:-2 199:-3 200:-3 201:-3 202:-1 203:-2 204:-2 205:-2 206:-3 207:-1 208:-1 209:-2 210:-2 211:-3 212:-3 213:-1 214:-3 215:-4 216:7 217:-1 218:-1 219:-4 220:-3 221:-2 222:0 223:-2 224:0 225:-1 226:-3 227:-2 228:-2 229:6 230:-2 231:-4 232:-4 233:-2 234:-3 235:-3 236:-2 237:0 238:-2 239:-3 240:-3 241:-3 242:-1 243:-2 244:-2 245:-2 246:-3 247:-1 248:-1 249:-2 250:-2 251:-3 252:-3 253:-1 254:-3 255:-4 256:7 257:-1 258:-1 259:-4 260:-3 261:-2 #
0.0005867234987185139 1:2 2:-1 3:0 4:-1 5:-1 6:0 7:0 8:0 9:-1 10:-1 11:-1 12:0 13:-1 14:-1 15:0 16:2 17:2 18:-1 19:-1 20:-1 21:1 22:-1 23:0 24:4 25:-1 26:0 27:0 28:-1 29:-1 30:-1 31:-1 32:0 33:-1 34:-1 35:0 36:0 37:0 38:-1 39:-1 40:-1 41:-1 42:-1 43:0 44:4 45:-2 46:0 47:2 48:-1 49:-1 50:-1 51:-1 52:0 53:-1 54:-1 55:0 56:0 57:-1 58:-1 59:-1 60:-1 61:0 62:4 63:0 64:-1 65:-1 66:0 67:0 68:-1 69:0 70:-1 71:-1 72:1 73:-1 74:-1 75:-1 76:1 77:0 78:-1 79:-1 80:-1 81:-1 82:-1 83:-1 84:0 85:-1 86:0 87:2 88:-1 89:-1 90:-1 91:-1 92:0 93:-1 94:-2 95:5 96:0 97:-1 98:-1 99:-1 100:-1 101:3 102:-1 103:0 104:-1 105:-1 106:0 107:0 108:0 109:-1 110:-1 111:-1 112:0 113:-1 114:-1 115:0 116:2 117:0 118:-1 119:-1 120:-1 121:-1 122:2 123:-1 124:-1 125:-1 126:0 127:-1 128:-1 129:-1 130:1 131:0 132:0 133:0 134:0 135:-1 136:-1 137:-1 138:6 139:0 140:0 141:0 142:-1 143:-1 144:-1 145:-1 146:-1 147:-1 148:-1 149:-1 150:1 151:-1 152:-1 153:0 154:-1 155:-1 156:0 157:4 158:-2 159:-1 160:0 161:-1 162:-1 163:-1 164:-1 165:-1 166:-1 167:-1 168:-2 169:-1 170:3 171:0 172:-1 173:0 174:2 175:-1 176:-1 177:1 178:-1 179:0 180:1 181:0 182:-1 183:-1 184:-1 185:-1 186:2 187:0 188:-1 189:-1 190:0 191:0 192:0 193:3 194:-1 195:-1 196:1 197:0 198:-1 199:-1 200:1 201:1 202:0 203:-1 204:-1 205:-2 206:0 207:0 208:-1 209:-1 210:-2 211:-2 212:2 213:-1 214:-2 215:5 216:0 217:-1 218:-2 219:-2 220:-1 221:1 222:-1 223:-1 224:-1 225:-1 226:-1 227:-1 228:-1 229:-1 230:0 231:0 232:-1 233:3 234:-1 235:-1 236:0 237:0 238:-1 239:-1 240:2 241:-1 242:0 243:0 244:0 245:-1 246:4 247:2 248:-1 249:0 250:-1 251:-1 252:0 253:-1 254:-1 255:0 256:0 257:0 258:-1 259:-1 260:-1 #
-0.0005867234987185139 2:-1 3:-2 4:-2 5:-2 6:-3 7:-1 8:-1 9:-2 10:-2 11:-3 12:-3 13:-1 14:-3 15:-4 16:8 17:-1 18:-1 19:-4 20:-3 21:-3 22:-1 23:-2 24:-2 25:-2 26:-3 27:-1 28:-1 29:-2 30:-2 31:-3 32:-3 33:-1 34:-3 35:-4 36:8 37:-1 38:-1 39:-4 40:-3 41:-3 42:-3 43:-3 44:-4 45:-5 46:-3 47:-2 48:-3 49:-3 50:-3 51:-3 52:-2 53:-3 54:-2 55:1 56:-4 57:-3 58:-3 59:12 60:2 61:-3 62:4 63:-2 64:-2 65:-2 66:0 67:-1 68:-1 69:0 70:-2 71:-1 72:-2 73:-1 74:-1 75:-2 76:-1 77:1 78:0 79:-3 80:-2 81:0 82:0 83:-3 84:-3 85:-4 86:-1 87:-2 88:-3 89:-4 90:-4 91:3 92:1 93:-3 94:1 95:-1 96:-3 97:-2 98:0 99:-3 100:-1 101:4 102:-2 103:-2 104:-4 105:-4 106:-1 107:-2 108:-3 109:-4 110:-3 111:2 112:4 113:-3 114:2 115:0 116:-3 117:-3 118:-1 119:-2 120:-1 121:1 122:-2 123:-2 124:-4 125:-4 126:-1 127:-2 128:-3 129:-4 130:-3 131:2 132:4 133:-3 134:2 135:0 136:-3 137:-3 138:-1 139:-2 140:-1 141:1 142:0 143:-3 144:-3 145:-4 146:-1 147:-2 148:-3 149:-4 150:-4 151:3 152:1 153:-3 154:1 155:-1 156:-3 157:-2 158:0 159:-3 160:-1 161:4 162:0 163:-3 164:0 165:-1 166:-3 167:-2 168:-2 169:6 170:-2 171:-4 172:-4 173:-2 174:-3 175:-3 176:-2 177:0 178:-2 179:-3 180:-3 181:-4 182:0 183:-3 184:-3 185:-4 186:-1 187:-2 188:-3 189:-4 190:-4 191:3 192:1 193:-3 194:1 195:-1 196:-3 197:-2 198:0 199:-3 200:-1 201:4 202:0 203:-3 204:-3 205:-4 206:-1 207:-2 208:-3 209:-4 210:-4 211:3 212:1 213:-3 214:1 215:-1 216:-3 217:-2 218:0 219:-3 220:-1 221:4 222:-2 223:-2 224:-4 225:-4 226:-1 227:-2 228:-3 229:-4 230:-3 231:2 232:4 233:-3 234:2 235:0 236:-3 237:-3 238:-1 239:-2 240:-1 241:1 242:0 243:-4 244:-3 245:-4 246:10 247:-3 248:-4 249:-3 250:-3 251:-1 252:-1 253:-3 254:-2 255:-3 256:-3 257:-1 258:-1 259:-3 260:-3 261:-1 #
