SVM-light Version V6.01
3 # kernel type
3 # kernel parameter -d 
1 # kernel parameter -g 
1 # kernel parameter -s 
1 # kernel parameter -r 
empty# kernel parameter -u 
51 # highest feature index 
344 # number of training documents 
345 # number of support vectors plus 1 
0 # threshold b, each following line is a SV (starting with alpha*y)
-4.1945277163861237 1:0.36758709 2:0.1138 3:0.44172001 4:0.30579999 5:0.58819997 6:0.68400002 7:0 8:0 9:1.0836 10:1.97 11:0.92879999 12:1.548 13:0.3096 14:0.86000001 15:0.37149999 16:0.442 17:0.155 18:0.77399999 19:0.49540001 20:1.101 21:1.1765 22:1.783 23:0.65020001 24:0.87900001 25:0.403 26:2.368 27:0.52630001 28:1.224 29:0.46439999 30:0.89300001 31:0.37149999 32:0.95300001 33:0.1238 34:0.25299999 35:0.9598 36:1.3710001 37:0.46439999 38:0.76099998 39:0.4025 40:0.61000001 41:0.46399999 42:1.3660001 43:0.2384 44:0.48609999 45:0.1548 46:0.099100001 47:0.42109999 48:0.579 49:0.3468 50:0.1455 51:0.20119999 #
4.1945277163861237 1:0.29834691 2:0.11475 3:0.43810001 4:0.21619999 5:0.53850001 6:0.62599999 7:0.154 8:0.53100002 9:0.92309999 10:1.678 11:1 12:1.6670001 13:0.53850001 14:1.4960001 15:0.61540002 16:0.73299998 17:0.1538 18:0.76899999 19:0.42300001 20:0.94 21:0.96149999 22:1.457 23:1.5385 24:2.079 25:0.2308 26:1.357 27:0.5 28:1.163 29:0.1538 30:0.296 31:0.5 32:1.2819999 33:0.23100001 34:0.47099999 35:0.46149999 36:0.65899998 37:0.46200001 38:0.75700003 39:0.2308 40:0.34999999 41:0.308 42:0.90499997 43:0.22310001 44:0.4039 45:0.2192 46:0.1077 47:0.4808 48:0.51920003 49:0.32690001 50:0.1346 51:0.19230001 #
4.1945277163861237 1:0.30035919 2:0.11508 3:0.4452 4:0.229 5:0.72799999 6:0.84600002 7:0.153 8:0.528 9:0.8046 10:1.4630001 11:1.0345 12:1.724 13:0.5747 14:1.596 15:0.5747 16:0.68400002 17:0.1533 18:0.76599997 19:0.498 20:1.107 21:0.95789999 22:1.451 23:1.2644 24:1.709 25:0.30649999 26:1.803 27:0.53600001 28:1.247 29:0.1149 30:0.221 31:0.61299998 32:1.572 33:0.23 34:0.46900001 35:0.4215 36:0.602 37:0.38299999 38:0.62800002 39:0.2299 40:0.34799999 41:0.345 42:1.0140001 43:0.2261 44:0.3946 45:0.1992 46:0.1149 47:0.48660001 48:0.51340002 49:0.31799999 50:0.13410001 51:0.1839 #
-4.1945277163861237 1:0.96504259 2:0.11248 3:0.52302998 4:1.3527 5:0.51279998 6:0.59600002 7:0.023 8:0.079999998 9:0.65270001 10:1.187 11:0.58279997 12:0.97100002 13:0.4312 14:1.198 15:0.676 16:0.80500001 17:0.221 18:1.107 19:0.79250002 20:1.761 21:0.5711 22:0.86500001 23:1.0839 24:1.465 25:0.093000002 26:0.54799998 27:0.41960001 28:0.97600001 29:0.55940002 30:1.076 31:0.3497 32:0.89700001 33:0.38460001 34:0.78500003 35:0.81590003 36:1.166 37:0.66430002 38:1.089 39:0.53609997 40:0.81199998 41:0.45500001 42:1.337 43:0.2692 44:0.486 45:0.2413 46:0.12819999 47:0.53380001 48:0.46619999 49:0.2413 50:0.1177 51:0.1235 #
4.1945277163861237 1:0.14139649 2:0.10961 3:0.8836 4:0.038400002 5:1.0853 6:1.262 7:0.465 8:1.604 9:0.46509999 10:0.84600002 11:0.69770002 12:1.163 13:0.077500001 14:0.215 15:0.69770002 16:0.83099997 17:0.077500001 18:0.38800001 19:0.38800001 20:0.861 21:0.77520001 22:1.175 23:1.7829 24:2.4089999 25:0.155 26:0.912 27:0.078000002 28:0.18000001 29:0.62019998 30:1.193 31:0.54299998 32:1.391 33:0.77499998 34:1.582 35:0.54259998 36:0.77499998 37:0.078000002 38:0.127 39:0.46509999 40:0.70499998 41:0.233 42:0.68400002 43:0.2868 44:0.44960001 45:0.26359999 46:0.038800001 47:0.59689999 48:0.40310001 49:0.2791 50:0.1628 51:0.1163 #
-4.1945277163861237 1:0.6623612 2:0.11303 3:0.63629001 4:0.90750003 5:0.75089997 6:0.87300003 7:0.154 8:0.52999997 9:0.6997 10:1.272 11:0.66549999 12:1.109 13:0.52899998 14:1.469 15:0.73379999 16:0.87400001 17:0.375 18:1.877 19:0.6997 20:1.5549999 21:0.64850003 22:0.98299998 23:0.80199999 24:1.084 25:0.171 26:1.0039999 27:0.34130001 28:0.79400003 29:0.49489999 30:0.95200002 31:0.25600001 32:0.65600002 33:0.49489999 34:1.01 35:0.59729999 36:0.85299999 37:0.44369999 38:0.727 39:0.58020002 40:0.87900001 41:0.375 42:1.104 43:0.26789999 44:0.4795 45:0.20819999 46:0.1468 47:0.5478 48:0.4522 49:0.28839999 50:0.15189999 51:0.1365 #
4.1945277163861237 1:0.31077039 2:0.11553 3:0.48629999 4:0.2418 5:0.5948 6:0.69199997 7:0.074000001 8:0.25600001 9:0.74349999 10:1.352 11:1.0409 12:1.735 13:0.5948 14:1.652 15:0.70630002 16:0.84100002 17:0.223 18:1.115 19:0.33500001 20:0.74299997 21:0.81779999 22:1.239 23:1.2639 24:1.7079999 25:0.40889999 26:2.405 27:0.44600001 28:1.0369999 29:0.223 30:0.42899999 31:0.40900001 32:1.049 33:0.51999998 34:1.062 35:0.70630002 36:1.0089999 37:0.223 38:0.366 39:0.223 40:0.338 41:0.37200001 42:1.0930001 43:0.2305 44:0.39410001 45:0.1822 46:0.12639999 47:0.48699999 48:0.51300001 49:0.3346 50:0.1561 51:0.17839999 #
-4.1945277163861237 1:0.4187285 2:0.11317 3:0.99883002 4:0.7098 5:0.97299999 6:1.131 7:0.027000001 8:0.093000002 9:0.48649999 10:0.88499999 11:0.48649999 12:0.81099999 13:0.59460002 14:1.652 15:0.59460002 16:0.708 17:0.13500001 18:0.676 19:0.83780003 20:1.862 21:0.64859998 22:0.98299998 23:0.94590002 24:1.278 25:0.324 26:1.908 27:0.2703 28:0.62900001 29:0.29730001 30:0.57200003 31:0.2703 32:0.69300002 33:0.59460002 34:1.2130001 35:0.59460002 36:0.84899998 37:0.59460002 38:0.97500002 39:0.7568 40:1.147 41:0.29699999 42:0.87400001 43:0.2784 44:0.45950001 45:0.25409999 46:0.12970001 47:0.59189999 48:0.40810001 49:0.2351 50:0.13779999 51:0.0973 #
4.1945277163861237 1:0.47404811 2:0.11423 3:0.80589998 4:0.51490003 5:0.72289997 6:0.84100002 7:0.26499999 8:0.91399997 9:0.53009999 10:0.96399999 11:0.6024 12:1.0039999 13:0.55419999 14:1.539 15:0.53009999 16:0.63099998 17:0.31330001 18:1.566 19:0.43399999 20:0.96399999 21:0.5783 22:0.87599999 23:1.1806999 24:1.596 25:0.241 26:1.4170001 27:0.31299999 28:0.72799999 29:0.50599998 30:0.97299999 31:0.31299999 32:0.80299997 33:0.62699997 34:1.279 35:0.62650001 36:0.89499998 37:0.31299999 38:0.514 39:0.79519999 40:1.205 41:0.43399999 42:1.276 43:0.2458 44:0.46020001 45:0.241 46:0.14219999 47:0.5783 48:0.4217 49:0.2651 50:0.15180001 51:0.1133 #
-4.1945277163861237 1:0.26683339 2:0.10936 3:0.75568998 4:0.16500001 5:1.0656 6:1.239 7:0.123 8:0.42399999 9:0.73769999 10:1.341 11:0.61479998 12:1.025 13:0.3689 14:1.025 15:0.73769999 16:0.87800002 17:0.205 18:1.025 19:0.49180001 20:1.0930001 21:0.77869999 22:1.1799999 23:0.94260001 24:1.274 25:0.164 26:0.96399999 27:0.49180001 28:1.1440001 29:0.53280002 30:1.025 31:0.24590001 32:0.63099998 33:0.57380003 34:1.171 35:0.53280002 36:0.76099998 37:0.4508 38:0.73900002 39:0.69669998 40:1.056 41:0.164 42:0.48199999 43:0.29100001 44:0.53689998 45:0.2131 46:0.082000002 47:0.53689998 48:0.46309999 49:0.29100001 50:0.1557 51:0.1353 #
4.1945277163861237 1:0.79097372 2:0.11316 3:0.51859999 4:1.1536 5:0.77249998 6:0.898 7:0.229 8:0.78899997 9:0.60089999 10:1.092 11:0.8441 12:1.4069999 13:0.5722 14:1.59 15:0.80110002 16:0.954 17:0.1717 18:0.85799998 19:0.63 20:1.399 21:0.58660001 22:0.889 23:0.97280002 24:1.3150001 25:0.1144 26:0.67299998 27:0.472 28:1.098 29:0.35769999 30:0.68800002 31:0.329 32:0.84399998 33:0.60100001 34:1.226 35:0.51499999 36:0.736 37:0.54400003 38:0.89099997 39:0.3863 40:0.58499998 41:0.27200001 42:0.79900002 43:0.2861 44:0.46779999 45:0.1989 46:0.1245 47:0.53359997 48:0.4664 49:0.28040001 50:0.13590001 51:0.1445 #
-4.1945277163861237 1:0.30688581 2:0.1073 3:0.92962998 4:0.46939999 5:1.1888 6:1.382 7:0.14 8:0.48199999 9:0.27970001 10:0.509 11:0.31470001 12:0.52399999 13:0.66430002 14:1.845 15:1.1188999 16:1.332 17:0.245 18:1.224 19:0.80419999 20:1.7869999 21:0.41960001 22:0.63599998 23:0.73430002 24:0.99199998 25:0.175 26:1.028 27:0.2448 28:0.56900001 29:0.59439999 30:1.143 31:0.2448 32:0.62800002 33:0.38460001 34:0.78500003 35:0.55940002 36:0.79900002 37:0.52450001 38:0.86000001 39:0.80419999 40:1.2180001 41:0.34999999 42:1.028 43:0.35319999 44:0.54549998 45:0.2343 46:0.1469 47:0.67830002 48:0.32170001 49:0.16429999 50:0.1049 51:0.0594 #
4.1945277163861237 1:0.8188982 2:0.11469 3:0.53460002 4:1.192 5:0.54619998 6:0.63499999 7:0.154 8:0.53100002 9:0.65829998 10:1.197 11:0.77029997 12:1.284 13:0.61619997 14:1.712 15:0.71429998 16:0.85000002 17:0.1261 18:0.63 19:0.44800001 20:0.99599999 21:0.51819998 22:0.78500003 23:1.0224 24:1.382 25:0.22409999 26:1.318 27:0.39199999 28:0.912 29:0.35010001 30:0.67299998 31:0.36399999 32:0.93400002 33:0.72799999 34:1.4859999 35:0.68629998 36:0.98000002 37:0.50400001 38:0.82700002 39:0.64429998 40:0.97600001 41:0.308 42:0.90600002 43:0.26050001 44:0.465 45:0.2115 46:0.1275 47:0.52520001 48:0.47479999 49:0.28009999 50:0.1373 51:0.1429 #
-4.1945277163861237 1:1.047191 2:0.11 3:0.66689003 4:1.1152 5:0.99790001 6:1.16 7:0.083999999 8:0.28999999 9:0.4937 10:0.898 11:0.66180003 12:1.103 13:0.42019999 14:1.1670001 15:0.75629997 16:0.89999998 17:0.23100001 18:1.155 19:0.88239998 20:1.961 21:0.61970001 22:0.93900001 23:0.99790001 24:1.349 25:0.26300001 26:1.545 27:0.3466 28:0.80599999 29:0.36759999 30:0.70700002 31:0.31510001 32:0.80800003 33:0.44119999 34:0.89999998 35:0.55669999 36:0.79500002 37:0.52520001 38:0.861 39:0.70380002 40:1.066 41:0.168 42:0.49399999 43:0.292 44:0.48320001 45:0.25839999 46:0.098700002 47:0.58090001 48:0.41909999 49:0.2448 50:0.1292 51:0.1156 #
4.1945277163861237 1:0.79877973 2:0.11428 3:0.46070001 4:1.1664 5:0.65810001 6:0.76499999 7:0.215 8:0.74000001 9:0.68669999 10:1.249 11:0.97280002 12:1.6210001 13:0.5722 14:1.59 15:0.72960001 16:0.86900002 17:0.14309999 18:0.71499997 19:0.68699998 20:1.526 21:0.58660001 22:0.889 23:0.95850003 24:1.295 25:0.14309999 26:0.84200001 27:0.38600001 28:0.898 29:0.34330001 30:0.66000003 31:0.37200001 32:0.954 33:0.58700001 34:1.197 35:0.5722 36:0.81699997 37:0.51499999 38:0.84399998 39:0.35769999 40:0.542 41:0.28600001 42:0.84200001 43:0.26899999 44:0.44639999 45:0.20029999 46:0.123 47:0.51789999 48:0.48210001 49:0.2976 50:0.13160001 51:0.16599999 #
-4.1945277163861237 1:0.32651171 2:0.11377 3:0.44233 4:0.3186 5:0.5923 6:0.68900001 7:0 8:0 9:0.94080001 10:1.71 11:0.94080001 12:1.568 13:0.2439 14:0.67799997 15:0.3484 16:0.41499999 17:0.20900001 18:1.045 19:0.4878 20:1.084 21:1.0453 22:1.584 23:0.662 24:0.89499998 25:0.41800001 26:2.46 27:0.5575 28:1.296 29:0.5575 30:1.072 31:0.38330001 32:0.98299998 33:0.1045 34:0.213 35:1.0453 36:1.493 37:0.38330001 38:0.62800002 39:0.45300001 40:0.68599999 41:0.55800003 42:1.64 43:0.2369 44:0.4878 45:0.1603 46:0.108 47:0.43900001 48:0.56099999 49:0.324 50:0.13590001 51:0.1882 #
4.1945277163861237 1:0.86863053 2:0.1146 3:0.51310003 4:1.2176 5:0.51450002 6:0.59799999 7:0.17200001 8:0.59100002 9:0.71240002 10:1.295 11:0.69919997 12:1.165 13:0.51450002 14:1.429 15:0.63319999 16:0.75400001 17:0.1715 18:0.85799998 19:0.59399998 20:1.319 21:0.55409998 22:0.83999997 23:0.8707 24:1.177 25:0.2243 26:1.319 27:0.60699999 28:1.411 29:0.50129998 30:0.96399999 31:0.449 32:1.15 33:0.59399998 34:1.212 35:0.59369999 36:0.84799999 37:0.47499999 38:0.77899998 39:0.59369999 40:0.89899999 41:0.317 42:0.93099999 43:0.2388 44:0.48019999 45:0.2058 46:0.1214 47:0.51450002 48:0.48550001 49:0.27309999 50:0.1319 51:0.14120001 #
-4.1945277163861237 1:0.34571391 2:0.10351 3:0.41751 4:0.33140001 5:1.4671 6:1.706 7:0.029999999 8:0.103 9:0.53890002 10:0.98000002 11:0.2994 12:0.49900001 13:0.32929999 14:0.91500002 15:1.0778 16:1.283 17:0.12 18:0.59899998 19:0.509 20:1.131 21:0.2395 22:0.36300001 23:0.71859998 24:0.97100002 25:0.18000001 26:1.057 27:0.5988 28:1.393 29:0.479 30:0.921 31:0.53890002 32:1.382 33:0.1497 34:0.30599999 35:0.7784 36:1.112 37:0.56889999 38:0.93300003 39:0.80839998 40:1.225 41:0.509 42:1.497 43:0.39219999 44:0.6347 45:0.2036 46:0.1018 47:0.61680001 48:0.38319999 49:0.1347 50:0.050900001 51:0.083800003 #
4.1945277163861237 1:0.935606 2:0.11551 3:0.57020003 4:1.3513 5:0.62959999 6:0.73199999 7:0.185 8:0.639 9:0.65429997 10:1.1900001 11:0.91360003 12:1.523 13:0.49380001 14:1.372 15:0.59259999 16:0.70499998 17:0.23459999 18:1.173 19:0.704 20:1.564 21:0.76539999 22:1.16 23:0.67900002 24:0.91799998 25:0.28400001 26:1.67 27:0.50599998 28:1.177 29:0.3457 30:0.66500002 31:0.30899999 32:0.79100001 33:0.56800002 34:1.159 35:0.59259999 36:0.847 37:0.55599999 38:0.91100001 39:0.40740001 40:0.61699998 41:0.37 42:1.089 43:0.25560001 44:0.44690001 45:0.17900001 46:0.1309 47:0.4901 48:0.50989997 49:0.3136 50:0.1568 51:0.1568 #
-4.1945277163861237 1:0.60361707 2:0.10779 3:0.70006001 4:0.6785 5:1.1429 6:1.329 7:0.107 8:0.36899999 9:0.66070002 10:1.201 11:0.5 12:0.833 13:0.33930001 14:0.94199997 15:0.83929998 16:0.99900001 17:0.161 18:0.80400002 19:0.44639999 20:0.99199998 21:0.625 22:0.94700003 23:0.80360001 24:1.086 25:0.17900001 26:1.05 27:0.42860001 28:0.99699998 29:0.5 30:0.96200001 31:0.1964 32:0.50400001 33:0.5 34:1.02 35:0.5 36:0.71399999 37:0.69639999 38:1.142 39:0.98210001 40:1.488 41:0.23199999 42:0.68300003 43:0.32859999 44:0.58569998 45:0.22319999 46:0.089299999 47:0.57319999 48:0.42680001 49:0.2446 50:0.1286 51:0.1161 #
4.1945277163861237 1:0.94127148 2:0.11465 3:0.59899998 4:1.2873 5:0.5359 6:0.62300003 7:0.19499999 8:0.67199999 9:0.73079997 10:1.329 11:0.73079997 12:1.2180001 13:0.54809999 14:1.523 15:0.6821 16:0.81199998 17:0.26800001 18:1.34 19:0.53600001 20:1.191 21:0.6821 22:1.033 23:0.75520003 24:1.021 25:0.26800001 26:1.576 27:0.49900001 28:1.161 29:0.47499999 30:0.91399997 31:0.38999999 32:0.99900001 33:0.56 34:1.143 35:0.58469999 36:0.83499998 37:0.52399999 38:0.85900003 39:0.52380002 40:0.79400003 41:0.30500001 42:0.89600003 43:0.25209999 44:0.47499999 45:0.1815 46:0.1328 47:0.50309998 48:0.49700001 49:0.29719999 50:0.15099999 51:0.1462 #
-4.1945277163861237 1:0.48161331 2:0.1155 3:0.90744001 4:0.458 5:0.93529999 6:1.0880001 7:0.096000001 8:0.331 9:0.45559999 10:0.82800001 11:0.71939999 12:1.199 13:0.81529999 14:2.2650001 15:0.38370001 16:0.45699999 17:0.192 18:0.95899999 19:0.52759999 20:1.1720001 21:0.71939999 22:1.09 23:0.98320001 24:1.329 25:0.23999999 26:1.411 27:0.5036 28:1.171 29:0.57550001 30:1.107 31:0.3118 32:0.79900002 33:0.5995 34:1.224 35:0.52759999 36:0.75400001 37:0.43169999 38:0.708 39:0.45559999 40:0.69 41:0.43200001 42:1.27 43:0.2374 44:0.43650001 45:0.19660001 46:0.15350001 47:0.55400002 48:0.44600001 49:0.26859999 50:0.15109999 51:0.1175 #
4.1945277163861237 1:0.28315631 2:0.10566 3:0.48179999 4:0.26030001 5:0.63429999 6:0.73799998 7:0.112 8:0.38600001 9:0.55970001 10:1.018 11:0.55970001 12:0.93300003 13:0.52240002 14:1.451 15:1.903 16:2.2650001 17:0.14929999 18:0.74599999 19:0.56 20:1.244 21:0.33579999 22:0.509 23:0.82090002 24:1.109 25:0.37310001 26:2.1949999 27:0.52200001 28:1.215 29:0.26120001 30:0.50199997 31:0.336 32:0.861 33:0.48500001 34:0.99000001 35:0.63429999 36:0.90600002 37:0.44800001 38:0.73400003 39:0.4104 40:0.62199998 41:0.26100001 42:0.76800001 43:0.37310001 44:0.5485 45:0.17910001 46:0.1045 47:0.597 48:0.403 49:0.20900001 50:0.097000003 51:0.1119 #
-4.1945277163861237 1:0.4353199 2:0.10938 3:0.65105999 4:0.34279999 5:1.0553 6:1.227 7:0.176 8:0.60600001 9:0.5528 10:1.005 11:0.65329999 12:1.089 13:0.32659999 14:0.90700001 15:0.80400002 16:0.95700002 17:0.30199999 18:1.508 19:0.4774 20:1.061 21:0.52759999 22:0.79900002 23:0.90450001 24:1.222 25:0.42699999 26:2.513 27:0.2764 28:0.64300001 29:0.45230001 30:0.87 31:0.32659999 32:0.838 33:0.52759999 34:1.077 35:0.52759999 36:0.75400001 37:0.5528 38:0.90600002 39:0.80400002 40:1.2180001 41:0.226 42:0.66500002 43:0.3116 44:0.5201 45:0.2186 46:0.0955 47:0.57539999 48:0.42460001 49:0.2563 50:0.1357 51:0.1206 #
4.1945277163861237 1:0.2400995 2:0.11065 3:0.4824 4:0.2674 5:0.7834 6:0.91100001 7:0.184 8:0.63599998 9:0.69120002 10:1.257 11:0.4147 12:0.69099998 13:0.59909999 14:1.664 15:1.1059999 16:1.317 17:0.18430001 18:0.92199999 19:0.461 20:1.024 21:0.32260001 22:0.48899999 23:0.73729998 24:0.99599999 25:0.4147 26:2.4400001 27:0.32300001 28:0.75 29:0.3687 30:0.70899999 31:0.55299997 32:1.418 33:0.461 34:0.94 35:0.64520001 36:0.92199999 37:0.64499998 38:1.058 39:0.46079999 40:0.69800001 41:0.55299997 42:1.626 43:0.3364 44:0.52069998 45:0.16590001 46:0.1429 47:0.57599998 48:0.42399999 49:0.20739999 50:0.096799999 51:0.1106 #
-4.1945277163861237 1:0.34886831 2:0.10572 3:0.95507002 4:0.25459999 5:1.3333 6:1.55 7:0.029999999 8:0.104 9:0.4242 10:0.77100003 11:0.27270001 12:0.45500001 13:0.51520002 14:1.431 15:0.78789997 16:0.93800002 17:0.061000001 18:0.303 19:0.4242 20:0.94300002 21:0.4242 22:0.64300001 23:0.84850001 24:1.147 25:0.242 26:1.426 27:0.69700003 28:1.6210001 29:0.69700003 30:1.34 31:0.18179999 32:0.46599999 33:0.4242 34:0.866 35:0.84850001 36:1.212 37:0.45449999 38:0.745 39:0.93940002 40:1.423 41:0.333 42:0.98000002 43:0.34549999 44:0.62120003 45:0.2212 46:0.097000003 47:0.62120003 48:0.3788 49:0.16060001 50:0.090899996 51:0.069700003 #
4.1945277163861237 1:0.1968727 2:0.11513 3:0.62440002 4:0.1209 5:0.46779999 6:0.54400003 7:0.234 8:0.80699998 9:0.76020002 10:1.382 11:0.2924 12:0.48699999 13:0.99419999 14:2.7620001 15:0.5848 16:0.69599998 17:0.1754 18:0.87699997 19:0.64300001 20:1.429 21:0.117 22:0.177 23:0.87720001 24:1.1849999 25:0.40939999 26:2.408 27:0.70200002 28:1.632 29:0.117 30:0.22499999 31:0.40900001 32:1.05 33:0.81900001 34:1.671 35:0.9357 36:1.337 37:0.58499998 38:0.95899999 39:0.52630001 40:0.79699999 41:0.292 42:0.86000001 43:0.2807 44:0.4912 45:0.20469999 46:0.1521 47:0.5205 48:0.4795 49:0.2164 50:0.1111 51:0.1053 #
-4.1945277163861237 1:0.58277452 2:0.11272 3:0.79552001 4:0.5334 5:0.81239998 6:0.94499999 7:0.17399999 8:0.60000002 9:0.52219999 10:0.94999999 11:0.85110003 12:1.418 13:0.46419999 14:1.289 15:0.56089997 16:0.66799998 17:0.193 18:0.96700001 19:0.32879999 20:0.73100001 21:0.7737 22:1.1720001 23:1.1605 24:1.568 25:0.13500001 26:0.796 27:0.36750001 28:0.85500002 29:0.58029997 30:1.1160001 31:0.30950001 32:0.79400003 33:0.6383 34:1.303 35:0.75440001 36:1.0779999 37:0.36750001 38:0.602 39:0.59960002 40:0.90899998 41:0.28999999 42:0.85299999 43:0.2669 44:0.47389999 45:0.2089 46:0.1064 47:0.52219999 48:0.47780001 49:0.29789999 50:0.1605 51:0.1373 #
4.1945277163861237 1:0.2167632 2:0.10948 3:0.52039999 4:0.2418 5:0.80809999 6:0.94 7:0.25299999 8:0.87099999 9:0.75760001 10:1.377 11:0.2525 12:0.421 13:0.60610002 14:1.684 15:1.2625999 16:1.503 17:0.101 18:0.505 19:0.354 20:0.78600001 21:0.303 22:0.45899999 23:0.6566 24:0.88700002 25:0.35350001 26:2.0799999 27:0.303 28:0.70499998 29:0.55559999 30:1.068 31:0.65700001 32:1.684 33:0.55599999 34:1.1339999 35:0.50510001 36:0.722 37:0.60600001 38:0.99400002 39:0.50510001 40:0.76499999 41:0.505 42:1.485 43:0.3434 44:0.55559999 45:0.1515 46:0.1313 47:0.59600002 48:0.40400001 49:0.197 50:0.096000001 51:0.101 #
-4.1945277163861237 1:0.3580687 2:0.1119 3:0.69972998 4:0.54479998 5:0.84380001 6:0.98100001 7:0.156 8:0.53899997 9:0.59380001 10:1.08 11:0.84380001 12:1.406 13:0.25 14:0.69400001 15:0.75 16:0.89300001 17:0.40599999 18:2.0309999 19:0.46880001 20:1.0420001 21:0.9375 22:1.42 23:0.78130001 24:1.056 25:0.28099999 26:1.654 27:0.375 28:0.87199998 29:0.46880001 30:0.90100002 31:0.21879999 32:0.56099999 33:0.40630001 34:0.829 35:0.4375 36:0.625 37:0.5 38:0.81999999 39:0.8125 40:1.2309999 41:0.219 42:0.64300001 43:0.26879999 44:0.49380001 45:0.20630001 46:0.1125 47:0.52810001 48:0.47189999 49:0.3188 50:0.175 51:0.14380001 #
4.1945277163861237 1:0.68253481 2:0.11189 3:0.51770002 4:0.4253 5:0.65570003 6:0.76200002 7:0.131 8:0.45199999 9:0.72130001 10:1.311 11:0.93440002 12:1.557 13:0.44260001 14:1.23 15:0.67210001 16:0.80000001 17:0.2295 18:1.148 19:0.47499999 20:1.056 21:0.8197 22:1.242 23:0.80330002 24:1.086 25:0.32789999 26:1.929 27:0.23 28:0.53399998 29:0.49180001 30:0.94599998 31:0.32800001 32:0.84100002 33:0.50800002 34:1.0369999 35:0.73769999 36:1.054 37:0.47499999 38:0.77899998 39:0.75410002 40:1.143 41:0.18000001 42:0.52999997 43:0.26719999 44:0.4869 45:0.2033 46:0.093400002 47:0.50160003 48:0.4984 49:0.3213 50:0.1557 51:0.1656 #
-4.1945277163861237 1:0.29533279 2:0.10436 3:1.07067 4:0.20479999 5:0.52999997 6:0.616 7:0 8:0 9:0.035300002 10:0.064000003 11:0.14129999 12:0.236 13:0 14:0 15:0.35339999 16:0.421 17:0.24699999 18:1.237 19:0.070699997 20:0.15700001 21:1.2014 22:1.8200001 23:0.1767 24:0.23899999 25:0.071000002 26:0.41600001 27:0.035300002 28:0.082000002 29:3.9928999 30:7.6789999 31:0.035300002 32:0.090999998 33:0 34:0 35:0.52999997 36:0.75700003 37:1.6253999 38:2.665 39:0.38870001 40:0.58899999 41:0.565 42:1.663 43:0.3039 44:0.74910003 45:0.063600004 46:0.081299998 47:0.61479998 48:0.38519999 49:0.16249999 50:0.14489999 51:0.0177 #
4.1945277163861237 1:0.60572791 2:0.11343 3:0.55720001 4:0.59740001 5:0.61799997 6:0.71899998 7:0.206 8:0.70999998 9:0.61799997 10:1.124 11:0.78649998 12:1.311 13:0.4307 14:1.196 15:0.6742 16:0.80299997 17:0.1873 18:0.93599999 19:0.61799997 20:1.373 21:0.63669997 22:0.96499997 23:0.91759998 24:1.24 25:0.2809 26:1.652 27:0.50599998 28:1.176 29:0.29960001 30:0.57599998 31:0.39300001 32:1.008 33:0.56199998 34:1.147 35:0.65539998 36:0.93599999 37:0.48699999 38:0.79799998 39:0.63669997 40:0.96499997 41:0.375 42:1.102 43:0.264 44:0.47 45:0.2172 46:0.1105 47:0.5169 48:0.48320001 49:0.27900001 50:0.13860001 51:0.14049999 #
-4.1945277163861237 1:0.4664022 2:0.10796 3:0.61815 4:0.5007 5:1.0417 6:1.211 7:0.208 8:0.71799999 9:0.57870001 10:1.052 11:0.60189998 12:1.003 13:0.34720001 14:0.96499997 15:0.87959999 16:1.0470001 17:0.093000002 18:0.463 19:0.50929999 20:1.132 21:0.625 22:0.94700003 23:0.90280002 24:1.22 25:0.185 26:1.089 27:0.41670001 28:0.96899998 29:0.463 30:0.88999999 31:0.32409999 32:0.83099997 33:0.48609999 34:0.99199998 35:0.625 36:0.89300001 37:0.53240001 38:0.87300003 39:0.83329999 40:1.263 41:0.185 42:0.54500002 43:0.32870001 44:0.55790001 45:0.2245 46:0.078699999 47:0.57179999 48:0.42820001 49:0.2384 50:0.1204 51:0.1181 #
4.1945277163861237 1:0.61166412 2:0.11285 3:0.55839998 4:0.54619998 5:0.70109999 6:0.815 7:0.16599999 8:0.57300001 9:0.70109999 10:1.275 11:0.8118 12:1.353 13:0.4059 14:1.128 15:0.71960002 16:0.85699999 17:0.36899999 18:1.845 19:0.68300003 20:1.517 21:0.60890001 22:0.92299998 23:0.92250001 24:1.247 25:0.23989999 26:1.411 27:0.38800001 28:0.90100002 29:0.3506 30:0.67400002 31:0.36899999 32:0.94599998 33:0.53500003 34:1.092 35:0.53509998 36:0.764 37:0.40599999 38:0.66500002 39:0.68269998 40:1.034 41:0.29499999 42:0.86799997 43:0.25279999 44:0.46489999 45:0.2288 46:0.1181 47:0.52770001 48:0.47229999 49:0.3026 50:0.1513 51:0.1513 #
-4.1945277163861237 1:0.69377428 2:0.10908 3:0.66060001 4:0.6742 5:1.1478 6:1.335 7:0.15700001 8:0.542 9:0.3459 10:0.62900001 11:0.75470001 12:1.258 13:0.3459 14:0.96100003 15:0.78619999 16:0.93599999 17:0.142 18:0.708 19:0.47170001 20:1.048 21:0.53460002 22:0.81 23:0.97479999 24:1.317 25:0.22 26:1.295 27:0.33019999 28:0.76800001 29:0.53460002 30:1.028 31:0.33019999 32:0.847 33:0.50309998 34:1.027 35:0.56599998 36:0.80900002 37:0.58179998 38:0.954 39:0.77039999 40:1.1670001 41:0.40900001 42:1.202 43:0.32390001 44:0.52200001 45:0.2217 46:0.099100001 47:0.59119999 48:0.40880001 49:0.228 50:0.1179 51:0.1101 #
4.1945277163861237 1:0.57168901 2:0.11254 3:0.50209999 4:0.52060002 5:0.62989998 6:0.73199999 7:0.138 8:0.47499999 9:0.82679999 10:1.503 11:0.8071 12:1.345 13:0.41339999 14:1.148 15:0.74800003 16:0.89099997 17:0.2362 18:1.181 19:0.66900003 20:1.487 21:0.72829998 22:1.104 23:0.94489998 24:1.277 25:0.27559999 26:1.6210001 27:0.29499999 28:0.68699998 29:0.315 30:0.60600001 31:0.29499999 32:0.75700003 33:0.53200001 34:1.085 35:0.66930002 36:0.95599997 37:0.45300001 38:0.74199998 39:0.62989998 40:0.954 41:0.27599999 42:0.81099999 43:0.2638 44:0.47049999 45:0.2244 46:0.1043 47:0.5158 48:0.48429999 49:0.31299999 50:0.1496 51:0.16339999 #
-4.1945277163861237 1:0.32519501 2:0.10593 3:0.47663 4:0.40540001 5:1.5635 6:1.818 7:0.13 8:0.449 9:0.6189 10:1.125 11:0.87949997 12:1.466 13:0.228 14:0.63300002 15:1.1401 16:1.357 17:0.228 18:1.14 19:0.2606 20:0.579 21:0.1954 22:0.296 23:0.87949997 24:1.188 25:0.13 26:0.76599997 27:0.065099999 28:0.152 29:0.55369997 30:1.0650001 31:0.1954 32:0.50099999 33:0.84689999 34:1.728 35:0.4235 36:0.60500002 37:0.39089999 38:0.64099997 39:0.91210002 40:1.382 41:0.163 42:0.479 43:0.36480001 44:0.57980001 45:0.2052 46:0.0814 47:0.61559999 48:0.38440001 49:0.27689999 50:0.127 51:0.1498 #
4.1945277163861237 1:0.60064971 2:0.1129 3:0.65210003 4:0.47080001 5:0.63910002 6:0.74299997 7:0.15000001 8:0.51899999 9:0.63910002 10:1.1619999 11:0.7895 12:1.316 13:0.39469999 14:1.096 15:0.71429998 16:0.85000002 17:0.2256 18:1.128 19:0.602 20:1.337 21:0.7331 22:1.1109999 23:0.77069998 24:1.041 25:0.3195 26:1.88 27:0.31999999 28:0.74299997 29:0.33829999 30:0.65100002 31:0.52600002 32:1.35 33:0.583 34:1.189 35:0.8459 36:1.2079999 37:0.37599999 38:0.616 39:0.60149997 40:0.91100001 41:0.35699999 42:1.05 43:0.2726 44:0.46239999 45:0.1974 46:0.1053 47:0.4962 48:0.50379997 49:0.29699999 50:0.1541 51:0.1429 #
-4.1945277163861237 1:0.1636024 2:0.097379997 3:0.48901001 4:0.2418 5:0.53570002 6:0.62300003 7:0.059999999 8:0.205 9:0.35710001 10:0.64899999 11:0.5952 12:0.99199998 13:0.35710001 14:0.99199998 15:3.869 16:4.6059999 17:0 18:0 19:0.23810001 20:0.52899998 21:0.119 22:0.18000001 23:0.23810001 24:0.322 25:0.17900001 26:1.05 27:0.5952 28:1.3839999 29:0 30:0 31:0.2976 32:0.76300001 33:0.71429998 34:1.4579999 35:0.41670001 36:0.59500003 37:0.35710001 38:0.58499998 39:0.35710001 40:0.54100001 41:0.59500003 42:1.751 43:0.52380002 44:0.6548 45:0.083300002 46:0.1071 47:0.6548 48:0.3452 49:0.1786 50:0.083300002 51:0.095200002 #
4.1945277163861237 1:0.59521711 2:0.11167 3:0.62589997 4:0.47080001 5:0.75050002 6:0.87300003 7:0.15000001 8:0.51800001 9:0.61909997 10:1.126 11:0.76920003 12:1.2819999 13:0.33770001 14:0.93800002 15:0.7317 16:0.87099999 17:0.2251 18:1.126 19:0.61900002 20:1.376 21:0.7317 22:1.109 23:0.71289998 24:0.963 25:0.39399999 26:2.3180001 27:0.35699999 28:0.829 29:0.50660002 30:0.97399998 31:0.375 32:0.96200001 33:0.50700003 34:1.034 35:0.69419998 36:0.99199998 37:0.46900001 38:0.76899999 39:0.61909997 40:0.93800002 41:0.35699999 42:1.048 43:0.27959999 44:0.48969999 45:0.19509999 46:0.099399999 47:0.52530003 48:0.4747 49:0.2852 50:0.1463 51:0.1388 #
-4.1945277163861237 1:0.210614 2:0.12174 3:0.89613998 4:0.1849 5:0.057799999 6:0.067000002 7:0.116 8:0.39899999 9:0.3468 10:0.63099998 11:0.6358 12:1.0599999 13:1.0983 14:3.0510001 15:0.057799999 16:0.068999998 17:0.347 18:1.734 19:0.9249 20:2.0550001 21:0.6358 22:0.963 23:1.2717 24:1.7180001 25:0.116 26:0.68000001 27:0.6936 28:1.613 29:0.52020001 30:1 31:0.52020001 32:1.334 33:0.52020001 34:1.062 35:0.9249 36:1.321 37:0.057799999 38:0.094999999 39:0.52020001 40:0.78799999 41:0.57800001 42:1.7 43:0.1214 44:0.32949999 45:0.27169999 46:0.20810001 47:0.53179997 48:0.4682 49:0.24860001 50:0.1503 51:0.098300003 #
4.1945277163861237 1:0.1924452 2:0.11524 3:0.45730001 4:0.025599999 5:0.71859998 6:0.83600003 7:0.059999999 8:0.206 9:1.0778 10:1.96 11:1.1377 12:1.896 13:0.479 14:1.331 15:0.65869999 16:0.78399998 17:0.1796 18:0.898 19:0.778 20:1.73 21:0.7784 22:1.179 23:0.4192 24:0.56599998 25:0.5988 26:3.5220001 27:0.359 28:0.83600003 29:0.1198 30:0.23 31:0.479 32:1.228 33:0.778 34:1.589 35:0.35929999 36:0.51300001 37:0.53899997 38:0.88300002 39:0.35929999 40:0.54400003 41:0.12 42:0.352 43:0.2335 44:0.42519999 45:0.1557 46:0.077799998 47:0.43110001 48:0.56889999 49:0.39520001 50:0.1737 51:0.2216 #
-4.1945277163861237 1:1.5911132 2:0.11261 3:0.65723997 4:1.5732 5:0.60860002 6:0.708 7:0.333 8:1.147 9:0.41049999 10:0.74599999 11:0.8563 12:1.427 13:0.32550001 14:0.90399998 15:0.51660001 16:0.61500001 17:0.248 18:1.238 19:0.45289999 20:1.007 21:0.67940003 22:1.029 23:1.4225 24:1.9220001 25:0.219 26:1.291 27:0.31850001 28:0.741 29:0.55909997 30:1.075 31:0.3822 32:0.98000002 33:0.47420001 34:0.96799999 35:0.7148 36:1.021 37:0.42460001 38:0.69599998 39:0.67229998 40:1.0190001 41:0.241 42:0.708 43:0.2597 44:0.4558 45:0.25479999 46:0.0955 47:0.5492 48:0.4508 49:0.26679999 50:0.1401 51:0.1267 #
4.1945277163861237 1:0.1945889 2:0.11514 3:0.44240001 4:0.0128 5:0.65090001 6:0.75700003 7:0 8:0 9:1.0651 10:1.937 11:1.4201 12:2.3670001 13:0.53250003 14:1.479 15:0.59170002 16:0.704 17:0 18:0 19:0.76899999 20:1.709 21:1.0651 22:1.614 23:0.7101 24:0.95999998 25:0.4734 26:2.7850001 27:0.237 28:0.55000001 29:0.0592 30:0.114 31:0.237 32:0.60699999 33:0.70999998 34:1.449 35:0.4734 36:0.676 37:0.65100002 38:1.067 39:0.29589999 40:0.44800001 41:0.059 42:0.17399999 43:0.2367 44:0.40239999 45:0.17749999 46:0.0592 47:0.41420001 48:0.58579999 49:0.426 50:0.17749999 51:0.2485 #
-4.1945277163861237 1:0.76201409 2:0.10687 3:0.68235999 4:0.64999998 5:0.40669999 6:0.47299999 7:0.112 8:0.38699999 9:0.070100002 10:0.12800001 11:0.32260001 12:0.53799999 13:0.028100001 14:0.078000002 15:1.8372999 16:2.187 17:0.22400001 18:1.122 19:0.14030001 20:0.31200001 21:0.12620001 22:0.191 23:0.37869999 24:0.51200002 25:0.07 26:0.41299999 27:0.014 28:0.033 29:1.136 30:2.1849999 31:3.2398 32:8.3070002 33:0.1964 34:0.40099999 35:0.56099999 36:0.801 37:0.37869999 38:0.62099999 39:0.2384 40:0.361 41:0.463 42:1.3609999 43:0.32960001 44:0.47549999 45:0.0757 46:0.077100001 47:0.4867 48:0.5133 49:0.093999997 50:0.054699998 51:0.039299998 #
4.1945277163861237 1:0.19396821 2:0.11477 3:0.45429999 4:0.025599999 5:0.59170002 6:0.68800002 7:0 8:0 9:1.0651 10:1.937 11:1.2426 12:2.0710001 13:0.59170002 14:1.6440001 15:0.76920003 16:0.91600001 17:0 18:0 19:0.65100002 20:1.446 21:1.1243 22:1.7029999 23:0.7101 24:0.95999998 25:0.4734 26:2.7850001 27:0.237 28:0.55000001 29:0.0592 30:0.114 31:0.35499999 32:0.91000003 33:0.65100002 34:1.3279999 35:0.41420001 36:0.59200001 37:0.65100002 38:1.067 39:0.29589999 40:0.44800001 41:0.118 42:0.34799999 43:0.24259999 44:0.40830001 45:0.1657 46:0.071000002 47:0.426 48:0.574 49:0.40830001 50:0.17749999 51:0.2308 #
-4.1945277163861237 1:0.81339759 2:0.10619 3:0.63497001 4:0.85479999 5:0.31330001 6:0.36399999 7:0.052000001 8:0.18000001 9:0.065300003 10:0.119 11:0.2219 12:0.37 13:0.052200001 14:0.145 15:1.9974 16:2.378 17:0.064999998 18:0.32600001 19:0.065300003 20:0.145 21:0.1175 22:0.178 23:0.40470001 24:0.54699999 25:0.026000001 26:0.154 27:0 28:0 29:1.4099 30:2.711 31:3.2637 32:8.368 33:0.1305 34:0.266 35:0.50910002 36:0.727 37:0.40470001 38:0.66299999 39:0.2089 40:0.31600001 41:0.63999999 42:1.881 43:0.32769999 44:0.49610001 45:0.067900002 46:0.080899999 47:0.52219999 48:0.47780001 49:0.0601 50:0.031300001 51:0.0287 #
4.1945277163861237 1:0.20237599 2:0.11499 3:0.44589999 4:0.0128 5:0.85229999 6:0.991 7:0 8:0 9:1.0227 10:1.86 11:1.3068 12:2.178 13:0.625 14:1.7359999 15:0.51139998 16:0.60900003 17:0.1136 18:0.56800002 19:0.90899998 20:2.02 21:0.625 22:0.94700003 23:0.68180001 24:0.921 25:0.3409 26:2.0050001 27:0.28400001 28:0.66100001 29:0.1705 30:0.32800001 31:0.227 32:0.583 33:0.96600002 34:1.971 35:0.68180001 36:0.97399998 37:0.34099999 38:0.55900002 39:0.2841 40:0.43000001 41:0.057 42:0.167 43:0.2386 44:0.41479999 45:0.1875 46:0.079599999 47:0.44319999 48:0.55680001 49:0.4034 50:0.1705 51:0.233 #
-4.1945277163861237 1:0.85651881 2:0.10774 3:0.90161997 4:1.2033 5:0.37740001 6:0.43900001 7:0.050000001 8:0.17299999 9:0.062899999 10:0.114 11:0.1761 12:0.294 13:0.050299998 14:0.14 15:1.7862 16:2.1259999 17:0.025 18:0.126 19:0.050299998 20:0.112 21:0.075499997 22:0.114 23:0.32699999 24:0.442 25:0.050000001 26:0.296 27:0 28:0 29:1.1698 30:2.25 31:3.3208001 32:8.5150003 33:0.2642 34:0.53899997 35:0.86790001 36:1.24 37:0.36480001 38:0.59799999 39:0.18870001 40:0.28600001 41:0.67900002 42:1.998 43:0.34470001 44:0.48679999 45:0.056600001 46:0.086800002 47:0.48429999 48:0.51569998 49:0.060400002 50:0.036499999 51:0.0239 #
4.1945277163861237 1:0.19738381 2:0.11476 3:0.46239999 4:0.0128 5:0.58139998 6:0.676 7:0 8:0 9:0.8721 10:1.586 11:1.3953 12:2.326 13:0.58139998 14:1.615 15:0.58139998 16:0.69199997 17:0 18:0 19:0.523 20:1.163 21:1.3953 22:2.1140001 23:0.75580001 24:1.021 25:0.58139998 26:3.4200001 27:0.29100001 28:0.676 29:0.1744 30:0.33500001 31:0.34900001 32:0.89399999 33:0.40700001 34:0.83099997 35:0.58139998 36:0.83099997 37:0.58099997 38:0.95300001 39:0.29069999 40:0.44 41:0.057999998 42:0.171 43:0.2326 44:0.39539999 45:0.15700001 46:0.064000003 47:0.41280001 48:0.58719999 49:0.40700001 50:0.1802 51:0.22669999 #
-4.1945277163861237 1:0.83613259 2:0.11581 3:0.45609 4:0.89609998 5:0.40169999 6:0.46700001 7:0.097000003 8:0.33399999 9:0.4571 10:0.83099997 11:0.65100002 12:1.085 13:0.48480001 14:1.347 15:0.2493 16:0.29699999 17:0.111 18:0.55400002 19:0.7202 20:1.6 21:0.29089999 22:0.44100001 23:0.80330002 24:1.086 25:0.125 26:0.73299998 27:0.83099997 28:1.933 29:1.0388 30:1.998 31:1.205 32:3.0899999 33:0.4571 34:0.93300003 35:0.80330002 36:1.148 37:0.30469999 38:0.5 39:0.4294 40:0.65100002 41:0.41600001 42:1.222 43:0.1856 44:0.4612 45:0.1953 46:0.1136 47:0.48890001 48:0.51109999 49:0.19670001 50:0.085900001 51:0.1108 #
4.1945277163861237 1:0.1960825 2:0.114 3:0.48930001 4:0.0128 5:0.69770002 6:0.81099999 7:0 8:0 9:0.93019998 10:1.691 11:1.0465 12:1.744 13:0.63950002 14:1.776 15:0.63950002 16:0.76099998 17:0.0581 18:0.29100001 19:0.75599998 20:1.6799999 21:1.2790999 22:1.938 23:0.69770002 24:0.94300002 25:0.58139998 26:3.4200001 27:0.40700001 28:0.94599998 29:0.0581 30:0.112 31:0.465 32:1.193 33:0.40700001 34:0.83099997 35:0.69770002 36:0.99699998 37:0.40700001 38:0.667 39:0.1744 40:0.264 41:0.057999998 42:0.171 43:0.24420001 44:0.4012 45:0.1628 46:0.075599998 47:0.43020001 48:0.56980002 49:0.3721 50:0.1744 51:0.19769999 #
-4.1945277163861237 1:0.55306119 2:0.10866 3:0.56290001 4:0.2176 5:1.002 6:1.165 7:0.097999997 8:0.33899999 9:0.47150001 10:0.85699999 11:0.70730001 12:1.179 13:0.27500001 14:0.764 15:0.8251 16:0.98199999 17:0.079000004 18:0.39300001 19:0.66799998 20:1.484 21:0.45190001 22:0.685 23:0.96270001 24:1.301 25:0.236 26:1.387 27:0.33399999 28:0.77700001 29:0.45190001 30:0.86900002 31:0.5108 32:1.3099999 33:0.62870002 34:1.283 35:0.68760002 36:0.98199999 37:0.4912 38:0.80500001 39:0.7859 40:1.191 41:0.33399999 42:0.98199999 43:0.31040001 44:0.5147 45:0.24169999 46:0.068800002 47:0.56389999 48:0.43619999 49:0.23379999 50:0.1159 51:0.1179 #
4.1945277163861237 1:0.1933371 2:0.11508 3:0.44760001 4:0.0128 5:0.83329999 6:0.96899998 7:0 8:0 9:1.0714 10:1.948 11:1.4286 12:2.381 13:0.6548 14:1.819 15:0.6548 16:0.77899998 17:0 18:0 19:0.59500003 20:1.323 21:1.131 22:1.714 23:0.5952 24:0.80400002 25:0.5952 26:3.5009999 27:0.17900001 28:0.41499999 29:0.059500001 30:0.114 31:0.23800001 32:0.611 33:0.71399999 34:1.4579999 35:0.47620001 36:0.68000001 37:0.53600001 38:0.87800002 39:0.1786 40:0.271 41:0.059999999 42:0.175 43:0.25 44:0.39879999 45:0.13689999 46:0.071400002 47:0.4226 48:0.57740003 49:0.43450001 50:0.18449999 51:0.25 #
-4.1945277163861237 1:0.4860729 2:0.11304 3:0.91420001 4:0.59600002 5:0.7209 6:0.838 7:0.163 8:0.56099999 9:0.41859999 10:0.76099998 11:0.6512 12:1.085 13:0.41859999 14:1.163 15:0.83719999 16:0.99699998 17:0.34900001 18:1.744 19:0.41859999 20:0.93000001 21:0.48840001 22:0.74000001 23:1.186 24:1.603 25:0.37200001 26:2.1889999 27:0.1628 28:0.37900001 29:0.55809999 30:1.073 31:0.41859999 32:1.073 33:0.76740003 34:1.566 35:0.46509999 36:0.66399997 37:0.53490001 38:0.87699997 39:0.6279 40:0.95099998 41:0.25600001 42:0.75199997 43:0.2721 44:0.4488 45:0.2233 46:0.1209 47:0.57440001 48:0.42559999 49:0.2674 50:0.1605 51:0.107 #
4.1945277163861237 1:0.1957003 2:0.11378 3:0.45089999 4:0.0128 5:0.69770002 6:0.81099999 7:0 8:0 9:0.93019998 10:1.691 11:1.3953 12:2.326 13:0.58139998 14:1.615 15:0.63950002 16:0.76099998 17:0 18:0 19:0.40700001 20:0.90399998 21:1.2209001 22:1.85 23:0.75580001 24:1.021 25:0.46509999 26:2.7360001 27:0.29100001 28:0.676 29:0.2326 30:0.447 31:0.29100001 32:0.745 33:0.523 34:1.068 35:0.52329999 36:0.74800003 37:0.523 38:0.85799998 39:0.46509999 40:0.70499998 41:0.057999998 42:0.171 43:0.2384 44:0.43020001 45:0.1628 46:0.064000003 47:0.43020001 48:0.56980002 49:0.40700001 50:0.1744 51:0.2326 #
-4.1945277163861237 1:0.49433309 2:0.11364 3:0.72043002 4:0.58319998 5:0.5977 6:0.69499999 7:0.138 8:0.47600001 9:0.4598 10:0.83600003 11:0.7816 12:1.303 13:0.4138 14:1.149 15:0.68970001 16:0.82099998 17:0.322 18:1.609 19:0.50569999 20:1.124 21:0.48280001 22:0.73100001 23:1.0805 24:1.46 25:0.50599998 26:2.9749999 27:0.2299 28:0.53500003 29:0.5517 30:1.061 31:0.2529 32:0.648 33:0.71259999 34:1.454 35:0.6207 36:0.88700002 37:0.48280001 38:0.79100001 39:0.7586 40:1.149 41:0.23 42:0.676 43:0.2529 44:0.45289999 45:0.23450001 46:0.1149 47:0.56550002 48:0.43450001 49:0.27590001 50:0.1517 51:0.1241 #
4.1945277163861237 1:0.18751 2:0.11647 3:0.41769999 4:0.064000003 5:0.4348 6:0.50599998 7:0.061999999 8:0.214 9:1.118 10:2.033 11:1.3043 12:2.174 13:0.55900002 14:1.553 15:0.55900002 16:0.66500002 17:0.18629999 18:0.93199998 19:0.745 20:1.656 21:0.74529999 22:1.1289999 23:1.2422 24:1.679 25:0.37270001 26:2.1919999 27:0.435 28:1.011 29:0.18629999 30:0.35800001 31:0.248 32:0.63700002 33:0.49700001 34:1.0140001 35:0.55900002 36:0.79900002 37:0.248 38:0.40700001 39:0.18629999 40:0.28200001 41:0.31099999 42:0.91299999 43:0.18629999 44:0.37889999 45:0.2174 46:0.1056 47:0.46579999 48:0.53420001 49:0.38510001 50:0.1429 51:0.2422 #
-4.1945277163861237 1:0.60641921 2:0.11485 3:0.95333999 4:1.0384001 5:0.7008 6:0.815 7:0.075999998 8:0.26100001 9:0.322 10:0.58499998 11:0.71969998 12:1.199 13:0.5492 14:1.526 15:0.66289997 16:0.78899997 17:0.322 18:1.61 19:0.66289997 20:1.473 21:0.47350001 22:0.71700001 23:1.1553 24:1.561 25:0.303 26:1.783 27:0.51139998 28:1.189 29:0.56819999 30:1.0930001 31:0.303 32:0.77700001 33:0.71969998 34:1.469 35:0.51139998 36:0.73100001 37:0.5492 38:0.89999998 39:0.39770001 40:0.60299999 41:0.189 42:0.55699998 43:0.25 44:0.42989999 45:0.2216 46:0.1364 47:0.55680001 48:0.44319999 49:0.25569999 50:0.1515 51:0.1042 #
4.1945277163861237 1:0.20569959 2:0.1124 3:0.4233 4:0.025599999 5:0.8743 6:1.017 7:0 8:0 9:1.0383 10:1.888 11:0.8743 12:1.457 13:0.65570003 14:1.821 15:0.54640001 16:0.65100002 17:0 18:0 19:0.546 20:1.214 21:0.8197 22:1.242 23:0.71039999 24:0.95999998 25:0.38249999 26:2.25 27:0.273 28:0.63499999 29:0.43720001 30:0.84100002 31:0.81999999 32:2.102 33:0.38299999 34:0.78100002 35:0.49180001 36:0.70300001 37:0.70999998 38:1.165 39:0.32789999 40:0.49700001 41:0.109 42:0.32100001 43:0.26230001 44:0.47 45:0.1585 46:0.076499999 47:0.45899999 48:0.54100001 49:0.31150001 50:0.1202 51:0.1913 #
-4.1945277163861237 1:0.60484439 2:0.11327 3:0.72083998 4:0.82499999 5:0.78649998 6:0.91500002 7:0.093999997 8:0.32300001 9:0.4682 10:0.85100001 11:0.6929 12:1.155 13:0.3558 14:0.98799998 15:0.58050001 16:0.69099998 17:0.375 18:1.873 19:0.3371 20:0.74900001 21:0.4682 22:0.70899999 23:1.2172 24:1.645 25:0.412 26:2.4230001 27:0.3558 28:0.82700002 29:0.5618 30:1.08 31:0.206 32:0.528 33:0.63669997 34:1.299 35:0.73030001 36:1.043 37:0.4869 38:0.79799998 39:0.6742 40:1.021 41:0.375 42:1.102 43:0.2678 44:0.4738 45:0.2229 46:0.1292 47:0.55809999 48:0.442 49:0.264 50:0.1479 51:0.1161 #
4.1945277163861237 1:0.1656525 2:0.11193 3:0.3793 4:0.0128 5:0.67570001 6:0.78600001 7:0 8:0 9:1.1486 10:2.0880001 11:1.4189 12:2.365 13:0.54049999 14:1.502 15:0.87840003 16:1.046 17:0.067599997 18:0.338 19:0.60799998 20:1.351 21:0.6081 22:0.921 23:0.6081 24:0.82200003 25:0.7432 26:4.3720002 27:0.405 28:0.94300002 29:0.13510001 30:0.25999999 31:0.405 32:1.04 33:0.27000001 34:0.55199999 35:0.3378 36:0.48300001 37:0.74299997 38:1.2180001 39:0.3378 40:0.51200002 41:0.068000004 42:0.199 43:0.26350001 44:0.46619999 45:0.15539999 46:0.067599997 47:0.45950001 48:0.54049999 49:0.35139999 50:0.094599999 51:0.2568 #
-4.1945277163861237 1:0.1440179 2:0.1091 3:0.80664998 4:0.16500001 5:1.1364 6:1.321 7:0.227 8:0.78399998 9:0.3788 10:0.68900001 11:0.9091 12:1.515 13:0.2273 14:0.63099998 15:1.1364 16:1.353 17:0.227 18:1.136 19:0.1515 20:0.33700001 21:0.3788 22:0.574 23:0.53030002 24:0.71700001 25:0.303 26:1.783 27:0.53030002 28:1.233 29:0.2273 30:0.43700001 31:0.3788 32:0.97100002 33:0.98479998 34:2.01 35:1.1364 36:1.623 37:0.2273 38:0.373 39:0.45449999 40:0.68900001 41:0.303 42:0.89099997 43:0.38640001 44:0.54549998 45:0.1136 46:0.090899996 47:0.4849 48:0.51520002 49:0.2879 50:0.1591 51:0.1288 #
4.1945277163861237 1:0.16730461 2:0.11304 3:0.3881 4:0.0128 5:0.67570001 6:0.78600001 7:0.068000004 8:0.233 9:1.2162 10:2.211 11:1.3514 12:2.2520001 13:0.6081 14:1.689 15:0.67570001 16:0.80400002 17:0.067599997 18:0.338 19:0.47299999 20:1.051 21:0.67570001 22:1.024 23:0.7432 24:1.0039999 25:0.54049999 26:3.1800001 27:0.47299999 28:1.1 29:0.13510001 30:0.25999999 31:0.405 32:1.04 33:0.338 34:0.68900001 35:0.3378 36:0.48300001 37:0.60799998 38:0.99699998 39:0.54049999 40:0.81900001 41:0.068000004 42:0.199 43:0.23649999 44:0.47299999 45:0.17569999 46:0.074299999 47:0.45269999 48:0.54729998 49:0.36489999 50:0.1081 51:0.2568 #
-4.1945277163861237 1:0.4427554 2:0.11209 3:0.76798999 4:0.2802 5:0.43040001 6:0.5 7:0.101 8:0.34900001 9:0.35440001 10:0.64399999 11:0.43040001 12:0.71700001 13:0.75950003 14:2.1099999 15:0.81010002 16:0.96399999 17:0.27900001 18:1.392 19:0.83539999 20:1.857 21:0.2025 22:0.30700001 23:1.3924 24:1.882 25:0.30399999 26:1.7869999 27:0.45570001 28:1.0599999 29:0.48100001 30:0.92500001 31:0.25319999 32:0.64899999 33:0.58230001 34:1.188 35:0.86080003 36:1.23 37:0.43040001 38:0.70599997 39:0.65820003 40:0.99699998 41:0.329 42:0.96799999 43:0.2633 44:0.45820001 45:0.2886 46:0.1418 47:0.61519998 48:0.38479999 49:0.1848 50:0.1063 51:0.078500003 #
4.1945277163861237 1:0.1649226 2:0.11069 3:0.4014 4:0 5:0.8725 6:1.015 7:0 8:0 9:1.1409 10:2.0739999 11:1.1409 12:1.902 13:0.53689998 14:1.4910001 15:0.53689998 16:0.639 17:0.067100003 18:0.336 19:0.671 20:1.4910001 21:0.80540001 22:1.22 23:0.80540001 24:1.0880001 25:0.4698 26:2.7639999 27:0.403 28:0.93599999 29:0.13420001 30:0.25799999 31:0.336 32:0.86000001 33:0.26899999 34:0.54799998 35:0.8725 36:1.2460001 37:0.60399997 38:0.99000001 39:0.33559999 40:0.50800002 41:0 42:0 43:0.2886 44:0.48989999 45:0.1812 46:0.060400002 47:0.43619999 48:0.56379998 49:0.3423 50:0.1141 51:0.2282 #
-4.1945277163861237 1:0.48456371 2:0.11428 3:0.98629999 4:0.36840001 5:0.58960003 6:0.68599999 7:0.142 8:0.48800001 9:0.47170001 10:0.85799998 11:0.68400002 12:1.14 13:0.37740001 14:1.048 15:0.54250002 16:0.64600003 17:0.28299999 18:1.415 19:0.61320001 20:1.363 21:0.49529999 22:0.75 23:1.1321 24:1.53 25:0.259 26:1.526 27:0.42449999 28:0.98699999 29:0.47170001 30:0.90700001 31:0.40090001 32:1.028 33:0.96700001 34:1.973 35:0.99059999 36:1.415 37:0.3538 38:0.57999998 39:0.4481 40:0.67900002 41:0.259 42:0.76300001 43:0.26179999 44:0.4434 45:0.2193 46:0.1014 47:0.49290001 48:0.50709999 49:0.29010001 50:0.1745 51:0.1156 #
4.1945277163861237 1:0.1816498 2:0.11213 3:0.40450001 4:0.0128 5:0.80250001 6:0.93300003 7:0 8:0 9:1.1111 10:2.02 11:1.4198 12:2.3659999 13:0.55559999 14:1.543 15:0.80250001 16:0.95499998 17:0.18520001 18:0.926 19:0.37 20:0.82300001 21:0.74070001 22:1.122 23:0.67900002 24:0.91799998 25:0.55559999 26:3.2679999 27:0.37 28:0.861 29:0.1235 30:0.237 31:0.30899999 32:0.79100001 33:0.37 34:0.75599998 35:0.30860001 36:0.44100001 37:0.741 38:1.214 39:0.49380001 40:0.74800003 41:0.061999999 42:0.182 43:0.26539999 44:0.47530001 45:0.1543 46:0.080300003 47:0.44440001 48:0.55559999 49:0.3827 50:0.1296 51:0.25310001 #
-4.1945277163861237 1:0.2069307 2:0.11125 3:1.10414 4:0.266 5:0.64520001 6:0.75 7:0.108 8:0.37099999 9:0.21510001 10:0.391 11:0.37630001 12:0.62699997 13:0.53759998 14:1.493 15:0.69889998 16:0.83200002 17:0.108 18:0.53799999 19:0.48390001 20:1.075 21:0.32260001 22:0.48899999 23:1.3441 24:1.816 25:0.26899999 26:1.581 27:0.32260001 28:0.75 29:0.69889998 30:1.344 31:0.43009999 32:1.103 33:0.80650002 34:1.646 35:1.0753 36:1.536 37:0.53759998 38:0.88099998 39:0.64520001 40:0.97799999 41:0.161 42:0.47400001 43:0.30649999 44:0.4946 45:0.2473 46:0.1022 47:0.58069998 48:0.41940001 49:0.18279999 50:0.1237 51:0.059099998 #
4.1945277163861237 1:0.170197 2:0.11271 3:0.38620001 4:0.025599999 5:0.66229999 6:0.76999998 7:0 8:0 9:1.0596 10:1.927 11:1.3907 12:2.3180001 13:0.5298 14:1.472 15:0.72850001 16:0.86699998 17:0.066200003 18:0.331 19:0.52999997 20:1.177 21:0.5298 22:0.80299997 23:0.66229999 24:0.89499998 25:0.59600002 26:3.506 27:0.52999997 28:1.232 29:0.13249999 30:0.255 31:0.39700001 32:1.0190001 33:0.39700001 34:0.81099999 35:0.46360001 36:0.662 37:0.662 38:1.086 39:0.5298 40:0.80299997 41:0.133 42:0.38999999 43:0.25170001 44:0.47679999 45:0.17219999 46:0.072899997 47:0.45030001 48:0.54970002 49:0.34439999 50:0.099299997 51:0.245 #
-4.1945277163861237 1:0.21554691 2:0.11285 3:1.04659 4:0.29159999 5:0.47119999 6:0.54799998 7:0.36700001 8:1.2640001 9:0.15710001 10:0.28600001 11:0.26179999 12:0.43599999 13:0.68059999 14:1.891 15:0.57590002 16:0.68599999 17:0.15700001 18:0.78500003 19:0.83770001 20:1.862 21:0.57590002 22:0.87300003 23:1.2042 24:1.627 25:0.31400001 26:1.848 27:0.1047 28:0.244 29:0.4188 30:0.80500001 31:0.36649999 32:0.94 33:0.62830001 34:1.2819999 35:1.2565 36:1.795 37:0.36649999 38:0.60100001 39:0.78530002 40:1.1900001 41:0.26199999 42:0.76999998 43:0.3037 44:0.45030001 45:0.2827 46:0.1309 47:0.61260003 48:0.3874 49:0.178 50:0.13609999 51:0.041900001 #
4.1945277163861237 1:0.1688145 2:0.11406 3:0.3876 4:0.025599999 5:0.54049999 6:0.62900001 7:0 8:0 9:1.2838 10:2.3340001 11:1.2838 12:2.1400001 13:0.54049999 14:1.502 15:0.6081 16:0.72399998 17:0.067599997 18:0.338 19:0.54100001 20:1.201 21:0.54049999 22:0.81900001 23:0.6081 24:0.82200003 25:0.6081 26:3.5769999 27:0.47299999 28:1.1 29:0.13510001 30:0.25999999 31:0.47299999 32:1.2130001 33:0.47299999 34:0.96499997 35:0.6081 36:0.86900002 37:0.60799998 38:0.99699998 39:0.47299999 40:0.71700001 41:0.13500001 42:0.39700001 43:0.23649999 44:0.47299999 45:0.1622 46:0.074299999 47:0.41890001 48:0.58109999 49:0.36489999 50:0.1081 51:0.2568 #
-4.1945277163861237 1:0.35906151 2:0.10914 3:0.66596001 4:0.2105 5:0.54710001 6:0.63599998 7:0.243 8:0.838 9:0.57749999 10:1.05 11:0.57749999 12:0.963 13:0.45590001 14:1.266 15:0.94220001 16:1.122 17:0.152 18:0.75999999 19:0.66869998 20:1.4859999 21:0.79030001 22:1.197 23:0.97259998 24:1.314 25:0.213 26:1.252 27:0.3951 28:0.91900003 29:0.48629999 30:0.935 31:0.2432 32:0.62300003 33:0.30399999 34:0.62 35:0.82069999 36:1.1720001 37:0.54710001 38:0.89700001 39:0.66869998 40:1.013 41:0.36500001 42:1.073 43:0.31 44:0.52280003 45:0.23100001 46:0.1003 47:0.55930001 48:0.44069999 49:0.2401 50:0.1246 51:0.1155 #
4.1945277163861237 1:0.16724449 2:0.113 3:0.39559999 4:0.0128 5:0.6081 6:0.70700002 7:0 8:0 9:1.0811 10:1.966 11:1.4189 12:2.365 13:0.6081 14:1.689 15:0.7432 16:0.88499999 17:0.2027 18:1.0140001 19:0.54100001 20:1.201 21:0.6081 22:0.921 23:0.67570001 24:0.91299999 25:0.6081 26:3.5769999 27:0.338 28:0.78600001 29:0.13510001 30:0.25999999 31:0.338 32:0.866 33:0.338 34:0.68900001 35:0.40540001 36:0.579 37:0.81099999 38:1.329 39:0.47299999 40:0.71700001 41:0.068000004 42:0.199 43:0.2568 44:0.45950001 45:0.1689 46:0.087800004 47:0.44600001 48:0.55409998 49:0.36489999 50:0.1149 51:0.25 #
-4.1945277163861237 1:0.44578311 2:0.10953 3:0.49566001 4:0.35699999 5:0.54049999 6:0.62900001 7:0.24600001 8:0.847 9:0.54049999 10:0.98299998 11:0.66339999 12:1.1059999 13:0.34400001 14:0.95599997 15:0.86000001 16:1.024 17:0.097999997 18:0.491 19:0.68800002 20:1.529 21:0.61430001 22:0.93099999 23:0.88450003 24:1.1950001 25:0.123 26:0.72299999 27:0.41769999 28:0.97100002 29:0.41769999 30:0.80299997 31:0.44229999 32:1.1339999 33:0.36860001 34:0.75199997 35:1.0811 36:1.544 37:0.44229999 38:0.72500002 39:0.71249998 40:1.08 41:0.46700001 42:1.373 43:0.317 44:0.52579999 45:0.22849999 46:0.095799997 47:0.53320003 48:0.4668 49:0.22849999 50:0.1081 51:0.1204 #
4.1945277163861237 1:0.160629 2:0.10927 3:0.3985 4:0 5:1.0204 6:1.187 7:0.068000004 8:0.235 9:0.74830002 10:1.3609999 11:1.2925 12:2.154 13:0.5442 14:1.512 15:0.5442 16:0.648 17:0.13609999 18:0.68000001 19:0.54400003 20:1.209 21:0.61220002 22:0.92799997 23:1.2244999 24:1.655 25:0.34009999 26:2.0009999 27:0.47600001 28:1.107 29:0.068000004 30:0.131 31:0.34 32:0.87199998 33:0.204 34:0.41600001 35:1.0884 36:1.5549999 37:0.27200001 38:0.44600001 39:0.47620001 40:0.722 41:0 42:0 43:0.29929999 44:0.47620001 45:0.2245 46:0.068000004 47:0.48300001 48:0.51700002 49:0.29929999 50:0.095200002 51:0.2041 #
-4.1945277163861237 1:0.20757601 2:0.111 3:0.67948002 4:0.27309999 5:0.53479999 6:0.62199998 7:0.107 8:0.36899999 9:0.4813 10:0.875 11:1.016 12:1.693 13:0.1604 14:0.44600001 15:0.96259999 16:1.146 17:0.16 18:0.80199999 19:0.58819997 20:1.307 21:0.96259999 22:1.4579999 23:0.74870002 24:1.012 25:0.26699999 26:1.573 27:0.2674 28:0.62199998 29:0.4813 30:0.926 31:0.107 32:0.27399999 33:0.4813 34:0.98199999 35:0.8556 36:1.222 37:0.4813 38:0.78899997 39:0.74870002 40:1.1339999 41:0.428 42:1.258 43:0.29409999 44:0.49200001 45:0.2086 46:0.090899996 47:0.5187 48:0.4813 49:0.31020001 50:0.1604 51:0.1497 #
4.1945277163861237 1:0.1761249 2:0.11363 3:0.3937 4:0.0128 5:0.58060002 6:0.67500001 7:0.064999998 8:0.222 9:1.0323 10:1.877 11:1.4194 12:2.3659999 13:0.58060002 14:1.613 15:0.64520001 16:0.76800001 17:0.12899999 18:0.64499998 19:0.64499998 20:1.434 21:0.70969999 22:1.075 23:0.58060002 24:0.78500003 25:0.70969999 26:4.1750002 27:0.64499998 28:1.5 29:0.064499997 30:0.124 31:0.32300001 32:0.82700002 33:0.25799999 34:0.52700001 35:0.38710001 36:0.55299997 37:0.77399999 38:1.2690001 39:0.38710001 40:0.58700001 41:0.064999998 42:0.19 43:0.24519999 44:0.45809999 45:0.1613 46:0.077399999 47:0.4323 48:0.56770003 49:0.35479999 50:0.1097 51:0.24519999 #
-4.1945277163861237 1:0.4338924 2:0.11418 3:0.61847001 4:0.41249999 5:0.42109999 6:0.49000001 7:0.28999999 8:0.99800003 9:0.57889998 10:1.053 11:0.65789998 12:1.096 13:0.73680001 14:2.0469999 15:0.55260003 16:0.65799999 17:0.26300001 18:1.316 19:0.39469999 20:0.87699997 21:0.73680001 22:1.1160001 23:0.92110002 24:1.245 25:0.31600001 26:1.858 27:0.60530001 28:1.408 29:0.52630001 30:1.012 31:0.47369999 32:1.215 33:0.31580001 34:0.64399999 35:0.7895 36:1.128 37:0.52630001 38:0.86299998 39:0.5 40:0.75800002 41:0.26300001 42:0.77399999 43:0.2579 44:0.479 45:0.1816 46:0.13950001 47:0.50529999 48:0.49470001 49:0.25529999 50:0.13160001 51:0.1237 #
4.1945277163861237 1:0.16671421 2:0.11265 3:0.3892 4:0.0128 5:0.7432 6:0.86400002 7:0 8:0 9:1.0811 10:1.966 11:1.4865 12:2.477 13:0.54049999 14:1.502 15:0.7432 16:0.88499999 17:0.13510001 18:0.676 19:0.60799998 20:1.351 21:0.54049999 22:0.81900001 23:0.81080002 24:1.096 25:0.54049999 26:3.1800001 27:0.405 28:0.94300002 29:0.13510001 30:0.25999999 31:0.338 32:0.866 33:0.405 34:0.82700002 35:0.3378 36:0.48300001 37:0.60799998 38:0.99699998 39:0.47299999 40:0.71700001 41:0.068000004 42:0.199 43:0.2432 44:0.45269999 45:0.1892 46:0.074299999 47:0.46619999 48:0.53380001 49:0.36489999 50:0.1081 51:0.2568 #
-4.1945277163861237 1:0.23939259 2:0.10832 3:0.70963001 4:0.229 5:0.90499997 6:1.052 7:0.226 8:0.77999997 9:0.40720001 10:0.74000001 11:0.63349998 12:1.056 13:0.67869997 14:1.885 15:0.95020002 16:1.131 17:0.27200001 18:1.357 19:0.36199999 20:0.80400002 21:0.81449997 22:1.234 23:0.90499997 24:1.223 25:0.045000002 26:0.266 27:0.31670001 28:0.73699999 29:0.54299998 30:1.044 31:0.18099999 32:0.46399999 33:0.18099999 34:0.36899999 35:0.81449997 36:1.164 37:0.45249999 38:0.74199998 39:0.81449997 40:1.234 41:0.40700001 42:1.198 43:0.3348 44:0.54299998 45:0.20810001 46:0.14480001 47:0.59280002 48:0.40720001 49:0.2308 50:0.1267 51:0.1041 #
4.1945277163861237 1:0.1679952 2:0.11351 3:0.38640001 4:0.025599999 5:0.54049999 6:0.62900001 7:0 8:0 9:1.2162 10:2.211 11:1.4189 12:2.365 13:0.54049999 14:1.502 15:0.7432 16:0.88499999 17:0.067599997 18:0.338 19:0.74299997 20:1.652 21:0.6081 22:0.921 23:0.81080002 24:1.096 25:0.47299999 26:2.7820001 27:0.405 28:0.94300002 29:0.13510001 30:0.25999999 31:0.27000001 32:0.69300002 33:0.405 34:0.82700002 35:0.2703 36:0.38600001 37:0.87800002 38:1.4400001 39:0.3378 40:0.51200002 41:0.13500001 42:0.39700001 43:0.2432 44:0.45269999 45:0.1892 46:0.074299999 47:0.44600001 48:0.55409998 49:0.3716 50:0.1081 51:0.26350001 #
-4.1945277163861237 1:0.54395139 2:0.11056 3:0.55896002 4:0.44949999 5:0.63010001 6:0.73299998 7:0.061000001 8:0.20999999 9:0.4675 10:0.85000002 11:0.6911 12:1.152 13:0.52850002 14:1.4680001 15:0.65039998 16:0.77399999 17:0.285 18:1.423 19:0.60979998 20:1.355 21:0.42680001 22:0.64700001 23:1.0163 24:1.373 25:0.32499999 26:1.913 27:0.42680001 28:0.99299997 29:0.58939999 30:1.1339999 31:0.36590001 32:0.93800002 33:0.4472 34:0.91299999 35:0.935 36:1.336 37:0.52850002 38:0.866 39:0.79269999 40:1.201 41:0.081 42:0.23899999 43:0.28049999 44:0.50809997 45:0.2419 46:0.1037 47:0.54269999 48:0.45730001 49:0.2317 50:0.1159 51:0.1159 #
4.1945277163861237 1:0.1694379 2:0.11221 3:0.38870001 4:0.0128 5:0.59600002 6:0.69300002 7:0 8:0 9:1.1258 10:2.0469999 11:1.3907 12:2.3180001 13:0.5298 14:1.472 15:0.72850001 16:0.86699998 17:0.066200003 18:0.331 19:0.59600002 20:1.325 21:0.66229999 22:1.003 23:0.66229999 24:0.89499998 25:0.66229999 26:3.8959999 27:0.46399999 28:1.0779999 29:0.13249999 30:0.255 31:0.26499999 32:0.67900002 33:0.331 34:0.676 35:0.59600002 36:0.85100001 37:0.46399999 38:0.75999999 39:0.66229999 40:1.003 41:0.066 42:0.19499999 43:0.2384 44:0.47679999 45:0.1921 46:0.066200003 47:0.46360001 48:0.53640002 49:0.3576 50:0.106 51:0.25170001 #
-4.1945277163861237 1:0.54073697 2:0.1136 3:0.58016002 4:0.7098 5:0.79830003 6:0.92799997 7:0.189 8:0.65200001 9:0.42019999 10:0.764 11:1.0084 12:1.681 13:0.52520001 14:1.459 15:0.67229998 16:0.80000001 17:0.273 18:1.3660001 19:0.63029999 20:1.401 21:0.63029999 22:0.95499998 23:0.96640003 24:1.306 25:0.252 26:1.483 27:0.46219999 28:1.075 29:0.48320001 30:0.92900002 31:0.29409999 32:0.75400001 33:0.54619998 34:1.115 35:0.54619998 36:0.77999997 37:0.37819999 38:0.62 39:0.48320001 40:0.73199999 41:0.23100001 42:0.68000001 43:0.25839999 44:0.44330001 45:0.208 46:0.124 47:0.54409999 48:0.45590001 49:0.28780001 50:0.145 51:0.1429 #
4.1945277163861237 1:0.1690549 2:0.1127 3:0.3899 4:0.025599999 5:0.60000002 6:0.69800001 7:0 8:0 9:1.0667 10:1.939 11:1.2667 12:2.1110001 13:0.53329998 14:1.4809999 15:0.66670001 16:0.79400003 17:0.066699997 18:0.333 19:0.53299999 20:1.1849999 21:0.33329999 22:0.505 23:0.66670001 24:0.90100002 25:0.46669999 26:2.7449999 27:0.53299999 28:1.24 29:0.066699997 30:0.12800001 31:0.333 32:0.85500002 33:0.60000002 34:1.224 35:0.60000002 36:0.85699999 37:0.86699998 38:1.421 39:0.66670001 40:1.01 41:0.133 42:0.39199999 43:0.27329999 44:0.50669998 45:0.1867 46:0.073299997 47:0.43329999 48:0.56669998 49:0.33329999 50:0.1 51:0.2333 #
-4.1945277163861237 1:0.2848016 2:0.11438 3:0.98863 4:0.1152 5:0.68269998 6:0.79400003 7:0.161 8:0.55400002 9:0.2811 10:0.51099998 11:0.8434 12:1.406 13:0.3213 14:0.89200002 15:0.52209997 16:0.62199998 17:0.121 18:0.602 19:0.4418 20:0.98199999 21:0.6426 22:0.97399998 23:0.92369998 24:1.248 25:0.361 26:2.1259999 27:0.6426 28:1.494 29:0.241 30:0.463 31:0.76310003 32:1.957 33:0.88349998 34:1.803 35:1.0441999 36:1.492 37:0.4016 38:0.65799999 39:0.36140001 40:0.54799998 41:0.361 42:1.063 43:0.2811 44:0.4337 45:0.1727 46:0.080300003 47:0.43779999 48:0.56230003 49:0.2771 50:0.1647 51:0.1125 #
4.1945277163861237 1:0.18707129 2:0.11619 3:0.3856 4:0.025599999 5:0.31060001 6:0.361 7:0.061999999 8:0.214 9:0.8696 10:1.581 11:1.4907 12:2.484 13:0.74529999 14:2.0699999 15:0.6832 16:0.81300002 17:0.062100001 18:0.31099999 19:0.87 20:1.932 21:0.49689999 22:0.75300002 23:0.31060001 24:0.41999999 25:1.0559 26:6.211 27:0.435 28:1.011 29:0.2484 30:0.47799999 31:0.49700001 32:1.274 33:0.373 34:0.76099998 35:0.4348 36:0.62099999 37:0.373 38:0.611 39:0.55900002 40:0.847 41:0.124 42:0.36500001 43:0.18629999 44:0.39750001 45:0.17389999 46:0.093199998 47:0.49689999 48:0.50309998 49:0.3292 50:0.093199998 51:0.236 #
-4.1945277163861237 1:0.44947261 2:0.1099 3:0.71419001 4:0.3186 5:0.7335 6:0.85299999 7:0.26899999 8:0.92699999 9:0.51340002 10:0.93400002 11:0.53789997 12:0.89600003 13:0.36669999 14:1.0190001 15:0.97799999 16:1.164 17:0.19599999 18:0.97799999 19:0.51340002 20:1.141 21:0.51340002 22:0.778 23:0.92909998 24:1.256 25:0.34200001 26:2.0139999 27:0.4156 28:0.96700001 29:0.36669999 30:0.70499998 31:0.53789997 32:1.3789999 33:0.51340002 34:1.048 35:0.6846 36:0.97799999 37:0.46450001 38:0.76200002 39:0.6846 40:1.0369999 41:0.391 42:1.151 43:0.31299999 44:0.51099998 45:0.21269999 46:0.1002 47:0.56239998 48:0.4377 49:0.2274 50:0.1223 51:0.1051 #
4.1945277163861237 1:0.1675947 2:0.11324 3:0.40439999 4:0.0128 5:0.6081 6:0.70700002 7:0.068000004 8:0.233 9:1.1486 10:2.0880001 11:1.3514 12:2.2520001 13:0.6081 14:1.689 15:0.81080002 16:0.96499997 17:0.067599997 18:0.338 19:0.27000001 20:0.60100001 21:0.47299999 22:0.71700001 23:0.67570001 24:0.91299999 25:0.54049999 26:3.1800001 27:0.338 28:0.78600001 29:0.13510001 30:0.25999999 31:0.27000001 32:0.69300002 33:0.74299997 34:1.517 35:0.40540001 36:0.579 37:0.676 38:1.108 39:0.7432 40:1.126 41:0.068000004 42:0.199 43:0.2568 44:0.4932 45:0.1689 46:0.074299999 47:0.45269999 48:0.54729998 49:0.3784 50:0.1284 51:0.25 #
-4.1945277163861237 1:0.38297021 2:0.11101 3:0.66733998 4:0.2859 5:0.78259999 6:0.91000003 7:0.17399999 8:0.60000002 9:0.57969999 10:1.054 11:0.60869998 12:1.0140001 13:0.40580001 14:1.127 15:0.57969999 16:0.69 17:0.28999999 18:1.449 19:0.4348 20:0.96600002 21:0.57969999 22:0.87800002 23:1.1303999 24:1.528 25:0.26100001 26:1.535 27:0.34779999 28:0.80900002 29:0.7536 30:1.449 31:0.2899 32:0.74299997 33:0.4928 34:1.006 35:0.57969999 36:0.82800001 37:0.60869998 38:0.99800003 39:0.7536 40:1.142 41:0.26100001 42:0.76700002 43:0.27250001 44:0.51590002 45:0.23190001 46:0.1044 47:0.56230003 48:0.4377 49:0.25510001 50:0.1362 51:0.1188 #
4.1945277163861237 1:0.1685186 2:0.1131 3:0.40090001 4:0.025599999 5:0.73830003 6:0.85799998 7:0 8:0 9:1.0067 10:1.83 11:1.4765 12:2.461 13:0.4698 14:1.3049999 15:0.67110002 16:0.79900002 17:0 18:0 19:0.671 20:1.4910001 21:0.73830003 22:1.119 23:0.4698 24:0.63499999 25:0.80540001 26:4.737 27:0.26899999 28:0.62400001 29:0.2685 30:0.51599997 31:0.26899999 32:0.68800002 33:0.47 34:0.95899999 35:0.53689998 36:0.76700002 37:0.537 38:0.88 39:0.4698 40:0.71200001 41:0.134 42:0.39500001 43:0.2483 44:0.4497 45:0.1611 46:0.060400002 47:0.4698 48:0.5302 49:0.3691 50:0.1208 51:0.2483 #
-4.1945277163861237 1:0.392719 2:0.11793 3:0.82822001 4:0.54049999 5:0.45050001 6:0.52399999 7:0.12 8:0.414 9:0.84079999 10:1.529 11:0.57059997 12:0.95099998 13:0.42039999 14:1.168 15:0.45050001 16:0.53600001 17:0.38999999 18:1.952 19:0.48050001 20:1.068 21:0.78079998 22:1.183 23:1.0811 24:1.461 25:0.23999999 26:1.413 27:0.42039999 28:0.97799999 29:0.42039999 30:0.80900002 31:0.36039999 32:0.92400002 33:0.69069999 34:1.41 35:0.54049999 36:0.77200001 37:0.2102 38:0.345 39:0.78079998 40:1.183 41:0.60100001 42:1.766 43:0.1772 44:0.42340001 45:0.2342 46:0.15620001 47:0.51950002 48:0.48050001 49:0.32730001 50:0.18619999 51:0.1411 #
4.1945277163861237 1:0.1843051 2:0.11448 3:0.3786 4:0.038400002 5:0.4348 6:0.50599998 7:0.124 8:0.428 9:1.3665 10:2.484 11:1.4907 12:2.484 13:0.55900002 14:1.553 15:0.74529999 16:0.88700002 17:0 18:0 19:0.55900002 20:1.242 21:0.8075 22:1.223 23:0.8075 24:1.091 25:0.6832 26:4.0190001 27:0.31099999 28:0.722 29:0.1242 30:0.23899999 31:0.31099999 32:0.796 33:0.248 34:0.50700003 35:0.2484 36:0.35499999 37:0.49700001 38:0.815 39:0.49689999 40:0.75300002 41:0.186 42:0.54799998 43:0.205 44:0.4348 45:0.18629999 46:0.074500002 47:0.47209999 48:0.528 49:0.39129999 50:0.1056 51:0.28569999 #
-4.1945277163861237 1:0.4950406 2:0.11075 3:0.65626001 4:0.68559998 5:0.93959999 6:1.0930001 7:0.20100001 8:0.69400001 9:0.49219999 10:0.89499998 11:0.7159 12:1.193 13:0.40270001 14:1.119 15:0.98430002 16:1.1720001 17:0.336 18:1.678 19:0.4474 20:0.99400002 21:0.4251 22:0.64399999 23:0.91720003 24:1.239 25:0.15700001 26:0.921 27:0.35789999 28:0.83200002 29:0.4474 30:0.86000001 31:0.2237 32:0.574 33:0.62639999 34:1.278 35:0.38029999 36:0.54299998 37:0.67110002 38:1.1 39:0.69349998 40:1.051 41:0.403 42:1.184 43:0.3177 44:0.51679999 45:0.2058 46:0.132 47:0.5772 48:0.4228 49:0.2595 50:0.13869999 51:0.1208 #
4.1945277163861237 1:0.1794201 2:0.11356 3:0.39120001 4:0.051199999 5:0.56959999 6:0.662 7:0 8:0 9:0.88609999 10:1.6109999 11:1.6456 12:2.743 13:0.56959999 14:1.582 15:0.75950003 16:0.90399998 17:0.063299999 18:0.31600001 19:0.88599998 20:1.969 21:0.6329 22:0.95899999 23:0.82279998 24:1.112 25:0.44299999 26:2.6059999 27:0.063000001 28:0.147 29:0.1266 30:0.243 31:0.317 32:0.81099999 33:0.38 34:0.77499998 35:0.6329 36:0.90399998 37:0.56999999 38:0.93400002 39:0.37970001 40:0.57499999 41:0.25299999 42:0.745 43:0.25319999 44:0.3987 45:0.2089 46:0.088600002 47:0.48100001 48:0.51899999 49:0.3608 50:0.1076 51:0.25319999 #
-4.1945277163861237 1:0.31157759 2:0.11128 3:0.65180999 4:0.43810001 5:0.78570002 6:0.91399997 7:0 8:0 9:0.64289999 10:1.169 11:0.28569999 12:0.47600001 13:0.57139999 14:1.587 15:0.60710001 16:0.72299999 17:0.214 18:1.071 19:0.57139999 20:1.27 21:0.53570002 22:0.81199998 23:1.0357 24:1.4 25:0.071000002 26:0.41999999 27:0.64289999 28:1.495 29:0.39289999 30:0.755 31:0.60710001 32:1.557 33:0.28569999 34:0.583 35:1.1071 36:1.582 37:0.60710001 38:0.995 39:0.42860001 40:0.64899999 41:0.42899999 42:1.261 43:0.3107 44:0.52139997 45:0.2036 46:0.1393 47:0.50709999 48:0.49290001 49:0.1964 50:0.1036 51:0.092900001 #
4.1945277163861237 1:0.1710695 2:0.11405 3:0.38420001 4:0.025599999 5:0.46669999 6:0.54299998 7:0 8:0 9:1.0667 10:1.939 11:1.6667 12:2.7780001 13:0.60000002 14:1.6670001 15:0.73329997 16:0.87300003 17:0.066699997 18:0.333 19:0.86699998 20:1.926 21:0.60000002 22:0.90899998 23:0.86669999 24:1.171 25:0.46669999 26:2.7449999 27:0.133 28:0.31 29:0.066699997 30:0.12800001 31:0.333 32:0.85500002 33:0.40000001 34:0.81599998 35:0.60000002 36:0.85699999 37:0.60000002 38:0.98400003 39:0.33329999 40:0.505 41:0.133 42:0.39199999 43:0.23999999 44:0.40000001 45:0.2067 46:0.079999998 47:0.4533 48:0.5467 49:0.38 50:0.1067 51:0.27329999 #
-4.1945277163861237 1:0.1609028 2:0.11576 3:0.65244001 4:0.1209 5:0.86330003 6:1.0039999 7:0.21600001 8:0.74400002 9:0.71939999 10:1.308 11:0.86330003 12:1.439 13:0.64749998 14:1.799 15:0.35969999 16:0.428 17:0.14399999 18:0.71899998 19:0.5036 20:1.119 21:0.79140002 22:1.199 23:0.64749998 24:0.875 25:0.28799999 26:1.693 27:0.43169999 28:1.0039999 29:0.43169999 30:0.82999998 31:0.35969999 32:0.92199999 33:0.71939999 34:1.4680001 35:0.5036 36:0.71899998 37:0.43169999 38:0.708 39:0.64749998 40:0.98100001 41:0.36000001 42:1.058 43:0.2374 44:0.46039999 45:0.17990001 46:0.1223 47:0.5036 48:0.4964 49:0.32370001 50:0.1655 51:0.1583 #
4.1945277163861237 1:0.1715588 2:0.1114 3:0.3601 4:0.038400002 5:0.84420002 6:0.98199999 7:0 8:0 9:1.2987 10:2.3610001 11:1.2987 12:2.165 13:0.51950002 14:1.443 15:0.77920002 16:0.92799997 17:0.064900003 18:0.32499999 19:0.58399999 20:1.299 21:0.3247 22:0.49200001 23:1.039 24:1.404 25:0.5844 26:3.438 27:0.38999999 28:0.90600002 29:0.064900003 30:0.125 31:0.19499999 32:0.5 33:0.32499999 34:0.66299999 35:0.3247 36:0.46399999 37:0.77899998 38:1.277 39:0.38960001 40:0.58999997 41:0.19499999 42:0.57300001 43:0.27270001 44:0.48699999 45:0.2013 46:0.0779 47:0.5 48:0.5 49:0.3312 50:0.071400002 51:0.2597 #
-4.1945277163861237 1:0.4283624 2:0.10984 3:0.60022998 4:0.31150001 5:0.7949 6:0.92400002 7:0.18000001 8:0.61900002 9:0.56410003 10:1.026 11:0.61540002 12:1.026 13:0.359 14:0.99699998 15:0.76920003 16:0.91600001 17:0.154 18:0.76899999 19:0.66670001 20:1.4809999 21:0.58969998 22:0.89399999 23:0.89740002 24:1.2130001 25:0.38499999 26:2.2620001 27:0.46149999 28:1.073 29:0.48719999 30:0.93699998 31:0.28209999 32:0.72299999 33:0.46149999 34:0.94199997 35:0.64099997 36:0.91600001 37:0.56410003 38:0.92500001 39:0.76920003 40:1.166 41:0.28200001 42:0.82999998 43:0.2949 44:0.52310002 45:0.2333 46:0.087200001 47:0.56669998 48:0.43329999 49:0.2385 50:0.1205 51:0.118 #
4.1945277163861237 1:0.1699575 2:0.11331 3:0.39089999 4:0.025599999 5:0.53329998 6:0.62 7:0 8:0 9:1.2 10:2.1819999 11:1.4 12:2.3329999 13:0.60000002 14:1.6670001 15:0.73329997 16:0.87300003 17:0.13330001 18:0.667 19:0.73299998 20:1.63 21:0.66670001 22:1.01 23:0.86669999 24:1.171 25:0.40000001 26:2.3529999 27:0.40000001 28:0.93000001 29:0.066699997 30:0.12800001 31:0.26699999 32:0.68400002 33:0.333 34:0.68000001 35:0.46669999 36:0.667 37:0.60000002 38:0.98400003 39:0.46669999 40:0.70700002 41:0.133 42:0.39199999 43:0.2333 44:0.44670001 45:0.2067 46:0.0867 47:0.4533 48:0.5467 49:0.37329999 50:0.1133 51:0.25999999 #
-4.1945277163861237 1:0.58060873 2:0.11385 3:0.52925003 4:0.41389999 5:0.60780001 6:0.70700002 7:0.118 8:0.40599999 9:0.49020001 10:0.89099997 11:0.86269999 12:1.438 13:0.49020001 14:1.362 15:0.68629998 16:0.81699997 17:0.21600001 18:1.0779999 19:0.3725 20:0.82800001 21:0.2353 22:0.35699999 23:0.72549999 24:0.98000002 25:0.059 26:0.34599999 27:0.68629998 28:1.596 29:0.54900002 30:1.056 31:0.86269999 32:2.2119999 33:0.84310001 34:1.721 35:0.7647 36:1.092 37:0.31369999 38:0.514 39:0.68629998 40:1.04 41:0.373 42:1.096 43:0.249 44:0.49020001 45:0.17839999 46:0.1137 47:0.47260001 48:0.52749997 49:0.2647 50:0.1294 51:0.1353 #
4.1945277163861237 1:0.16795941 2:0.11123 3:0.3883 4:0.038400002 5:1.0596 6:1.232 7:0.066 8:0.228 9:1.3907 10:2.529 11:1.0596 12:1.766 13:0.5298 14:1.472 15:0.72850001 16:0.86699998 17:0.066200003 18:0.331 19:0.72899997 20:1.619 21:0.86089998 22:1.304 23:0.92720002 24:1.253 25:0.66229999 26:3.8959999 27:0.26499999 28:0.616 29:0.066200003 30:0.127 31:0.199 32:0.509 33:0.133 34:0.27000001 35:0.1987 36:0.28400001 37:0.52999997 38:0.86900002 39:0.33109999 40:0.50199997 41:0.199 42:0.58399999 43:0.25830001 44:0.46360001 45:0.1987 46:0.079499997 47:0.5298 48:0.4702 49:0.35100001 50:0.106 51:0.245 #
-4.1945277163861237 1:0.43655229 2:0.11519 3:0.90309 4:1.0099 5:0.68599999 6:0.79799998 7:0.15800001 8:0.546 9:0.44850001 10:0.81599998 11:0.26390001 12:0.44 13:0.52770001 14:1.466 15:0.58050001 16:0.69099998 17:0.55400002 18:2.77 19:0.52770001 20:1.173 21:0.52770001 22:0.80000001 23:1.029 24:1.391 25:0.15800001 26:0.93099999 27:0.2902 28:0.67500001 29:0.63319999 30:1.2180001 31:0.1847 32:0.47400001 33:0.39579999 34:0.80800003 35:0.71240002 36:1.018 37:0.50129998 38:0.82200003 39:0.73879999 40:1.119 41:0.792 42:2.3280001 43:0.26390001 44:0.47490001 45:0.2296 46:0.2164 47:0.61210001 48:0.38789999 49:0.219 50:0.1478 51:0.071199998 #
4.1945277163861237 1:0.1692367 2:0.11282 3:0.36989999 4:0.025599999 5:0.53329998 6:0.62 7:0 8:0 9:1.2667 10:2.303 11:1.6667 12:2.7780001 13:0.60000002 14:1.6670001 15:0.80000001 16:0.95200002 17:0 18:0 19:0.667 20:1.4809999 21:0.60000002 22:0.90899998 23:1.0667 24:1.441 25:0.40000001 26:2.3529999 27:0.133 28:0.31 29:0.066699997 30:0.12800001 31:0.2 32:0.51300001 33:0.333 34:0.68000001 35:0.46669999 36:0.667 37:0.60000002 38:0.98400003 39:0.46669999 40:0.70700002 41:0.133 42:0.39199999 43:0.23999999 44:0.43329999 45:0.22 46:0.073299997 47:0.47330001 48:0.52670002 49:0.3867 50:0.0933 51:0.2933 #
-4.1945277163861237 1:0.60735458 2:0.11438 3:0.51591998 4:0.41389999 5:0.64029998 6:0.745 7:0.113 8:0.38999999 9:0.4896 10:0.88999999 11:0.94160002 12:1.569 13:0.50849998 14:1.4119999 15:0.71560001 16:0.852 17:0.17 18:0.847 19:0.3766 20:0.83700001 21:0.1883 22:0.285 23:0.73449999 24:0.99299997 25:0.018999999 26:0.111 27:0.75330001 28:1.752 29:0.54610002 30:1.05 31:0.88510001 32:2.27 33:0.97930002 34:1.999 35:0.73449999 36:1.049 37:0.2448 38:0.40099999 39:0.54610002 40:0.82700002 41:0.35800001 42:1.052 43:0.2448 44:0.47830001 45:0.1657 46:0.1092 47:0.4614 48:0.53860003 49:0.27680001 50:0.1337 51:0.14309999 #
4.1945277163861237 1:0.1789487 2:0.11545 3:0.37639999 4:0.025599999 5:0.45159999 6:0.52499998 7:0.064999998 8:0.222 9:1.2903 10:2.346 11:1.4194 12:2.3659999 13:0.58060002 14:1.613 15:0.51609999 16:0.61400002 17:0.12899999 18:0.64499998 19:0.70999998 20:1.577 21:0.51609999 22:0.78200001 23:0.90319997 24:1.221 25:0.58060002 26:3.4159999 27:0.19400001 28:0.44999999 29:0.2581 30:0.49599999 31:0.64499998 32:1.654 33:0.32300001 34:0.65799999 35:0.38710001 36:0.55299997 37:0.45199999 38:0.74000001 39:0.45159999 40:0.68400002 41:0.12899999 42:0.38 43:0.18709999 44:0.40650001 45:0.20649999 46:0.083899997 47:0.46450001 48:0.53549999 49:0.36770001 50:0.096799999 51:0.271 #
-4.1945277163861237 1:0.1938875 2:0.10151 3:0.64894003 4:0.19059999 5:1.3613 6:1.5829999 7:0.20900001 8:0.722 9:0.2094 10:0.38100001 11:0.15710001 12:0.26199999 13:0.57590002 14:1.6 15:1.4136 16:1.683 17:0.20900001 18:1.0470001 19:1.0470999 20:2.3269999 21:0.15710001 22:0.23800001 23:1.1518 24:1.557 25:0.15700001 26:0.92400002 27:0.3141 28:0.73100001 29:0.4188 30:0.80500001 31:0.1047 32:0.26800001 33:0.1047 34:0.214 35:0.62830001 36:0.898 37:0.52359998 38:0.85799998 39:0.83770001 40:1.2690001 41:0.31400001 42:0.92400002 43:0.4136 44:0.5916 45:0.3037 46:0.1204 47:0.75919998 48:0.24079999 49:0.083800003 50:0.0471 51:0.036699999 #
4.1945277163861237 1:0.059494 2:0.11441 3:0.38699999 4:0.0128 5:0.76920003 6:0.89399999 7:0 8:0 9:1.1538 10:2.098 11:2.3076999 12:3.846 13:0.57690001 14:1.603 15:0.76920003 16:0.91600001 17:0.19230001 18:0.96200001 19:0.96200001 20:2.1370001 21:0.76920003 22:1.166 23:0.57690001 24:0.77999997 25:0.19230001 26:1.131 27:0.192 28:0.447 29:0 30:0 31:0 32:0 33:0.38499999 34:0.78500003 35:0.57690001 36:0.824 37:0.192 38:0.315 39:0.19230001 40:0.29100001 41:0.192 42:0.56599998 43:0.2308 44:0.38460001 45:0.17309999 46:0.096199997 47:0.42309999 48:0.57690001 49:0.4808 50:0.1346 51:0.34619999 #
-4.1945277163861237 1:0.24047001 2:0.10783 3:0.72091001 4:0.41960001 5:0.94169998 6:1.095 7:0.090000004 8:0.30899999 9:0.5381 10:0.97799999 11:0.44839999 12:0.74699998 13:0.2242 14:0.62300003 15:1.3901 16:1.655 17:0.31400001 18:1.5700001 19:0.44839999 20:0.99699998 21:0.35870001 22:0.54400003 23:0.67259997 24:0.90899998 25:0.31400001 26:1.846 27:0.1794 28:0.417 29:0.35870001 30:0.69 31:0.1794 32:0.46000001 33:0.583 34:1.1900001 35:0.852 36:1.217 37:0.49329999 38:0.80900002 39:0.76230001 40:1.155 41:0.67299998 42:1.978 43:0.37670001 44:0.56050003 45:0.1883 46:0.139 47:0.60540003 48:0.3946 49:0.2242 50:0.1256 51:0.098700002 #
4.1945277163861237 1:0.1825707 2:0.1127 3:0.37130001 4:0.0128 5:0.55559999 6:0.64600003 7:0.061999999 8:0.213 9:1.2345999 10:2.2449999 11:1.6049 12:2.675 13:0.61729997 14:1.715 15:0.8642 16:1.029 17:0 18:0 19:0.67900002 20:1.5089999 21:0.61729997 22:0.935 23:0.61729997 24:0.83399999 25:0.67900002 26:3.994 27:0.185 28:0.43099999 29:0.1235 30:0.237 31:0.43200001 32:1.108 33:0.30899999 34:0.63 35:0.55559999 36:0.79400003 37:0.49399999 38:0.81 39:0.30860001 40:0.46799999 41:0.061999999 42:0.182 43:0.25310001 44:0.43830001 45:0.1605 46:0.067900002 47:0.45680001 48:0.54320002 49:0.37650001 50:0.092600003 51:0.28400001 #
-4.1945277163861237 1:0.81300229 2:0.11137 3:0.83561999 4:1.8961 5:0.6164 6:0.71700001 7:0.164 8:0.56699997 9:0.4384 10:0.79699999 11:0.3973 12:0.662 13:0.45210001 14:1.256 15:0.93150002 16:1.109 17:0.192 18:0.95899999 19:0.5068 20:1.126 21:0.6027 22:0.91299999 23:0.68489999 24:0.926 25:0.219 26:1.289 27:0.54790002 28:1.274 29:0.58899999 30:1.133 31:0.32879999 32:0.84299999 33:0.31510001 34:0.64300001 35:0.76709998 36:1.096 37:0.63010001 38:1.033 39:0.76709998 40:1.1619999 41:0.50700003 42:1.4910001 43:0.31099999 44:0.54519999 45:0.19589999 46:0.14929999 47:0.57810003 48:0.4219 49:0.1945 50:0.111 51:0.0836 #
4.1945277163861237 1:0.1828423 2:0.11287 3:0.38119999 4:0 5:0.74070001 6:0.861 7:0.061999999 8:0.213 9:1.1727999 10:2.132 11:1.6049 12:2.675 13:0.67900002 14:1.886 15:0.80250001 16:0.95499998 17:0.061700001 18:0.30899999 19:0.67900002 20:1.5089999 21:0.61729997 22:0.935 23:0.61729997 24:0.83399999 25:0.67900002 26:3.994 27:0.30899999 28:0.71799999 29:0.1235 30:0.237 31:0.30899999 32:0.79100001 33:0.37 34:0.75599998 35:0.37040001 36:0.52899998 37:0.43200001 38:0.708 39:0.37040001 40:0.56099999 41:0 42:0 43:0.24070001 44:0.43830001 45:0.16670001 46:0.074100003 47:0.47530001 48:0.52469999 49:0.3827 50:0.1049 51:0.27779999 #
-4.1945277163861237 1:0.34275669 2:0.11619 3:0.85457999 4:0.77950001 5:0.50849998 6:0.59100002 7:0.20299999 8:0.70099998 9:0.7119 10:1.294 11:0.33899999 12:0.565 13:0.88139999 14:2.448 15:0.67799997 16:0.80699998 17:0.20299999 18:1.017 19:0.50849998 20:1.13 21:0.61019999 22:0.92400002 23:0.61019999 24:0.82499999 25:0.17 26:0.99699998 27:0.44069999 28:1.025 29:0.50849998 30:0.97799999 31:0.44069999 32:1.13 33:0.57630002 34:1.176 35:0.77969998 36:1.114 37:0.57630002 38:0.94499999 39:0.47459999 40:0.71899998 41:0.40700001 42:1.196 43:0.2746 44:0.48809999 45:0.1593 46:0.1864 47:0.53219998 48:0.46779999 49:0.2441 50:0.139 51:0.1051 #
4.1945277163861237 1:0.19041011 2:0.11682 3:0.38609999 4:0.1522 5:0.6135 6:0.713 7:0.061000001 8:0.212 9:1.5337 10:2.789 11:1.411 12:2.352 13:0.67479998 14:1.875 15:0.67479998 16:0.80299997 17:0 18:0 19:0.61400002 20:1.363 21:0.5521 22:0.83700001 23:0.67479998 24:0.912 25:0.67479998 26:3.97 27:0.123 28:0.285 29:0.061299998 30:0.118 31:0.30700001 32:0.787 33:0.67500001 34:1.377 35:0.49079999 36:0.70099998 37:0.245 38:0.40200001 39:0.30669999 40:0.465 41:0.184 42:0.54100001 43:0.2086 44:0.41100001 45:0.1595 46:0.098200001 47:0.46630001 48:0.53369999 49:0.4172 50:0.1227 51:0.29449999 #
-4.1945277163861237 1:0.49567911 2:0.11369 3:0.79225999 4:0.4822 5:0.57340002 6:0.667 7:0.229 8:0.79100001 9:0.57340002 10:1.043 11:0.55049998 12:0.917 13:0.57340002 14:1.5930001 15:0.55049998 16:0.65499997 17:0.229 18:1.147 19:0.66509998 20:1.478 21:0.52749997 22:0.79900002 23:0.9404 24:1.271 25:0.29800001 26:1.7539999 27:0.50459999 28:1.173 29:0.36700001 30:0.70599997 31:0.36700001 32:0.94099998 33:0.64219999 34:1.311 35:0.75690001 36:1.081 37:0.52749997 38:0.86500001 39:0.73390001 40:1.112 41:0.252 42:0.74199998 43:0.2638 44:0.4817 45:0.2339 46:0.1193 47:0.53210002 48:0.46790001 49:0.25229999 50:0.1399 51:0.1124 #
4.1945277163861237 1:0.1774862 2:0.11451 3:0.38600001 4:0.13940001 5:0.64520001 6:0.75 7:0.064999998 8:0.222 9:1.1612999 10:2.1110001 11:1.5484 12:2.5810001 13:0.51609999 14:1.434 15:0.70969999 16:0.84500003 17:0.12899999 18:0.64499998 19:0.51599997 20:1.147 21:0.70969999 22:1.075 23:0.64520001 24:0.87199998 25:0.64520001 26:3.7950001 27:0.19400001 28:0.44999999 29:0.12899999 30:0.248 31:0.51599997 32:1.323 33:0.25799999 34:0.52700001 35:0.38710001 36:0.55299997 37:0.45199999 38:0.74000001 39:0.51609999 40:0.78200001 41:0.12899999 42:0.38 43:0.22579999 44:0.4258 45:0.16769999 46:0.090300001 47:0.46450001 48:0.53549999 49:0.38069999 50:0.1097 51:0.271 #
-4.1945277163861237 1:0.2077253 2:0.10819 3:0.46131 4:0.1593 5:0.2604 6:0.303 7:0.25999999 8:0.898 9:0.6771 10:1.2309999 11:0.625 12:1.0420001 13:0.52079999 14:1.447 15:1.3542 16:1.612 17:0.052000001 18:0.25999999 19:0.9896 20:2.1989999 21:0.6771 22:1.026 23:0.5729 24:0.77399999 25:0 26:0 27:0.46880001 28:1.09 29:0.6771 30:1.302 31:0.20829999 32:0.53399998 33:0.3125 34:0.63800001 35:0.5729 36:0.81800002 37:0.46880001 38:0.76800001 39:0.83329999 40:1.263 41:0.417 42:1.225 43:0.29170001 44:0.55729997 45:0.2396 46:0.1042 47:0.59380001 48:0.40630001 49:0.2344 50:0.1042 51:0.1302 #
4.1945277163861237 1:0.1743339 2:0.11394 3:0.38659999 4:0.0128 5:0.84969997 6:0.98799998 7:0 8:0 9:1.3072 10:2.3770001 11:1.3724999 12:2.2880001 13:0.65359998 14:1.816 15:0.65359998 16:0.778 17:0.065399997 18:0.32699999 19:0.523 20:1.1619999 21:0.52289999 22:0.792 23:1.0458 24:1.413 25:0.58819997 26:3.46 27:0.131 28:0.30399999 29:0 30:0 31:0.458 32:1.173 33:0.523 34:1.067 35:0.32679999 36:0.46700001 37:0.523 38:0.85699999 39:0.39219999 40:0.59399998 41:0.064999998 42:0.192 43:0.2353 44:0.4183 45:0.1961 46:0.078400001 47:0.47710001 48:0.52289999 49:0.37909999 50:0.1111 51:0.26800001 #
-4.1945277163861237 1:0.77902871 2:0.11019 3:0.79716998 4:1.5419 5:0.69309998 6:0.80599999 7:0.255 8:0.87800002 9:0.42429999 10:0.77200001 11:0.38190001 12:0.63599998 13:0.42429999 14:1.179 15:1.0042 16:1.196 17:0.26899999 18:1.344 19:0.38190001 20:0.84899998 21:0.52329999 22:0.79299998 23:0.77789998 24:1.051 25:0.198 26:1.165 27:0.53750002 28:1.25 29:0.60820001 30:1.17 31:0.3678 32:0.94300002 33:0.33950001 34:0.69300002 35:0.80620003 36:1.152 37:0.60820001 38:0.99699998 39:0.62230003 40:0.94300002 41:0.509 42:1.498 43:0.33660001 44:0.55589998 45:0.17820001 46:0.1471 47:0.57429999 48:0.42570001 49:0.1938 50:0.1132 51:0.080600001 #
4.1945277163861237 1:0.174106 2:0.11454 3:0.4224 4:0.18350001 5:0.59210002 6:0.68800002 7:0.26300001 8:0.90700001 9:1.1842 10:2.1530001 11:1.3816 12:2.303 13:0.39469999 14:1.096 15:0.52630001 16:0.62699997 17:0 18:0 19:0.52600002 20:1.17 21:1.1842 22:1.794 23:1.0526 24:1.4220001 25:0.26320001 26:1.548 27:0.197 28:0.45899999 29:0 30:0 31:0.197 32:0.50599998 33:0.39500001 34:0.80599999 35:0.59210002 36:0.84600002 37:0.461 38:0.755 39:0.52630001 40:0.79699999 41:0.066 42:0.193 43:0.24339999 44:0.43419999 45:0.2105 46:0.065800004 47:0.44080001 48:0.55919999 49:0.4145 50:0.15790001 51:0.25659999 #
-4.1945277163861237 1:0.83073783 2:0.11151 3:0.84808999 4:1.6614 5:0.61739999 6:0.71799999 7:0.18799999 8:0.648 9:0.4161 10:0.75700003 11:0.38929999 12:0.64899999 13:0.4966 14:1.38 15:0.89929998 16:1.071 17:0.28200001 18:1.409 19:0.52350003 20:1.163 21:0.52350003 22:0.79299998 23:0.75169998 24:1.016 25:0.175 26:1.026 27:0.5772 28:1.342 29:0.5503 30:1.058 31:0.45640001 32:1.17 33:0.38929999 34:0.79400003 35:0.89929998 36:1.285 37:0.51010001 38:0.83600003 39:0.63090003 40:0.95599997 41:0.43000001 42:1.263 43:0.3114 44:0.52890003 45:0.19059999 46:0.1503 47:0.5557 48:0.4443 49:0.2 50:0.1195 51:0.080499999 #
4.1945277163861237 1:0.21864919 2:0.11329 3:0.49540001 4:0.038400002 5:0.67360002 6:0.78299999 7:0.104 8:0.35699999 9:0.46630001 10:0.84799999 11:1.399 12:2.332 13:0.51810002 14:1.439 15:0.56989998 16:0.67900002 17:0.15539999 18:0.77700001 19:0.36300001 20:0.80599999 21:1.1399 22:1.727 23:0.62180001 24:0.83999997 25:0.4145 26:2.438 27:0.36300001 28:0.84299999 29:0.93260002 30:1.794 31:0.36300001 32:0.93000001 33:0.36300001 34:0.74000001 35:0.25909999 36:0.37 37:0.56999999 38:0.93400002 39:0.56989998 40:0.86400002 41:0.155 42:0.45699999 43:0.2176 44:0.4508 45:0.15539999 46:0.082900003 47:0.49219999 48:0.50779998 49:0.35229999 50:0.16580001 51:0.1865 #
-4.1945277163861237 1:0.80654937 2:0.11156 3:0.60043001 4:1.9274 5:0.58090001 6:0.67500001 7:0.19400001 8:0.66799998 9:0.52560002 10:0.95599997 11:0.42879999 12:0.71499997 13:0.4149 14:1.153 15:0.88520002 16:1.054 17:0.208 18:1.0369999 19:0.51179999 20:1.137 21:0.53939998 22:0.81699997 23:0.78839999 24:1.0650001 25:0.208 26:1.22 27:0.63620001 28:1.48 29:0.53939998 30:1.0369999 31:0.33199999 32:0.85100001 33:0.249 34:0.50800002 35:0.7331 36:1.0470001 37:0.70539999 38:1.156 39:0.67769998 40:1.027 41:0.484 42:1.424 43:0.3098 44:0.54769999 45:0.1978 46:0.14659999 47:0.5643 48:0.4357 49:0.19499999 50:0.099600002 51:0.095399998 #
4.1945277163861237 1:0.2143335 2:0.10935 3:0.4689 4:0.038400002 5:1.1734999 6:1.364 7:0.102 8:0.352 9:0.45919999 10:0.83499998 11:1.1734999 12:1.956 13:0.51020002 14:1.4170001 15:0.66329998 16:0.79000002 17:0.1531 18:0.76499999 19:0.35699999 20:0.79400003 21:0.86729997 22:1.314 23:0.71429998 24:0.96499997 25:0.30610001 26:1.801 27:0.35699999 28:0.83099997 29:1.0204 30:1.962 31:0.35699999 32:0.91600001 33:0.30599999 34:0.625 35:0.25510001 36:0.36399999 37:0.50999999 38:0.83600003 39:0.56120002 40:0.85000002 41:0.153 42:0.44999999 43:0.27039999 44:0.51020002 45:0.16329999 46:0.081600003 47:0.55610001 48:0.44389999 49:0.29589999 50:0.1327 51:0.16329999 #
-4.1945277163861237 1:0.37215579 2:0.10787 3:0.57712001 4:0.1209 5:0.89859998 6:1.045 7:0.23199999 8:0.80000001 9:0.66670001 10:1.212 11:0.46380001 12:0.773 13:0.66670001 14:1.852 15:0.98549998 16:1.173 17:0.116 18:0.57999998 19:0.52170002 20:1.159 21:0.34779999 22:0.52700001 23:0.78259999 24:1.058 25:0.116 26:0.68199998 27:0.63770002 28:1.483 29:0.40580001 30:0.77999997 31:0.3768 32:0.96600002 33:0.66670001 34:1.3609999 35:0.89859998 36:1.284 37:0.4348 38:0.713 39:0.60869998 40:0.92199999 41:0.145 42:0.426 43:0.34490001 44:0.57679999 45:0.1913 46:0.095700003 47:0.53909999 48:0.46090001 49:0.2261 50:0.113 51:0.113 #
4.1945277163861237 1:0.1754594 2:0.1132 3:0.4003 4:0.051199999 5:0.64520001 6:0.75 7:0.19400001 8:0.667 9:0.9677 10:1.76 11:1.2903 12:2.151 13:0.45159999 14:1.2539999 15:0.64520001 16:0.76800001 17:0.064499997 18:0.32300001 19:0.51599997 20:1.147 21:0.77420002 22:1.173 23:1.1612999 24:1.569 25:0.51609999 26:3.036 27:0.32300001 28:0.75 29:0.38710001 30:0.74400002 31:0.38699999 32:0.99299997 33:0.25799999 34:0.52700001 35:0.32260001 36:0.461 37:0.25799999 38:0.42300001 39:0.58060002 40:0.88 41:0.25799999 42:0.759 43:0.20649999 44:0.4323 45:0.22579999 46:0.077399999 47:0.53549999 48:0.46450001 49:0.3355 50:0.1097 51:0.22579999 #
-4.1945277163861237 1:0.57725281 2:0.11144 3:0.55532002 4:0.57179999 5:0.67570001 6:0.78600001 7:0.212 8:0.73199999 9:0.67570001 10:1.229 11:0.59850001 12:0.99699998 13:0.46329999 14:1.2869999 15:0.71429998 16:0.85000002 17:0.154 18:0.77200001 19:0.84939998 20:1.888 21:0.55980003 22:0.84799999 23:0.69499999 24:0.93900001 25:0.212 26:1.249 27:0.50190002 28:1.1670001 29:0.46329999 30:0.89099997 31:0.28960001 32:0.74299997 33:0.54049999 34:1.103 35:0.8301 36:1.186 37:0.57920003 38:0.949 39:0.5212 40:0.79000002 41:0.34799999 42:1.022 43:0.3012 44:0.51740003 45:0.2066 46:0.1081 47:0.52700001 48:0.47299999 49:0.2529 50:0.12549999 51:0.1274 #
4.1945277163861237 1:0.1755095 2:0.11323 3:0.4102 4:0.051199999 5:0.64520001 6:0.75 7:0.25799999 8:0.88999999 9:0.9677 10:1.76 11:1.2903 12:2.151 13:0.45159999 14:1.2539999 15:0.64520001 16:0.76800001 17:0.064499997 18:0.32300001 19:0.38699999 20:0.86000001 21:0.8387 22:1.271 23:1.2903 24:1.744 25:0.38710001 26:2.277 27:0.32300001 28:0.75 29:0.51609999 30:0.99299997 31:0.32300001 32:0.82700002 33:0.32300001 34:0.65799999 35:0.2581 36:0.36899999 37:0.25799999 38:0.42300001 39:0.51609999 40:0.78200001 41:0.25799999 42:0.759 43:0.20649999 44:0.43869999 45:0.2194 46:0.077399999 47:0.53549999 48:0.46450001 49:0.3484 50:0.1226 51:0.22579999 #
-4.1945277163861237 1:0.58453912 2:0.11134 3:0.85693002 4:0.57179999 5:0.6286 6:0.73100001 7:0.171 8:0.59100002 9:0.5905 10:1.074 11:0.47620001 12:0.79400003 13:0.49520001 14:1.376 15:0.81900001 16:0.97500002 17:0.152 18:0.76200002 19:0.83810002 20:1.862 21:0.6857 22:1.039 23:0.60949999 24:0.824 25:0.324 26:1.905 27:0.5905 28:1.373 29:0.419 30:0.80599999 31:0.28569999 32:0.73299998 33:0.49520001 34:1.011 35:0.6857 36:0.98000002 37:0.55239999 38:0.90600002 39:0.7238 40:1.097 41:0.34299999 42:1.008 43:0.28569999 44:0.51810002 45:0.21709999 46:0.1105 47:0.54860002 48:0.45140001 49:0.23999999 50:0.13330001 51:0.1067 #
4.1945277163861237 1:0.1714437 2:0.11206 3:0.43349999 4:0.1209 5:0.98040003 6:1.14 7:0 8:0 9:0.84969997 10:1.545 11:1.3072 12:2.1789999 13:0.45750001 14:1.271 15:0.91500002 16:1.089 17:0.065399997 18:0.32699999 19:0.32699999 20:0.72600001 21:1.0458 22:1.584 23:1.1111 24:1.502 25:0.26140001 26:1.538 27:0.064999998 28:0.152 29:0.39219999 30:0.75400001 31:0.458 32:1.173 33:0.32699999 34:0.667 35:0.13070001 36:0.18700001 37:0.39199999 38:0.64300001 39:0.52289999 40:0.792 41:0.32699999 42:0.96100003 43:0.2418 44:0.42480001 45:0.1961 46:0.091499999 47:0.53600001 48:0.4641 49:0.35949999 50:0.14380001 51:0.2157 #
-4.1945277163861237 1:0.57435268 2:0.1094 3:0.78688002 4:0.54049999 5:0.89520001 6:1.041 7:0.094999999 8:0.32800001 9:0.6476 10:1.177 11:0.49520001 12:0.82499999 13:0.3048 14:0.847 15:0.83810002 16:0.99800003 17:0.114 18:0.57099998 19:0.87620002 20:1.947 21:0.53329998 22:0.80800003 23:0.76190001 24:1.03 25:0.229 26:1.345 27:0.43810001 28:1.0190001 29:0.419 30:0.80599999 31:0.2667 32:0.68400002 33:0.6286 34:1.283 35:0.87620002 36:1.252 37:0.47620001 38:0.78100002 39:0.6286 40:0.95200002 41:0.38100001 42:1.12 43:0.31810001 44:0.53140002 45:0.22669999 46:0.089500003 47:0.55239999 48:0.44760001 49:0.2419 50:0.1276 51:0.1143 #
4.1945277163861237 1:0.16140971 2:0.10833 3:0.41159999 4:0.051199999 5:0.80540001 6:0.93599999 7:0 8:0 9:0.8725 10:1.586 11:1.0738 12:1.79 13:0.53689998 14:1.4910001 15:1.4094 16:1.678 17:0.13420001 18:0.671 19:0.403 20:0.89499998 21:0.73830003 22:1.119 23:1.1409 24:1.5420001 25:0.33559999 26:1.974 27:0.403 28:0.93599999 29:0.13420001 30:0.25799999 31:0.403 32:1.033 33:0.20100001 34:0.41100001 35:0.40270001 36:0.57499999 37:0.26899999 38:0.44 39:0.4698 40:0.71200001 41:0.26899999 42:0.79000002 43:0.2886 44:0.4765 45:0.2013 46:0.093999997 47:0.5503 48:0.4497 49:0.30199999 50:0.1074 51:0.1946 #
-4.1945277163861237 1:0.60837573 2:0.11204 3:0.66213 4:0.4779 5:0.51569998 6:0.60000002 7:0.055 8:0.191 9:0.60769999 10:1.105 11:0.66299999 12:1.105 13:0.57090002 14:1.586 15:0.84710002 16:1.0089999 17:0.29499999 18:1.473 19:0.3867 20:0.85900003 21:0.77350003 22:1.1720001 23:1.0129 24:1.369 25:0.27599999 26:1.625 27:0.34990001 28:0.81400001 29:0.62620002 30:1.204 31:0.2394 32:0.61400002 33:0.36829999 34:0.75199997 35:0.55250001 36:0.78899997 37:0.55250001 38:0.90600002 39:0.81029999 40:1.228 41:0.442 42:1.3 43:0.25229999 44:0.49169999 45:0.221 46:0.1363 47:0.55989999 48:0.4402 49:0.27070001 50:0.1437 51:0.12710001 #
4.1945277163861237 1:0.2061955 2:0.11146 3:0.47569999 4:0.025599999 5:0.91890001 6:1.069 7:0.108 8:0.373 9:0.54049999 10:0.98299998 11:1.1351 12:1.892 13:0.70270002 14:1.952 15:0.70270002 16:0.83700001 17:0.21619999 18:1.081 19:0.324 20:0.72100002 21:0.86489999 22:1.3099999 23:0.91890001 24:1.242 25:0.3784 26:2.2260001 27:0.37799999 28:0.88 29:0.59460002 30:1.143 31:0.324 32:0.83200002 33:0.324 34:0.662 35:0.21619999 36:0.30899999 37:0.59500003 38:0.97500002 39:0.64859998 40:0.98299998 41:0.108 42:0.31799999 43:0.25409999 44:0.47029999 45:0.1892 46:0.1027 47:0.54049999 48:0.45950001 49:0.30809999 50:0.14049999 51:0.16760001 #
-4.1945277163861237 1:0.80765033 2:0.11521 3:0.63823998 4:0.97149998 5:0.41370001 6:0.48100001 7:0.185 8:0.639 9:0.58490002 10:1.063 11:0.54210001 12:0.903 13:0.67049998 14:1.862 15:0.58490002 16:0.69599998 17:0.271 18:1.355 19:0.79890001 20:1.775 21:0.4993 22:0.75599998 23:1.0842 24:1.465 25:0.228 26:1.3430001 27:0.65619999 28:1.526 29:0.31380001 30:0.60399997 31:0.44220001 32:1.1339999 33:0.47080001 34:0.96100003 35:0.71329999 36:1.0190001 37:0.55629998 38:0.912 39:0.44220001 40:0.67000002 41:0.38499999 42:1.133 43:0.2454 44:0.44510001 45:0.2325 46:0.14839999 47:0.52640003 48:0.4736 49:0.2368 50:0.1241 51:0.1127 #
4.1945277163861237 1:0.16246261 2:0.10831 3:0.43180001 4:0.051199999 5:0.80000001 6:0.93000001 7:0.133 8:0.46000001 9:0.80000001 10:1.455 11:0.80000001 12:1.3329999 13:0.40000001 14:1.1109999 15:0.80000001 16:0.95200002 17:0.066699997 18:0.333 19:0.73299998 20:1.63 21:0.86669999 22:1.313 23:0.93330002 24:1.261 25:0.2 26:1.176 27:0.26699999 28:0.62 29:0.2667 30:0.51300001 31:0.46700001 32:1.197 33:0.133 34:0.27200001 35:0.86669999 36:1.238 37:0.73299998 38:1.202 39:0.46669999 40:0.70700002 41:0.26699999 42:0.78399998 43:0.33329999 44:0.5133 45:0.2133 46:0.073299997 47:0.5 48:0.5 49:0.2667 50:0.1067 51:0.16 #
-4.1945277163861237 1:1.235715 2:0.11516 3:0.74124002 4:1.1351 5:0.28889999 6:0.336 7:0.242 8:0.83600003 9:0.43799999 10:0.796 11:0.78289998 12:1.3049999 13:0.46599999 14:1.294 15:0.4939 16:0.588 17:0.26100001 18:1.3049999 19:0.63370001 20:1.408 21:0.82010001 22:1.243 23:1.4445 24:1.952 25:0.28 26:1.645 27:0.62440002 28:1.452 29:0.3448 30:0.66299999 31:0.47530001 32:1.219 33:0.39140001 34:0.79900002 35:0.62440002 36:0.89200002 37:0.41940001 38:0.68800002 39:0.62440002 40:0.94599998 41:0.205 42:0.60299999 43:0.2069 44:0.41010001 45:0.2703 46:0.1072 47:0.51630002 48:0.48370001 49:0.26930001 50:0.1473 51:0.1221 #
4.1945277163861237 1:0.16960751 2:0.11232 3:0.414 4:0.038400002 5:0.46360001 6:0.53899997 7:0.133 8:0.45699999 9:0.59600002 10:1.084 11:1.457 12:2.428 13:0.59600002 14:1.656 15:0.92720002 16:1.104 17:0.1987 18:0.99299997 19:0.331 20:0.736 21:0.5298 22:0.80299997 23:1.0596 24:1.432 25:0.1987 26:1.169 27:0.39700001 28:0.92400002 29:0.33109999 30:0.63700002 31:0.59600002 32:1.528 33:0.39700001 34:0.81099999 35:0.59600002 36:0.85100001 37:0.39700001 38:0.65100002 39:0.59600002 40:0.903 41:0.199 42:0.58399999 43:0.25170001 44:0.44369999 45:0.1987 46:0.099299997 47:0.48339999 48:0.51660001 49:0.3179 50:0.1126 51:0.2053 #
-4.1945277163861237 1:0.47392169 2:0.1123 3:0.69323999 4:0.62870002 5:0.99529999 6:1.1569999 7:0.094999999 8:0.32699999 9:0.61610001 10:1.12 11:0.61610001 12:1.027 13:0.35550001 14:0.98699999 15:0.56870002 16:0.67699999 17:0.094999999 18:0.47400001 19:0.47389999 20:1.053 21:0.54500002 22:0.82599998 23:0.99529999 24:1.345 25:0.33199999 26:1.951 27:0.42649999 28:0.99199998 29:0.52130002 30:1.003 31:0.33180001 32:0.85100001 33:0.66350001 34:1.354 35:0.71090001 36:1.016 37:0.35550001 38:0.583 39:0.71090001 40:1.077 41:0.42699999 42:1.255 43:0.27250001 44:0.5 45:0.21799999 46:0.1043 47:0.56400001 48:0.43599999 49:0.2536 50:0.1303 51:0.1232 #
4.1945277163861237 1:0.16798811 2:0.11199 3:0.42899999 4:0.051199999 5:0.53329998 6:0.62 7:0.2 8:0.69 9:0.73329997 10:1.3329999 11:1.1332999 12:1.8890001 13:0.53329998 14:1.4809999 15:0.93330002 16:1.1109999 17:0.2667 18:1.3329999 19:0.26699999 20:0.59299999 21:0.60000002 22:0.90899998 23:0.86669999 24:1.171 25:0.40000001 26:2.3529999 27:0.53299999 28:1.24 29:0.2 30:0.38499999 31:0.40000001 32:1.026 33:0.333 34:0.68000001 35:0.2667 36:0.38100001 37:0.60000002 38:0.98400003 39:0.93330002 40:1.414 41:0.26699999 42:0.78399998 43:0.25330001 44:0.49329999 45:0.2067 46:0.1067 47:0.5133 48:0.4867 49:0.30669999 50:0.12 51:0.1867 #
-4.1945277163861237 1:0.36396611 2:0.11374 3:0.4973 4:0.31150001 5:0.46880001 6:0.54500002 7:0.125 8:0.43099999 9:0.625 10:1.136 11:0.96880001 12:1.615 13:0.46880001 14:1.302 15:0.6875 16:0.81800002 17:0.28099999 18:1.406 19:0.4375 20:0.972 21:0.90630001 22:1.373 23:0.96880001 24:1.309 25:0.46900001 26:2.757 27:0.625 28:1.4529999 29:0.46880001 30:0.90100002 31:0.21879999 32:0.56099999 33:0.25 34:0.50999999 35:0.5 36:0.71399999 37:0.3125 38:0.51200002 39:0.78130001 40:1.184 41:0.34400001 42:1.011 43:0.2094 44:0.4594 45:0.21879999 46:0.1188 47:0.53130001 48:0.46880001 49:0.30309999 50:0.14380001 51:0.1594 #
4.1945277163861237 1:0.166134 2:0.11302 3:0.42179999 4:0.051199999 5:0.74830002 6:0.87 7:0.13600001 8:0.46900001 9:0.81629997 10:1.484 11:1.0884 12:1.814 13:0.5442 14:1.512 15:0.6803 16:0.81 17:0.2041 18:1.02 19:0.47600001 20:1.058 21:0.47620001 22:0.722 23:1.0204 24:1.3789999 25:0.2721 26:1.601 27:0.40799999 28:0.949 29:0.2041 30:0.39199999 31:0.68000001 32:1.744 33:0.47600001 34:0.972 35:0.61220002 36:0.875 37:0.47600001 38:0.78100002 39:0.4082 40:0.61799997 41:0.27200001 42:0.80000001 43:0.26530001 44:0.449 45:0.19050001 46:0.102 47:0.47620001 48:0.52380002 49:0.30610001 50:0.1157 51:0.19050001 #
-4.1945277163861237 1:0.2397529 2:0.10948 3:0.47336 4:0.1849 5:0.77630001 6:0.903 7:0.228 8:0.787 9:0.59359998 10:1.079 11:0.31959999 12:0.53299999 13:0.50230002 14:1.395 15:0.59359998 16:0.70700002 17:0.13699999 18:0.685 19:0.45660001 20:1.015 21:0.31959999 22:0.484 23:1.2329 24:1.666 25:0.183 26:1.074 27:0.82190001 28:1.911 29:0.54790002 30:1.054 31:0.18260001 32:0.46799999 33:0.31959999 34:0.65200001 35:0.68489999 36:0.97799999 37:0.77630001 38:1.273 39:0.82190001 40:1.245 41:0.45699999 42:1.3430001 43:0.30590001 44:0.58450001 45:0.2511 46:0.1142 47:0.58450001 48:0.41549999 49:0.169 50:0.077600002 51:0.091300003 #
4.1945277163861237 1:0.18059181 2:0.11358 3:0.41760001 4:0.095299996 5:0.56599998 6:0.65799999 7:0.189 8:0.65100002 9:1.1950001 10:2.1730001 11:1.1321 12:1.887 13:0.56599998 14:1.572 15:0.81760001 16:0.97299999 17:0.1258 18:0.62900001 19:0.62900001 20:1.398 21:0.81760001 22:1.239 23:0.6918 24:0.935 25:0.44029999 26:2.5899999 27:0.252 28:0.58499998 29:0.2516 30:0.484 31:0.315 32:0.80599999 33:0.44 34:0.898 35:0.37740001 36:0.53899997 37:0.50300002 38:0.82499999 39:0.44029999 40:0.667 41:0.189 42:0.55500001 43:0.24529999 44:0.45910001 45:0.1761 46:0.094300002 47:0.48429999 48:0.51569998 49:0.37110001 50:0.1384 51:0.23270001 #
-4.1945277163861237 1:0.41074821 2:0.11192 3:0.60276997 4:0.38690001 5:0.76289999 6:0.88700002 7:0.109 8:0.37599999 9:0.73570001 10:1.3380001 11:0.76289999 12:1.272 13:0.40869999 14:1.135 15:0.68120003 16:0.81099999 17:0.164 18:0.81699997 19:0.4632 20:1.029 21:0.84469998 22:1.28 23:0.89920002 24:1.215 25:0.21799999 26:1.2819999 27:0.27250001 28:0.634 29:0.4905 30:0.94300002 31:0.43599999 32:1.118 33:0.51770002 34:1.057 35:0.51770002 36:0.74000001 37:0.54500002 38:0.89300001 39:0.81739998 40:1.239 41:0.21799999 42:0.64099997 43:0.26159999 44:0.4932 45:0.21799999 46:0.092600003 47:0.52039999 48:0.47960001 49:0.30250001 50:0.15260001 51:0.1499 #
4.1945277163861237 1:0.17603581 2:0.11284 3:0.39820001 4:0.1081 5:0.57690001 6:0.671 7:0.192 8:0.66299999 9:1.2821 10:2.3310001 11:1.0897 12:1.816 13:0.76920003 14:2.1370001 15:0.96149999 16:1.145 17:0.12819999 18:0.64099997 19:0.38499999 20:0.85500002 21:0.64099997 22:0.97100002 23:0.96149999 24:1.299 25:0.25639999 26:1.508 27:0.192 28:0.447 29:0.38460001 30:0.74000001 31:0.25600001 32:0.65700001 33:0.38499999 34:0.78500003 35:0.25639999 36:0.366 37:0.38499999 38:0.63099998 39:0.57690001 40:0.87400001 41:0.25600001 42:0.75400001 43:0.23720001 44:0.4808 45:0.19230001 46:0.1218 47:0.53850001 48:0.46149999 49:0.35260001 50:0.1154 51:0.23720001 #
-4.1945277163861237 1:0.50873488 2:0.11084 3:0.67171001 4:0.47510001 5:0.71899998 6:0.83600003 7:0.17399999 8:0.60100001 9:0.47929999 10:0.87099999 11:0.65359998 12:1.089 13:0.67540002 14:1.876 15:0.78430003 16:0.93400002 17:0.34900001 18:1.743 19:0.54470003 20:1.21 21:0.65359998 22:0.99000001 23:0.95859998 24:1.295 25:0.30500001 26:1.794 27:0.1961 28:0.456 29:0.52289999 30:1.006 31:0.39219999 32:1.006 33:0.3486 34:0.71100003 35:0.78430003 36:1.12 37:0.5011 38:0.82099998 39:0.67540002 40:1.023 41:0.131 42:0.384 43:0.29629999 44:0.48370001 45:0.21789999 46:0.13070001 47:0.5643 48:0.4357 49:0.2484 50:0.13510001 51:0.1133 #
4.1945277163861237 1:0.2076759 2:0.10873 3:0.46790001 4:0.0128 5:1.3089 6:1.522 7:0.052000001 8:0.18099999 9:0.57590002 10:1.0470001 11:1.0994999 12:1.832 13:0.52359998 14:1.454 15:0.62830001 16:0.74800003 17:0.1047 18:0.52399999 19:0.52399999 20:1.163 21:1.0470999 22:1.587 23:0.68059999 24:0.92000002 25:0.3141 26:1.848 27:0.52399999 28:1.2180001 29:0.73299998 30:1.41 31:0.36700001 32:0.94 33:0.20900001 34:0.42699999 35:0.3141 36:0.449 37:0.419 38:0.68699998 39:0.52359998 40:0.79299998 41:0.052000001 42:0.154 43:0.2723 44:0.5079 45:0.1728 46:0.068099998 47:0.53399998 48:0.46599999 49:0.3037 50:0.13609999 51:0.1675 #
-4.1945277163861237 1:0.44257939 2:0.11233 3:0.66491002 4:0.50779998 5:0.68529999 6:0.79699999 7:0.152 8:0.52499998 9:0.4061 10:0.73799998 11:0.83759999 12:1.396 13:0.4061 14:1.128 15:0.58380002 16:0.69499999 17:0.30500001 18:1.523 19:0.68529999 20:1.523 21:0.91369998 22:1.3839999 23:0.78680003 24:1.063 25:0.228 26:1.344 27:0.2538 28:0.58999997 29:0.68529999 30:1.318 31:0.4822 32:1.2359999 33:0.20299999 34:0.414 35:0.50760001 36:0.72500002 37:0.63450003 38:1.04 39:0.76139998 40:1.154 41:0.33000001 42:0.97000003 43:0.25639999 44:0.46700001 45:0.2234 46:0.1193 47:0.54570001 48:0.45429999 49:0.2665 50:0.14210001 51:0.1244 #
4.1945277163861237 1:0.2101385 2:0.10888 3:0.46849999 4:0.025599999 5:1.3472 6:1.566 7:0.052000001 8:0.17900001 9:0.51810002 10:0.94199997 11:1.1399 12:1.9 13:0.46630001 14:1.295 15:0.56989998 16:0.67900002 17:0.1036 18:0.51800001 19:0.46599999 20:1.036 21:0.98449999 22:1.492 23:0.72539997 24:0.98000002 25:0.3109 26:1.829 27:0.51800001 28:1.205 29:0.67360002 30:1.295 31:0.36300001 32:0.93000001 33:0.259 34:0.52899998 35:0.4145 36:0.59200001 37:0.36300001 38:0.59500003 39:0.62180001 40:0.94199997 41:0.104 42:0.30500001 43:0.2746 44:0.50779998 45:0.1814 46:0.067400001 47:0.53369999 48:0.46630001 49:0.30050001 50:0.1347 51:0.16580001 #
-4.1945277163861237 1:0.27757671 2:0.11423 3:1.00837 4:0.1778 5:0.45269999 6:0.52600002 7:0.124 8:0.426 9:0.2881 10:0.52399999 11:0.82300001 12:1.372 13:0.1646 14:0.45699999 15:0.41150001 16:0.49000001 17:0.124 18:0.61699998 19:0.45269999 20:1.006 21:0.6584 22:0.99800003 23:1.2757 24:1.724 25:0.24699999 26:1.452 27:0.57609999 28:1.34 29:0.53500003 30:1.029 31:0.78189999 32:2.0050001 33:0.82300001 34:1.6799999 35:0.98769999 36:1.411 37:0.49380001 38:0.81 39:0.49380001 40:0.74800003 41:0.206 42:0.60500002 43:0.24690001 44:0.43619999 45:0.22220001 46:0.057599999 47:0.44440001 48:0.55559999 49:0.27160001 50:0.1605 51:0.1111 #
4.1945277163861237 1:0.218008 2:0.11238 3:0.4745 4:0.038400002 5:0.8247 6:0.95899999 7:0.155 8:0.53299999 9:0.56699997 10:1.031 11:1.2887 12:2.148 13:0.51550001 14:1.432 15:0.61860001 16:0.736 17:0.15459999 18:0.773 19:0.361 20:0.80199999 21:0.97939998 22:1.484 23:0.7216 24:0.97500002 25:0.41240001 26:2.4260001 27:0.30899999 28:0.71899998 29:0.8247 30:1.586 31:0.361 32:0.92500001 33:0.412 34:0.84200001 35:0.2577 36:0.368 37:0.56699997 38:0.93000001 39:0.51550001 40:0.78100002 41:0.155 42:0.45500001 43:0.2423 44:0.4639 45:0.15979999 46:0.082500003 47:0.51029998 48:0.48969999 49:0.34020001 50:0.15459999 51:0.1856 #
-4.1945277163861237 1:0.3495585 2:0.1069 3:0.52339 4:0.095299996 5:0.73390001 6:0.85299999 7:0.245 8:0.84399998 9:0.48930001 10:0.88999999 11:0.2141 12:0.35699999 13:0.64219999 14:1.784 15:0.73390001 16:0.87400001 17:0.122 18:0.61199999 19:0.42809999 20:0.95099998 21:0.091700003 22:0.139 23:0.97860003 24:1.322 25:0.122 26:0.72000003 27:1.0398 28:2.418 29:0.48930001 30:0.94099998 31:0.4587 32:1.176 33:0.4587 34:0.93599999 35:1.0703 36:1.529 37:0.94800001 38:1.554 39:0.61159998 40:0.92699999 41:0.092 42:0.27000001 43:0.37310001 44:0.63609999 45:0.2018 46:0.088699996 47:0.51069999 48:0.48930001 49:0.1376 50:0.067299999 51:0.070299998 #
4.1945277163861237 1:0.2276393 2:0.10944 3:0.54390001 4:0.051199999 5:0.91350001 6:1.062 7:0.096000001 8:0.33199999 9:0.52880001 10:0.96200001 11:1.0096 12:1.683 13:0.43270001 14:1.202 15:0.76920003 16:0.91600001 17:0.1442 18:0.72100002 19:0.23999999 20:0.53399998 21:1.0096 22:1.53 23:0.81730002 24:1.104 25:0.2404 26:1.414 27:0.38499999 28:0.89399999 29:0.81730002 30:1.572 31:0.38499999 32:0.986 33:0.33700001 34:0.68699998 35:0.38460001 36:0.54900002 37:0.433 38:0.70899999 39:0.86540002 40:1.311 41:0.192 42:0.56599998 43:0.25960001 44:0.51920003 45:0.19230001 46:0.076899998 47:0.53850001 48:0.46149999 49:0.30289999 50:0.149 51:0.1539 #
-4.1945277163861237 1:0.25555241 2:0.1116 3:0.73005003 4:0.0128 5:0.69870001 6:0.81199998 7:0.175 8:0.602 9:0.43669999 10:0.79400003 11:1.179 12:1.965 13:0.26199999 14:0.72799999 15:0.56770003 16:0.676 17:0.086999997 18:0.43700001 19:0.48030001 20:1.067 21:1.0044 22:1.522 23:1.2227 24:1.652 25:0.21799999 26:1.284 27:0.43669999 28:1.016 29:0.3057 30:0.588 31:0.43669999 32:1.12 33:0.61140001 34:1.248 35:0.74239999 36:1.061 37:0.52399999 38:0.85900003 39:0.56770003 40:0.86000001 41:0.044 42:0.12800001 43:0.27070001 44:0.4454 45:0.2271 46:0.039299998 47:0.4542 48:0.54589999 49:0.3319 50:0.17030001 51:0.16159999 #
4.1945277163861237 1:0.16855989 2:0.11237 3:0.42390001 4:0.038400002 5:0.46669999 6:0.54299998 7:0.26699999 8:0.92000002 9:0.60000002 10:1.091 11:1.2667 12:2.1110001 13:0.53329998 14:1.4809999 15:0.93330002 16:1.1109999 17:0.13330001 18:0.667 19:0.26699999 20:0.59299999 21:0.66670001 22:1.01 23:0.86669999 24:1.171 25:0.53329998 26:3.1370001 27:0.53299999 28:1.24 29:0.2 30:0.38499999 31:0.53299999 32:1.368 33:0.333 34:0.68000001 35:0.33329999 36:0.47600001 37:0.53299999 38:0.87400001 39:0.80000001 40:1.212 41:0.2 42:0.588 43:0.25330001 44:0.46669999 45:0.19329999 46:0.0867 47:0.50669998 48:0.49329999 49:0.30000001 50:0.1133 51:0.1867 #
